{"learner":{"attributes":{"best_iteration":"175","best_score":"5.061092432771218","scikit_learn":"{\"_estimator_type\": \"regressor\"}"},"feature_names":["temperature_c","precipitation_mm","day_of_week","day_of_month","month","is_weekend","sales_lag_1","sales_lag_2","sales_lag_3","sales_lag_7","sales_rolling_mean_7","weather_Rainy","weather_Storm","weather_Sunny"],"feature_types":["float","float","int","int","int","int","float","float","float","float","float","i","i","i"],"gradient_booster":{"model":{"gbtree_model_param":{"num_parallel_tree":"1","num_trees":"226"},"iteration_indptr":[0,1,2,3,4,5,6,7,8,9,10,11,12,13,14,15,16,17,18,19,20,21,22,23,24,25,26,27,28,29,30,31,32,33,34,35,36,37,38,39,40,41,42,43,44,45,46,47,48,49,50,51,52,53,54,55,56,57,58,59,60,61,62,63,64,65,66,67,68,69,70,71,72,73,74,75,76,77,78,79,80,81,82,83,84,85,86,87,88,89,90,91,92,93,94,95,96,97,98,99,100,101,102,103,104,105,106,107,108,109,110,111,112,113,114,115,116,117,118,119,120,121,122,123,124,125,126,127,128,129,130,131,132,133,134,135,136,137,138,139,140,141,142,143,144,145,146,147,148,149,150,151,152,153,154,155,156,157,158,159,160,161,162,163,164,165,166,167,168,169,170,171,172,173,174,175,176,177,178,179,180,181,182,183,184,185,186,187,188,189,190,191,192,193,194,195,196,197,198,199,200,201,202,203,204,205,206,207,208,209,210,211,212,213,214,215,216,217,218,219,220,221,222,223,224,225,226],"tree_info":[0,0,0,0,0,0,0,0,0,0,0,0,0,0,0,0,0,0,0,0,0,0,0,0,0,0,0,0,0,0,0,0,0,0,0,0,0,0,0,0,0,0,0,0,0,0,0,0,0,0,0,0,0,0,0,0,0,0,0,0,0,0,0,0,0,0,0,0,0,0,0,0,0,0,0,0,0,0,0,0,0,0,0,0,0,0,0,0,0,0,0,0,0,0,0,0,0,0,0,0,0,0,0,0,0,0,0,0,0,0,0,0,0,0,0,0,0,0,0,0,0,0,0,0,0,0,0,0,0,0,0,0,0,0,0,0,0,0,0,0,0,0,0,0,0,0,0,0,0,0,0,0,0,0,0,0,0,0,0,0,0,0,0,0,0,0,0,0,0,0,0,0,0,0,0,0,0,0,0,0,0,0,0,0,0,0,0,0,0,0,0,0,0,0,0,0,0,0,0,0,0,0,0,0,0,0,0,0,0,0,0,0,0,0,0,0,0,0,0,0,0,0,0,0,0,0],"trees":[{"base_weights":[-7.5477743E-1,-1.1179719E1,2.5906054E1,-1.8085499E1,-1.0446116E0,1.625639E1,4.664798E1,-9.964614E-1,-1.3892168E1,9.631105E-1,-7.0846744E0,1.8761477E1,6.730278E0,8.113866E0,5.156862E1,-1.2889127E1,-8.222068E-1,-2.1887238E0,3.2543185E0,-8.347511E0,-1.6534089E0,1.5606261E1,2.6190508E1,7.462677E0,-1.5406336E-1,-1.5547514E-2,9.205837E0,5.5710537E1,3.0013256E1,-7.0425195E-1,-5.559303E-1,-2.036277E-1,2.4746748E-2,4.6734583E-2,3.5893458E-1,-4.7231084E-1,-2.7235538E-1,9.0614045E-3,-1.7591253E-1,8.100296E-1,2.4908748E-1,1.1901892E0,2.1459367E0,2.1201448E-1,4.2940933E-1,1.7926998E-1,5.240875E-1,1.0792699E0,2.834136E0,1.6308225E0,3.4452487E-2],"categories":[],"categories_nodes":[],"categories_segments":[],"categories_sizes":[],"default_left":[0,0,0,0,0,0,0,0,0,0,0,0,0,0,0,0,0,0,0,0,0,0,0,0,0,0,0,0,0,0,0,0,0,0,0,0,0,0,0,0,0,0,0,0,0,0,0,0,0,0,0],"id":0,"left_children":[1,3,5,7,9,11,13,-1,15,17,19,21,23,25,27,29,-1,31,33,35,37,39,41,43,-1,-1,45,47,49,-1,-1,-1,-1,-1,-1,-1,-1,-1,-1,-1,-1,-1,-1,-1,-1,-1,-1,-1,-1,-1,-1],"loss_changes":[2.1652506E5,3.917597E4,4.307508E4,2.2976875E3,2.7717258E3,3.4771562E3,1.2664859E4,0E0,5.6820312E1,1.2492222E3,3.771504E2,2.3806445E3,2.6013123E2,8.5659424E1,3.7740469E3,1.2785156E1,0E0,3.7107132E2,9.03598E2,9.513306E1,4.169329E1,4.623379E2,3.358457E2,7.601514E1,0E0,0E0,1.9788208E1,4.3526562E2,8.935654E2,0E0,0E0,0E0,0E0,0E0,0E0,0E0,0E0,0E0,0E0,0E0,0E0,0E0,0E0,0E0,0E0,0E0,0E0,0E0,0E0,0E0,0E0],"parents":[2147483647,0,0,1,1,2,2,3,3,4,4,5,5,6,6,8,8,9,9,10,10,11,11,12,12,13,13,14,14,15,15,17,17,18,18,19,19,20,20,21,21,22,22,23,23,26,26,27,27,28,28],"right_children":[2,4,6,8,10,12,14,-1,16,18,20,22,24,26,28,30,-1,32,34,36,38,40,42,44,-1,-1,46,48,50,-1,-1,-1,-1,-1,-1,-1,-1,-1,-1,-1,-1,-1,-1,-1,-1,-1,-1,-1,-1,-1,-1],"split_conditions":[4.4857143E1,2.1428572E1,5.9E1,1.2571428E1,1.2699288E-1,1.2699288E-1,4E0,-9.964614E-1,1.2699288E-1,2.7E1,3.5E1,3.003535E1,1.05E2,8E0,1.2699288E-1,4E0,-8.222068E-1,4E0,4E0,2.9571428E1,3.6E1,6.1857143E1,5.3E1,2.5109615E1,-1.5406336E-1,-1.5547514E-2,3.7E1,2.4430927E1,6E0,-7.0425195E-1,-5.559303E-1,-2.036277E-1,2.4746748E-2,4.6734583E-2,3.5893458E-1,-4.7231084E-1,-2.7235538E-1,9.0614045E-3,-1.7591253E-1,8.100296E-1,2.4908748E-1,1.1901892E0,2.1459367E0,2.1201448E-1,4.2940933E-1,1.7926998E-1,5.240875E-1,1.0792699E0,2.834136E0,1.6308225E0,3.4452487E-2],"split_indices":[10,10,9,10,1,1,2,0,1,10,9,0,7,3,1,2,0,2,2,10,9,10,9,0,0,0,6,0,2,0,0,0,0,0,0,0,0,0,0,0,0,0,0,0,0,0,0,0,0,0,0],"split_type":[0,0,0,0,0,0,0,0,0,0,0,0,0,0,0,0,0,0,0,0,0,0,0,0,0,0,0,0,0,0,0,0,0,0,0,0,0,0,0,0,0,0,0,0,0,0,0,0,0,0,0],"sum_hessian":[7.77E2,5.59E2,2.18E2,3.32E2,2.27E2,1.5E2,6.8E1,2.28E2,1.04E2,1.71E2,5.6E1,1.18E2,3.2E1,8E0,6E1,7.9E1,2.5E1,7.2E1,9.9E1,4.5E1,1.1E1,8.5E1,3.3E1,3E1,2E0,1E0,7E0,4.9E1,1.1E1,4.3E1,3.6E1,4.2E1,3E1,6.3E1,3.6E1,3.1E1,1.4E1,6E0,5E0,8E1,5E0,3.1E1,2E0,9E0,2.1E1,2E0,5E0,2E0,4.7E1,1E1,1E0],"tree_param":{"num_deleted":"0","num_feature":"14","num_nodes":"51","size_leaf_vector":"1"}},{"base_weights":[-4.5526695E-1,-9.569682E0,2.7925049E1,-1.6870079E1,7.9476863E-1,1.663323E1,4.6238274E1,-9.453727E-1,-1.3011286E1,-2.5514393E0,5.8937726E0,1.8539465E1,7.126957E0,9.650919E0,5.015035E1,-1.3656011E1,-4.5537066E0,-9.310377E-1,-8.480302E0,9.02209E0,2.731684E-1,1.5675189E1,2.2877836E1,2.4893887E0,8.071715E0,2.4883567E-1,5.73005E-1,5.3018852E1,3.177025E1,-1.4116617E-1,-6.864412E-1,-3.0886394E-1,-2.8701449E-2,-3.4395853E-1,-8.563165E-3,-4.591767E-1,-7.187998E-2,2.6299632E-1,7.7261466E-1,-1.6109094E-1,2.5739697E-1,6.587328E-1,1.025464E0,1.0008997E0,2.0376036E0,3.8869478E-2,1.6857958E-1,4.719096E-1,1.9967371E-1,2.68313E0,4.8859912E-1,1.6836275E0,3.1868193E-1],"categories":[],"categories_nodes":[],"categories_segments":[],"categories_sizes":[],"default_left":[0,0,0,0,0,0,0,0,0,0,0,0,0,0,0,0,0,0,0,0,0,0,0,0,0,0,0,0,0,0,0,0,0,0,0,0,0,0,0,0,0,0,0,0,0,0,0,0,0,0,0,0,0],"id":1,"left_children":[1,3,5,7,9,11,13,-1,15,17,19,21,23,25,27,29,31,33,35,37,39,41,43,45,47,-1,-1,49,51,-1,-1,-1,-1,-1,-1,-1,-1,-1,-1,-1,-1,-1,-1,-1,-1,-1,-1,-1,-1,-1,-1,-1,-1],"loss_changes":[1.968564E5,4.3596223E4,3.7486984E4,2.4112812E3,4.0929338E3,1.9699277E3,9.535281E3,0E0,5.9215234E2,1.3851394E3,1.6679233E3,8.343125E2,7.1915405E1,1.0618225E1,1.6371406E3,4.8791016E1,6.1066986E1,5.1853436E2,1.4033008E2,1.3944023E3,6.1288983E2,4.671543E2,1.0244551E3,4.9306145E0,5.7046753E1,0E0,0E0,9.511406E2,3.1681445E2,0E0,0E0,0E0,0E0,0E0,0E0,0E0,0E0,0E0,0E0,0E0,0E0,0E0,0E0,0E0,0E0,0E0,0E0,0E0,0E0,0E0,0E0,0E0,0E0],"parents":[2147483647,0,0,1,1,2,2,3,3,4,4,5,5,6,6,8,8,9,9,10,10,11,11,12,12,13,13,14,14,15,15,16,16,17,17,18,18,19,19,20,20,21,21,22,22,23,23,24,24,27,27,28,28],"right_children":[2,4,6,8,10,12,14,-1,16,18,20,22,24,26,28,30,32,34,36,38,40,42,44,46,48,-1,-1,50,52,-1,-1,-1,-1,-1,-1,-1,-1,-1,-1,-1,-1,-1,-1,-1,-1,-1,-1,-1,-1,-1,-1,-1,-1],"split_conditions":[3.9E1,1.9E1,6E1,1.2E1,3E1,1.2699288E-1,4E0,-9.453727E-1,2.4E1,1.2699288E-1,1.2699288E-1,2.9811026E1,1E1,6.6E1,1.9196161E0,2.2306107E1,1.8E1,1.8E1,4.3E1,3.4E1,3.6E1,2E1,5.6E1,1.2623828E1,8E1,2.4883567E-1,5.73005E-1,6E0,1.9E1,-1.4116617E-1,-6.864412E-1,-3.0886394E-1,-2.8701449E-2,-3.4395853E-1,-8.563165E-3,-4.591767E-1,-7.187998E-2,2.6299632E-1,7.7261466E-1,-1.6109094E-1,2.5739697E-1,6.587328E-1,1.025464E0,1.0008997E0,2.0376036E0,3.8869478E-2,1.6857958E-1,4.719096E-1,1.9967371E-1,2.68313E0,4.8859912E-1,1.6836275E0,3.1868193E-1],"split_indices":[9,9,9,9,9,1,2,0,7,1,1,0,3,9,1,0,9,7,7,7,7,3,9,1,7,0,0,2,3,0,0,0,0,0,0,0,0,0,0,0,0,0,0,0,0,0,0,0,0,0,0,0,0],"split_type":[0,0,0,0,0,0,0,0,0,0,0,0,0,0,0,0,0,0,0,0,0,0,0,0,0,0,0,0,0,0,0,0,0,0,0,0,0,0,0,0,0,0,0,0,0,0,0,0,0,0,0,0,0],"sum_hessian":[7.59E2,5.75E2,1.84E2,3.37E2,2.38E2,1.15E2,6.9E1,2.18E2,1.19E2,1.44E2,9.4E1,9.5E1,2E1,7E0,6.2E1,1.1E2,9E0,1.14E2,3E1,6E1,3.4E1,6E1,3.5E1,4E0,1.6E1,3E0,4E0,5.2E1,1E1,1E0,1.09E2,6E0,3E0,1.2E1,1.02E2,2.7E1,3E0,3.9E1,2.1E1,2E1,1.4E1,4.2E1,1.8E1,3.2E1,3E0,2E0,2E0,1.1E1,5E0,5.1E1,1E0,9E0,1E0],"tree_param":{"num_deleted":"0","num_feature":"14","num_nodes":"53","size_leaf_vector":"1"}},{"base_weights":[9.6719295E-2,-1.0022462E1,2.500853E1,-1.6192968E1,-5.792012E-1,1.49354725E1,4.429542E1,-8.9626485E-1,-1.2484396E1,1.1862181E0,-6.237775E0,1.7461136E1,5.6047935E0,1.2322239E1,4.8953144E1,-1.1453177E1,-7.667928E-1,-1.1413085E0,4.273112E0,-8.086746E0,-3.1232584E0,1.784467E1,1.1305127E-1,7.209672E0,2.9117677E0,3.0651603E0,1.7174118E1,4.972537E1,8.08066E-1,-5.9585714E-1,-4.1410628E-1,-1.9308652E-1,3.1508576E-2,3.2680225E-1,-7.6691166E-2,-4.3805453E-1,-1.8522026E-1,1.7868614E-2,-1.981626E-1,4.1605207E-1,9.245516E-1,4.519774E-2,3.930044E-1,1.7473947E-1,-1.16687775E-1,-2.1379758E-2,2.022624E-1,1.0689001E0,4.3383527E-1,2.5922592E0,1.6546913E0],"categories":[],"categories_nodes":[],"categories_segments":[],"categories_sizes":[],"default_left":[0,0,0,0,0,0,0,0,0,0,0,0,0,0,0,0,0,0,0,0,0,0,0,0,0,0,0,0,0,0,0,0,0,0,0,0,0,0,0,0,0,0,0,0,0,0,0,0,0,0,0],"id":2,"left_children":[1,3,5,7,9,11,13,-1,15,17,19,21,23,25,27,29,-1,31,33,35,37,39,-1,41,43,45,47,49,-1,-1,-1,-1,-1,-1,-1,-1,-1,-1,-1,-1,-1,-1,-1,-1,-1,-1,-1,-1,-1,-1,-1],"loss_changes":[1.946098E5,3.1980691E4,4.266242E4,1.9091328E3,2.185166E3,3.3899258E3,1.0714875E4,0E0,1.4486914E2,1.2047432E3,2.74193E2,6.3590234E2,1.2163245E2,4.4141516E2,8.6765625E2,2.4885742E1,0E0,4.650742E2,9.5615576E2,6.2111816E1,6.281424E1,5.4173047E2,0E0,7.492163E1,5.097152E1,1.884576E1,6.456421E1,5.40625E2,0E0,0E0,0E0,0E0,0E0,0E0,0E0,0E0,0E0,0E0,0E0,0E0,0E0,0E0,0E0,0E0,0E0,0E0,0E0,0E0,0E0,0E0,0E0],"parents":[2147483647,0,0,1,1,2,2,3,3,4,4,5,5,6,6,8,8,9,9,10,10,11,11,12,12,13,13,14,14,15,15,17,17,18,18,19,19,20,20,21,21,23,23,24,24,25,25,26,26,27,27],"right_children":[2,4,6,8,10,12,14,-1,16,18,20,22,24,26,28,30,-1,32,34,36,38,40,-1,42,44,46,48,50,-1,-1,-1,-1,-1,-1,-1,-1,-1,-1,-1,-1,-1,-1,-1,-1,-1,-1,-1,-1,-1,-1,-1],"split_conditions":[4.4857143E1,1.6857143E1,6E1,1.3142858E1,1.2699288E-1,1.2699288E-1,4E0,-8.9626485E-1,1.9196161E0,4E0,3.1E1,6.1857143E1,7.6E1,4.5E1,6.6E1,1.8E1,-7.667928E-1,2.7285715E1,6E0,2.9571428E1,2.760997E0,3.1E1,1.1305127E-1,3.1E1,1.05E2,8E0,5.9E1,1.2699288E-1,8.08066E-1,-5.9585714E-1,-4.1410628E-1,-1.9308652E-1,3.1508576E-2,3.2680225E-1,-7.6691166E-2,-4.3805453E-1,-1.8522026E-1,1.7868614E-2,-1.981626E-1,4.1605207E-1,9.245516E-1,4.519774E-2,3.930044E-1,1.7473947E-1,-1.16687775E-1,-2.1379758E-2,2.022624E-1,1.0689001E0,4.3383527E-1,2.5922592E0,1.6546913E0],"split_indices":[10,10,9,10,1,1,2,0,1,2,9,10,7,8,7,9,0,10,2,10,1,9,0,9,7,3,8,1,0,0,0,0,0,0,0,0,0,0,0,0,0,0,0,0,0,0,0,0,0,0,0],"split_type":[0,0,0,0,0,0,0,0,0,0,0,0,0,0,0,0,0,0,0,0,0,0,0,0,0,0,0,0,0,0,0,0,0,0,0,0,0,0,0,0,0,0,0,0,0,0,0,0,0,0,0],"sum_hessian":[7.7E2,5.48E2,2.22E2,3.31E2,2.17E2,1.47E2,7.5E1,2.23E2,1.08E2,1.66E2,5.1E1,1.15E2,3.2E1,1E1,6.5E1,8.3E1,2.5E1,9.5E1,7.1E1,3.1E1,2E1,1.12E2,3E0,1.9E1,1.3E1,4E0,6E0,6.3E1,2E0,7E1,1.3E1,3.7E1,5.8E1,5.1E1,2E1,2.6E1,5E0,4E0,1.6E1,8E0,1.04E2,2E0,1.7E1,1.2E1,1E0,1E0,3E0,3E0,3E0,5.4E1,9E0],"tree_param":{"num_deleted":"0","num_feature":"14","num_nodes":"51","size_leaf_vector":"1"}},{"base_weights":[-2.1587153E-1,-9.638496E0,2.2407482E1,-1.5421183E1,-7.1037734E-1,1.3602808E1,3.3893623E1,-8.518154E-1,-1.16748905E1,7.8889215E-1,-5.569342E0,1.5414679E1,5.918624E0,4.55832E1,1.184596E1,-6.478352E-1,-9.817405E0,-1.2559557E0,3.9991238E0,-7.534337E0,-3.145774E0,1.5644344E1,1.1190758E-1,-2.5001144E-1,6.422115E0,2.4153607E0,1.5485604E0,1.5560111E1,4.077838E0,-4.3741488E-1,-5.970293E-1,-1.5526888E-1,4.416504E-2,3.1926593E-1,-9.041956E-2,1.8207265E-2,-3.9201802E-1,1.2571216E-3,-2.1901524E-1,4.9762394E-2,7.887816E-1,2.094412E-3,-2.084527E-2,7.907685E-2,3.6344096E-1,8.096911E-1,2.4619628E-2,2.8259668E-1,-1.5265614E-1],"categories":[],"categories_nodes":[],"categories_segments":[],"categories_sizes":[],"default_left":[0,0,0,0,0,0,0,0,0,0,0,0,0,0,0,0,0,0,0,0,0,0,0,0,0,0,0,0,0,0,0,0,0,0,0,0,0,0,0,0,0,0,0,0,0,0,0,0,0],"id":3,"left_children":[1,3,5,7,9,11,13,-1,15,17,19,21,23,25,27,-1,29,31,33,35,37,39,-1,41,43,-1,-1,45,47,-1,-1,-1,-1,-1,-1,-1,-1,-1,-1,-1,-1,-1,-1,-1,-1,-1,-1,-1,-1],"loss_changes":[1.6819503E5,2.8746129E4,2.3001523E4,1.84625E3,1.6070709E3,1.7604922E3,2.5232797E4,0E0,1.2279785E2,1.1144122E3,2.2393848E2,2.887871E2,8.5463745E1,1.0910781E3,9.7521924E2,0E0,2.2260742E0,4.1420728E2,9.2616626E2,7.05343E1,9.797502E1,1.8624023E2,0E0,1.636123E-1,9.096741E1,0E0,0E0,2.211919E2,1.6317859E2,0E0,0E0,0E0,0E0,0E0,0E0,0E0,0E0,0E0,0E0,0E0,0E0,0E0,0E0,0E0,0E0,0E0,0E0,0E0,0E0],"parents":[2147483647,0,0,1,1,2,2,3,3,4,4,5,5,6,6,8,8,9,9,10,10,11,11,12,12,13,13,14,14,16,16,17,17,18,18,19,19,20,20,21,21,23,23,24,24,27,27,28,28],"right_children":[2,4,6,8,10,12,14,-1,16,18,20,22,24,26,28,-1,30,32,34,36,38,40,-1,42,44,-1,-1,46,48,-1,-1,-1,-1,-1,-1,-1,-1,-1,-1,-1,-1,-1,-1,-1,-1,-1,-1,-1,-1],"split_conditions":[4.4857143E1,2.1428572E1,4E0,1.3142858E1,1.2699288E-1,1.2699288E-1,6E0,-8.518154E-1,4E0,4E0,2.7857143E1,6.528571E1,3E1,1.9196161E0,1.2699288E-1,-6.478352E-1,6E0,2.8571428E1,6E0,1.6E1,2.5E1,2.5E1,1.1190758E-1,4.0178266E0,5.1857143E1,2.4153607E0,1.5485604E0,5.8E1,1E2,-4.3741488E-1,-5.970293E-1,-1.5526888E-1,4.416504E-2,3.1926593E-1,-9.041956E-2,1.8207265E-2,-3.9201802E-1,1.2571216E-3,-2.1901524E-1,4.9762394E-2,7.887816E-1,2.094412E-3,-2.084527E-2,7.907685E-2,3.6344096E-1,8.096911E-1,2.4619628E-2,2.8259668E-1,-1.5265614E-1],"split_indices":[10,10,2,10,1,1,2,0,2,2,10,10,7,1,1,0,2,10,2,7,8,7,0,1,10,0,0,8,7,0,0,0,0,0,0,0,0,0,0,0,0,0,0,0,0,0,0,0,0],"split_type":[0,0,0,0,0,0,0,0,0,0,0,0,0,0,0,0,0,0,0,0,0,0,0,0,0,0,0,0,0,0,0,0,0,0,0,0,0,0,0,0,0,0,0,0,0,0,0,0,0],"sum_hessian":[7.87E2,5.56E2,2.31E2,3.37E2,2.19E2,1.32E2,9.9E1,2.33E2,1.04E2,1.68E2,5.1E1,1.06E2,2.6E1,6.4E1,3.5E1,5.8E1,4.6E1,1.03E2,6.5E1,2.7E1,2.4E1,1.04E2,2E0,2E0,2.4E1,5.2E1,1.2E1,2.3E1,1.2E1,3.4E1,1.2E1,5.5E1,4.8E1,4.6E1,1.9E1,1E0,2.6E1,7E0,1.7E1,1E0,1.03E2,1E0,1E0,4E0,2E1,2.2E1,1E0,1E1,2E0],"tree_param":{"num_deleted":"0","num_feature":"14","num_nodes":"49","size_leaf_vector":"1"}},{"base_weights":[4.0320465E-1,-9.0993185E0,2.2424488E1,-1.4682711E1,-7.8493655E-1,1.416805E1,3.896782E1,-1.6181091E1,-1.117951E1,5.5886596E-1,-5.3112903E0,1.6137527E1,5.970482E0,1.0725453E1,4.351237E1,-8.430498E-1,-7.239233E-1,-1.0254127E1,-6.772749E-1,-2.073633E0,2.7324524E0,-7.5856056E0,-1.520537E0,1.3332327E1,2.2524836E1,6.6636496E0,-1.475676E-1,5.287709E0,1.7280752E1,4.5621628E1,2.713839E1,-5.608764E-1,-4.3294296E-1,-1.8403767E-1,2.8344033E-2,5.573954E-2,2.6906487E-1,-4.1945297E-1,-1.4198522E-1,-1.5817486E-1,6.6967025E-2,6.944495E-1,2.3738812E-1,1.2123529E0,7.7250683E-1,2.425481E-1,4.6768293E-1,3.079617E-1,-2.0324135E-2,1.0045537E0,1.5098678E-1,2.3062456E0,4.3594018E-1,1.4564365E0,2.3063354E-1],"categories":[],"categories_nodes":[],"categories_segments":[],"categories_sizes":[],"default_left":[0,0,0,0,0,0,0,0,0,0,0,0,0,0,0,0,0,0,0,0,0,0,0,0,0,0,0,0,0,0,0,0,0,0,0,0,0,0,0,0,0,0,0,0,0,0,0,0,0,0,0,0,0,0,0],"id":4,"left_children":[1,3,5,7,9,11,13,15,17,19,21,23,25,27,29,-1,-1,31,-1,33,35,37,39,41,43,45,-1,47,49,51,53,-1,-1,-1,-1,-1,-1,-1,-1,-1,-1,-1,-1,-1,-1,-1,-1,-1,-1,-1,-1,-1,-1,-1,-1],"loss_changes":[1.6175105E5,2.5056605E4,3.1273125E4,1.5145703E3,1.3289587E3,2.4384004E3,9.4161875E3,1.51875E1,8.004883E1,9.72678E2,4.195343E2,1.9573203E3,2.1756519E2,3.3637683E2,1.0413359E3,0E0,0E0,1.9671387E1,0E0,3.2884552E2,3.9249994E2,9.438403E1,9.821029E1,3.641416E2,7.619336E1,1.0091016E2,0E0,4.220465E1,1.3972046E2,6.564844E2,3.1397656E2,0E0,0E0,0E0,0E0,0E0,0E0,0E0,0E0,0E0,0E0,0E0,0E0,0E0,0E0,0E0,0E0,0E0,0E0,0E0,0E0,0E0,0E0,0E0,0E0],"parents":[2147483647,0,0,1,1,2,2,3,3,4,4,5,5,6,6,7,7,8,8,9,9,10,10,11,11,12,12,13,13,14,14,17,17,19,19,20,20,21,21,22,22,23,23,24,24,25,25,27,27,28,28,29,29,30,30],"right_children":[2,4,6,8,10,12,14,16,18,20,22,24,26,28,30,-1,-1,32,-1,34,36,38,40,42,44,46,-1,48,50,52,54,-1,-1,-1,-1,-1,-1,-1,-1,-1,-1,-1,-1,-1,-1,-1,-1,-1,-1,-1,-1,-1,-1,-1,-1],"split_conditions":[4.4857143E1,2.1428572E1,5.9E1,1.2571428E1,1.2699288E-1,1.2699288E-1,4E0,1E1,1.2699288E-1,2.7E1,3.1E1,3.003535E1,1.05E2,3.003535E1,1.2699288E-1,-8.430498E-1,-7.239233E-1,4E0,-6.772749E-1,4E0,4E0,2.9571428E1,5E0,6.142857E1,2.4E1,2.9818316E1,-1.475676E-1,1.2699288E-1,3.1483898E1,6E0,1E2,-5.608764E-1,-4.3294296E-1,-1.8403767E-1,2.8344033E-2,5.573954E-2,2.6906487E-1,-4.1945297E-1,-1.4198522E-1,-1.5817486E-1,6.6967025E-2,6.944495E-1,2.3738812E-1,1.2123529E0,7.7250683E-1,2.425481E-1,4.6768293E-1,3.079617E-1,-2.0324135E-2,1.0045537E0,1.5098678E-1,2.3062456E0,4.3594018E-1,1.4564365E0,2.3063354E-1],"split_indices":[10,10,9,10,1,1,2,9,1,10,9,0,7,0,1,0,0,2,0,2,2,10,2,10,3,0,0,1,0,2,9,0,0,0,0,0,0,0,0,0,0,0,0,0,0,0,0,0,0,0,0,0,0,0,0],"split_type":[0,0,0,0,0,0,0,0,0,0,0,0,0,0,0,0,0,0,0,0,0,0,0,0,0,0,0,0,0,0,0,0,0,0,0,0,0,0,0,0,0,0,0,0,0,0,0,0,0,0,0,0,0,0,0],"sum_hessian":[7.71E2,5.39E2,2.32E2,3.22E2,2.17E2,1.56E2,7.6E1,2.23E2,9.9E1,1.68E2,4.9E1,1.25E2,3.1E1,1.1E1,6.5E1,1.53E2,7E1,7.5E1,2.4E1,7.6E1,9.2E1,3E1,1.9E1,8.9E1,3.6E1,2.9E1,2E0,7E0,4E0,5.6E1,9E0,4.3E1,3.2E1,4.7E1,2.9E1,5.8E1,3.4E1,2.5E1,5E0,1.2E1,7E0,8.3E1,6E0,2.7E1,9E0,1.9E1,1E1,6E0,1E0,3E0,1E0,5.5E1,1E0,8E0,1E0],"tree_param":{"num_deleted":"0","num_feature":"14","num_nodes":"55","size_leaf_vector":"1"}},{"base_weights":[8.724039E-2,-8.723418E0,2.1119972E1,-1.4083756E1,-4.1301566E-1,1.3361899E1,3.6564278E1,-7.7411336E-1,-1.0655067E1,8.981023E-1,-5.1572137E0,1.5329951E1,5.4426126E0,1.0878894E1,3.9756878E1,-4.9053726E-1,-1.32793865E1,-9.7282994E-1,3.759272E0,-7.1932993E0,-1.947029E0,1.3936593E1,2.067103E1,6.069843E0,-1.4264867E-1,2.4147289E0,1.6119215E1,4.0396446E1,-9.3342684E-2,-6.778705E-1,-1.8602219E-1,-1.8299647E-1,4.9658746E-2,2.814848E-1,-5.5237543E-2,-3.981466E-1,-1.4579439E-1,-2.1152881E-1,-3.6058188E-3,6.635899E-1,1.1236078E0,1.876344E0,7.130091E-1,-3.269248E-2,3.1578806E-1,1.4305751E-2,1.8692166E-1,9.668829E-1,3.2274425E-1,2.1354969E0,1.4211142E0],"categories":[],"categories_nodes":[],"categories_segments":[],"categories_sizes":[],"default_left":[0,0,0,0,0,0,0,0,0,0,0,0,0,0,0,0,0,0,0,0,0,0,0,0,0,0,0,0,0,0,0,0,0,0,0,0,0,0,0,0,0,0,0,0,0,0,0,0,0,0,0],"id":5,"left_children":[1,3,5,7,9,11,13,-1,15,17,19,21,23,25,27,-1,29,31,33,35,37,39,41,43,-1,45,47,49,-1,-1,-1,-1,-1,-1,-1,-1,-1,-1,-1,-1,-1,-1,-1,-1,-1,-1,-1,-1,-1,-1,-1],"loss_changes":[1.4750745E5,2.4984805E4,2.766868E4,1.4701484E3,1.3792968E3,2.379082E3,5.963742E3,0E0,9.5728516E1,9.350887E2,2.9973267E2,6.496133E2,1.8902411E2,4.0462598E2,1.9122734E3,0E0,8.027832E0,5.636171E2,6.339665E2,7.224988E1,8.532393E1,2.8621875E2,2.0583066E3,5.538733E1,0E0,1.3018656E1,6.1802124E1,6.698281E2,0E0,0E0,0E0,0E0,0E0,0E0,0E0,0E0,0E0,0E0,0E0,0E0,0E0,0E0,0E0,0E0,0E0,0E0,0E0,0E0,0E0,0E0,0E0],"parents":[2147483647,0,0,1,1,2,2,3,3,4,4,5,5,6,6,8,8,9,9,10,10,11,11,12,12,13,13,14,14,16,16,17,17,18,18,19,19,20,20,21,21,22,22,23,23,25,25,26,26,27,27],"right_children":[2,4,6,8,10,12,14,-1,16,18,20,22,24,26,28,-1,30,32,34,36,38,40,42,44,-1,46,48,50,-1,-1,-1,-1,-1,-1,-1,-1,-1,-1,-1,-1,-1,-1,-1,-1,-1,-1,-1,-1,-1,-1,-1],"split_conditions":[4.4857143E1,2.2428572E1,6E1,1.3142858E1,1.2699288E-1,1.2699288E-1,4E0,-7.7411336E-1,2.760997E0,4E0,2.9E1,4E0,1.05E2,4.5E1,6E0,-4.9053726E-1,2E1,2.7285715E1,6E0,2.9571428E1,4E0,1.05E2,6E0,2.5E1,-1.4264867E-1,6.5E1,3E0,1.2699288E-1,-9.3342684E-2,-6.778705E-1,-1.8602219E-1,-1.8299647E-1,4.9658746E-2,2.814848E-1,-5.5237543E-2,-3.981466E-1,-1.4579439E-1,-2.1152881E-1,-3.6058188E-3,6.635899E-1,1.1236078E0,1.876344E0,7.130091E-1,-3.269248E-2,3.1578806E-1,1.4305751E-2,1.8692166E-1,9.668829E-1,3.2274425E-1,2.1354969E0,1.4211142E0],"split_indices":[10,10,9,10,1,1,2,0,1,2,9,2,7,8,2,0,7,10,2,10,2,8,2,8,0,9,4,1,0,0,0,0,0,0,0,0,0,0,0,0,0,0,0,0,0,0,0,0,0,0,0],"split_type":[0,0,0,0,0,0,0,0,0,0,0,0,0,0,0,0,0,0,0,0,0,0,0,0,0,0,0,0,0,0,0,0,0,0,0,0,0,0,0,0,0,0,0,0,0,0,0,0,0,0,0],"sum_hessian":[7.94E2,5.6E2,2.34E2,3.4E2,2.2E2,1.57E2,7.7E1,2.39E2,1.01E2,1.73E2,4.7E1,1.25E2,3.2E1,9E0,6.8E1,8E1,2.1E1,1.05E2,6.8E1,2.8E1,1.9E1,1.02E2,2.3E1,3E1,2E0,4E0,5E0,6.7E1,1E0,2E1,1E0,4.4E1,6.1E1,4.9E1,1.9E1,2.3E1,5E0,8E0,1.1E1,9.7E1,5E0,5E0,1.8E1,1E0,2.9E1,2E0,2E0,3E0,2E0,5.4E1,1.3E1],"tree_param":{"num_deleted":"0","num_feature":"14","num_nodes":"51","size_leaf_vector":"1"}},{"base_weights":[3.3177042E-1,-9.607117E0,1.54988575E1,-1.3257458E1,-1.7274802E0,3.6904366E0,1.987737E1,-1.4508474E1,-1.0413597E1,-2.056859E0,7.493956E-1,3.099747E-1,1.1219545E1,1.0753972E1,3.2751408E1,-1.4652522E1,-4.026327E-1,-1.081863E1,-3.4290564E0,-5.5958796E0,-9.4249994E-1,2.124903E0,-3.0753672E0,7.9673034E-1,1.3663228E1,8.558515E0,1.5589562E1,4.1421738E1,7.8580475E0,-7.0025176E-1,-8.1939596E-1,-4.9156365E-1,-6.5949893E-1,-2.4301878E-1,1.2897144E-1,-4.8949185E-1,-1.3363197E-1,-1.16093814E-1,1.3108025E-1,1.5832315E-1,-6.0613375E-2,-2.3811872E-1,1.6377653E-1,8.522947E-2,-3.3966254E-2,3.9254782E-1,9.6358156E-1,4.8100844E-1,1.6232014E-1,8.737219E-1,2.1036878E-1,1.7714119E-1,2.1257951E0,5.380885E-1,1.21314324E-1],"categories":[],"categories_nodes":[],"categories_segments":[],"categories_sizes":[],"default_left":[0,0,0,0,0,0,0,0,0,0,0,0,0,0,0,0,0,0,0,0,0,0,0,0,0,0,0,0,0,0,0,0,0,0,0,0,0,0,0,0,0,0,0,0,0,0,0,0,0,0,0,0,0,0,0],"id":6,"left_children":[1,3,5,7,9,11,13,15,17,19,-1,21,23,25,27,29,-1,31,33,35,37,39,41,43,45,47,49,51,53,-1,-1,-1,-1,-1,-1,-1,-1,-1,-1,-1,-1,-1,-1,-1,-1,-1,-1,-1,-1,-1,-1,-1,-1,-1,-1],"loss_changes":[1.1652324E5,1.3409586E4,1.5747867E4,9.838281E2,8.511769E2,2.1344788E3,2.584025E4,8.566406E1,2.4862793E2,5.7445557E2,0E0,3.690399E2,6.513357E2,1.2679316E3,1.9531203E4,9.828125E0,0E0,9.2756836E1,7.273739E1,4.0293335E2,5.616224E2,1.3939726E2,2.4059352E2,9.198272E0,5.332478E2,4.9325488E2,7.846387E2,2.6676953E3,3.6819714E2,0E0,0E0,0E0,0E0,0E0,0E0,0E0,0E0,0E0,0E0,0E0,0E0,0E0,0E0,0E0,0E0,0E0,0E0,0E0,0E0,0E0,0E0,0E0,0E0,0E0,0E0],"parents":[2147483647,0,0,1,1,2,2,3,3,4,4,5,5,6,6,7,7,8,8,9,9,11,11,12,12,13,13,14,14,15,15,17,17,18,18,19,19,20,20,21,21,22,22,23,23,24,24,25,25,26,26,27,27,28,28],"right_children":[2,4,6,8,10,12,14,16,18,20,-1,22,24,26,28,30,-1,32,34,36,38,40,42,44,46,48,50,52,54,-1,-1,-1,-1,-1,-1,-1,-1,-1,-1,-1,-1,-1,-1,-1,-1,-1,-1,-1,-1,-1,-1,-1,-1,-1,-1],"split_conditions":[3E1,1.9E1,3.3E1,1.2E1,4.7E1,3.9E1,4E0,1.6E1,2.3E1,2.1E1,7.493956E-1,1.2699288E-1,2.8E1,3.003535E1,6E0,1.2699288E-1,-4.026327E-1,1.2699288E-1,3.6E1,2E1,4E0,6E0,1.7201288E1,3.3E1,4E0,1.2699288E-1,1.4559754E1,2.6E1,1.2699288E-1,-7.0025176E-1,-8.1939596E-1,-4.9156365E-1,-6.5949893E-1,-2.4301878E-1,1.2897144E-1,-4.8949185E-1,-1.3363197E-1,-1.16093814E-1,1.3108025E-1,1.5832315E-1,-6.0613375E-2,-2.3811872E-1,1.6377653E-1,8.522947E-2,-3.3966254E-2,3.9254782E-1,9.6358156E-1,4.8100844E-1,1.6232014E-1,8.737219E-1,2.1036878E-1,1.7714119E-1,2.1257951E0,5.380885E-1,1.21314324E-1],"split_indices":[6,7,8,6,8,6,2,8,8,8,0,1,8,0,2,1,0,1,8,6,2,2,1,7,4,1,1,7,1,0,0,0,0,0,0,0,0,0,0,0,0,0,0,0,0,0,0,0,0,0,0,0,0,0,0],"split_type":[0,0,0,0,0,0,0,0,0,0,0,0,0,0,0,0,0,0,0,0,0,0,0,0,0,0,0,0,0,0,0,0,0,0,0,0,0,0,0,0,0,0,0,0,0,0,0,0,0,0,0,0,0,0,0],"sum_hessian":[7.71E2,4.66E2,3.05E2,3.18E2,1.48E2,8.3E1,2.22E2,2.18E2,1E2,1.46E2,2E0,5.8E1,2.5E1,1.31E2,9.1E1,2.12E2,6E0,9.4E1,6E0,3.4E1,1.12E2,3.8E1,2E1,5E0,2E1,9.2E1,3.9E1,6.7E1,2.4E1,1.61E2,5.1E1,7E1,2.4E1,5E0,1E0,1.3E1,2.1E1,8.1E1,3.1E1,2.9E1,9E0,1.6E1,4E0,3E0,2E0,1.1E1,9E0,7.6E1,1.6E1,3.3E1,6E0,2E0,6.5E1,1.5E1,9E0],"tree_param":{"num_deleted":"0","num_feature":"14","num_nodes":"55","size_leaf_vector":"1"}},{"base_weights":[6.5404646E-2,-7.653598E0,1.9223536E1,-1.2533196E1,-5.8101916E-1,1.1786262E1,3.5544064E1,-6.9906396E-1,-9.562585E0,5.723834E-1,-5.2329803E0,9.031599E0,1.7335327E1,2.8791052E1,4.7006336E1,-8.91618E0,-5.8714646E-1,-7.618786E-1,3.834302E0,-6.986499E0,-1.9338617E0,1.0573245E1,3.0755923E0,9.975417E-1,8.356516E0,3.0892666E1,9.631516E0,2.4049892E0,5.464263E-1,-4.5712706E-1,-2.9441175E-1,-8.599564E-2,2.2852942E-2,1.4482534E-1,4.7915846E-1,-3.943522E-1,-2.2433797E-1,-1.6220799E-1,2.0072188E-2,6.5387255E-1,4.1884428E-1,1.8870209E-1,-1.4193754E-1,4.8420224E-1,1.4742815E-1,1.6615613E0,5.8562654E-1,7.111487E-1,1.4953422E-2],"categories":[],"categories_nodes":[],"categories_segments":[],"categories_sizes":[],"default_left":[0,0,0,0,0,0,0,0,0,0,0,0,0,0,0,0,0,0,0,0,0,0,0,0,0,0,0,0,0,0,0,0,0,0,0,0,0,0,0,0,0,0,0,0,0,0,0,0,0],"id":7,"left_children":[1,3,5,7,9,11,13,-1,15,17,19,21,23,25,27,29,-1,31,33,35,37,39,41,-1,43,45,47,-1,-1,-1,-1,-1,-1,-1,-1,-1,-1,-1,-1,-1,-1,-1,-1,-1,-1,-1,-1,-1,-1],"loss_changes":[1.14311766E5,1.9008467E4,2.6527477E4,1.2686562E3,1.2156173E3,2.1974473E3,3.9875703E3,0E0,5.033008E1,7.950315E2,2.468169E2,9.315967E2,1.0074873E3,1.5546953E3,4.21125E2,7.1679688E0,0E0,1.5259799E2,2.57979E2,2.9895386E1,5.332143E1,3.469629E2,1.05723526E2,0E0,6.477582E1,1.4497852E3,2.528435E2,0E0,0E0,0E0,0E0,0E0,0E0,0E0,0E0,0E0,0E0,0E0,0E0,0E0,0E0,0E0,0E0,0E0,0E0,0E0,0E0,0E0,0E0],"parents":[2147483647,0,0,1,1,2,2,3,3,4,4,5,5,6,6,8,8,9,9,10,10,11,11,12,12,13,13,14,14,15,15,17,17,18,18,19,19,20,20,21,21,22,22,24,24,25,25,26,26],"right_children":[2,4,6,8,10,12,14,-1,16,18,20,22,24,26,28,30,-1,32,34,36,38,40,42,-1,44,46,48,-1,-1,-1,-1,-1,-1,-1,-1,-1,-1,-1,-1,-1,-1,-1,-1,-1,-1,-1,-1,-1,-1],"split_conditions":[4.4857143E1,2.2428572E1,6E1,1.2E1,2.760997E0,2.9818316E1,3.0795366E1,-6.9906396E-1,1.9196161E0,3.1E1,3E1,1.2699288E-1,1.2699288E-1,5.8E1,6E1,3.3076202E1,-5.8714646E-1,2.7E1,4.1E1,2.8857143E1,5E0,4.9E1,1.04E2,9.975417E-1,7.9E1,5.8E1,6E0,2.4049892E0,5.464263E-1,-4.5712706E-1,-2.9441175E-1,-8.599564E-2,2.2852942E-2,1.4482534E-1,4.7915846E-1,-3.943522E-1,-2.2433797E-1,-1.6220799E-1,2.0072188E-2,6.5387255E-1,4.1884428E-1,1.8870209E-1,-1.4193754E-1,4.8420224E-1,1.4742815E-1,1.6615613E0,5.8562654E-1,7.111487E-1,1.4953422E-2],"split_indices":[10,10,9,9,1,0,0,0,1,9,9,1,1,7,10,0,0,10,6,10,4,8,7,0,7,8,4,0,0,0,0,0,0,0,0,0,0,0,0,0,0,0,0,0,0,0,0,0,0],"split_type":[0,0,0,0,0,0,0,0,0,0,0,0,0,0,0,0,0,0,0,0,0,0,0,0,0,0,0,0,0,0,0,0,0,0,0,0,0,0,0,0,0,0,0,0,0,0,0,0,0],"sum_hessian":[7.71E2,5.5E2,2.21E2,3.25E2,2.25E2,1.53E2,6.8E1,2.16E2,1.09E2,1.81E2,4.4E1,1.04E2,4.9E1,4.5E1,2.3E1,8.8E1,2.1E1,1.29E2,5.2E1,2.8E1,1.6E1,8.2E1,2.2E1,3.7E1,1.2E1,4E1,5E0,2.2E1,1E0,8E1,8E0,7.2E1,5.7E1,4.6E1,6E0,1.9E1,9E0,1E1,6E0,3.6E1,4.6E1,2E1,2E0,9E0,3E0,3.5E1,5E0,3E0,2E0],"tree_param":{"num_deleted":"0","num_feature":"14","num_nodes":"49","size_leaf_vector":"1"}},{"base_weights":[-4.5582286E-1,-7.3808274E0,1.715917E1,-1.1919629E1,-6.8054825E-1,1.1062609E1,3.0252235E1,-1.3209782E1,-8.880956E0,5.558947E-1,-4.6291423E0,1.286866E1,4.469178E0,3.3248848E1,1.9130316E1,-1.2610888E1,-7.448477E-1,-8.198618E0,-1.0989522E1,-6.833184E-1,3.618025E0,-6.0026603E0,1.6446525E-1,7.8660626E0,1.3690467E1,5.005764E0,-1.372063E-1,3.5233215E1,1.5175393E1,9.106509E-2,2.1662811E1,-6.6406816E-1,-5.541051E-1,-4.3085408E-1,-2.7902314E-1,-5.692522E-1,-2.3447679E-1,-9.2883155E-2,4.3669075E-2,1.2737498E-1,3.3978656E-1,-3.5561246E-1,-1.7656255E-1,-1.1683624E-1,5.7424735E-2,3.1654885E-1,6.97143E-1,6.9725394E-1,4.048265E-2,3.28156E-2,2.7165377E-1,1.7949101E0,1.1609831E-1,2.764316E-1,8.964186E-1,-6.577068E-2,7.260056E-2,1.4218059E0,6.090827E-1],"categories":[],"categories_nodes":[],"categories_segments":[],"categories_sizes":[],"default_left":[0,0,0,0,0,0,0,0,0,0,0,0,0,0,0,0,0,0,0,0,0,0,0,0,0,0,0,0,0,0,0,0,0,0,0,0,0,0,0,0,0,0,0,0,0,0,0,0,0,0,0,0,0,0,0,0,0,0,0],"id":8,"left_children":[1,3,5,7,9,11,13,15,17,19,21,23,25,27,29,31,-1,33,35,37,39,41,43,45,47,49,-1,51,53,55,57,-1,-1,-1,-1,-1,-1,-1,-1,-1,-1,-1,-1,-1,-1,-1,-1,-1,-1,-1,-1,-1,-1,-1,-1,-1,-1,-1,-1],"loss_changes":[9.466418E4,1.6930953E4,1.7146492E4,1.1842383E3,1.105953E3,1.7406055E3,1.6635781E3,4.554297E1,5.6654785E1,6.5894354E2,3.5652905E2,3.7742773E2,1.4533527E2,1.3661328E3,8.177134E2,3.424414E1,0E0,4.065625E1,1.4287109E0,2.2830711E2,1.5277869E2,9.0059204E1,3.4679897E1,8.896777E1,3.1666992E2,5.590851E1,0E0,9.452617E2,8.678198E1,7.652419E0,6.168828E2,0E0,0E0,0E0,0E0,0E0,0E0,0E0,0E0,0E0,0E0,0E0,0E0,0E0,0E0,0E0,0E0,0E0,0E0,0E0,0E0,0E0,0E0,0E0,0E0,0E0,0E0,0E0,0E0],"parents":[2147483647,0,0,1,1,2,2,3,3,4,4,5,5,6,6,7,7,8,8,9,9,10,10,11,11,12,12,13,13,14,14,15,15,17,17,18,18,19,19,20,20,21,21,22,22,23,23,24,24,25,25,27,27,28,28,29,29,30,30],"right_children":[2,4,6,8,10,12,14,16,18,20,22,24,26,28,30,32,-1,34,36,38,40,42,44,46,48,50,-1,52,54,56,58,-1,-1,-1,-1,-1,-1,-1,-1,-1,-1,-1,-1,-1,-1,-1,-1,-1,-1,-1,-1,-1,-1,-1,-1,-1,-1,-1,-1],"split_conditions":[3.4857143E1,2.2428572E1,5.9E1,1.3142858E1,1.2699288E-1,1.2699288E-1,1.9196161E0,1.2699288E-1,1.9196161E0,3.1E1,3.5E1,3.6E1,1.05E2,6.1E1,4.2E1,1E1,-7.448477E-1,1.8E1,2E1,2.7E1,3.9E1,2.9571428E1,2.2E1,8.7E1,7E1,4E1,-1.372063E-1,7.2E1,4.6E1,1.3130066E1,4.6E1,-6.6406816E-1,-5.541051E-1,-4.3085408E-1,-2.7902314E-1,-5.692522E-1,-2.3447679E-1,-9.2883155E-2,4.3669075E-2,1.2737498E-1,3.3978656E-1,-3.5561246E-1,-1.7656255E-1,-1.1683624E-1,5.7424735E-2,3.1654885E-1,6.97143E-1,6.9725394E-1,4.048265E-2,3.28156E-2,2.7165377E-1,1.7949101E0,1.1609831E-1,2.764316E-1,8.964186E-1,-6.577068E-2,7.260056E-2,1.4218059E0,6.090827E-1],"split_indices":[10,10,9,10,1,1,1,1,1,9,9,9,7,8,7,9,0,9,9,10,9,10,6,8,10,7,0,7,6,1,7,0,0,0,0,0,0,0,0,0,0,0,0,0,0,0,0,0,0,0,0,0,0,0,0,0,0,0,0],"split_type":[0,0,0,0,0,0,0,0,0,0,0,0,0,0,0,0,0,0,0,0,0,0,0,0,0,0,0,0,0,0,0,0,0,0,0,0,0,0,0,0,0,0,0,0,0,0,0,0,0,0,0,0,0,0,0,0,0,0,0],"sum_hessian":[7.74E2,5.56E2,2.18E2,3.31E2,2.25E2,1.5E2,6.8E1,2.3E2,1.01E2,1.72E2,5.3E1,1.17E2,3.3E1,5.2E1,1.6E1,1.76E2,5.4E1,8E1,2.1E1,1.23E2,4.9E1,4.1E1,1.2E1,1.8E1,9.9E1,3.1E1,2E0,4.6E1,6E0,2E0,1.4E1,1.17E2,5.9E1,6.7E1,1.3E1,1.9E1,2E0,7E1,5.3E1,3.8E1,1.1E1,2.7E1,1.4E1,3E0,9E0,1.6E1,2E0,9.7E1,2E0,3E0,2.8E1,4.5E1,1E0,2E0,4E0,1E0,1E0,7E0,7E0],"tree_param":{"num_deleted":"0","num_feature":"14","num_nodes":"59","size_leaf_vector":"1"}},{"base_weights":[4.4818696E-1,-8.334935E0,1.4311684E1,-1.1467614E1,-2.0959659E0,8.154924E0,3.2269608E1,-6.293164E-1,-8.947704E0,-9.113527E-1,-5.9773564E0,3.504747E0,1.0664299E1,7.248192E0,3.4702965E1,-9.522036E0,-5.058356E0,-3.2390008E0,3.802457E-1,-6.240689E0,-4.563446E-2,1.079675E0,7.1086154E0,1.1959214E1,4.8262897E0,4.9867973E-1,1.38730345E1,2.8897247E1,4.2663815E1,-4.7988E-1,-7.747608E-2,-1.00330666E-1,-2.827037E-1,-2.4058805E-1,-7.2376214E-2,-2.2428352E-2,1.1664162E-1,-3.160743E-1,-8.733993E-2,-5.187906E-2,1.06883265E-1,4.4438085E-1,-2.5731046E-2,4.9557695E-1,7.4208134E-1,1.1280402E-1,3.4517E-1,-8.10976E-2,1.2265425E-1,2.1161576E-1,7.837918E-1,1.5015093E0,1.89066E-1,2.428246E0,1.3887724E0],"categories":[],"categories_nodes":[],"categories_segments":[],"categories_sizes":[],"default_left":[0,0,0,0,0,0,0,0,0,0,0,0,0,0,0,0,0,0,0,0,0,0,0,0,0,0,0,0,0,0,0,0,0,0,0,0,0,0,0,0,0,0,0,0,0,0,0,0,0,0,0,0,0,0,0],"id":9,"left_children":[1,3,5,7,9,11,13,-1,15,17,19,21,23,25,27,29,31,33,35,37,-1,39,41,43,45,47,49,51,53,-1,-1,-1,-1,-1,-1,-1,-1,-1,-1,-1,-1,-1,-1,-1,-1,-1,-1,-1,-1,-1,-1,-1,-1,-1,-1],"loss_changes":[9.387817E4,9.201059E3,3.2795062E4,7.725625E2,7.256259E2,2.5764893E3,4.3758047E3,0E0,1.7521143E2,3.7101718E2,4.3650757E1,6.914962E2,1.0384395E3,3.5079745E2,1.9562031E3,3.693799E1,1.5924133E1,1.1700763E2,1.3051273E2,1.6660156E0,0E0,1.1197978E2,4.3854956E2,5.493613E2,1.3390637E2,2.4701654E1,3.1761475E0,1.1100039E3,1.02325E3,0E0,0E0,0E0,0E0,0E0,0E0,0E0,0E0,0E0,0E0,0E0,0E0,0E0,0E0,0E0,0E0,0E0,0E0,0E0,0E0,0E0,0E0,0E0,0E0,0E0,0E0],"parents":[2147483647,0,0,1,1,2,2,3,3,4,4,5,5,6,6,8,8,9,9,10,10,11,11,12,12,13,13,14,14,15,15,16,16,17,17,18,18,19,19,21,21,22,22,23,23,24,24,25,25,26,26,27,27,28,28],"right_children":[2,4,6,8,10,12,14,-1,16,18,20,22,24,26,28,30,32,34,36,38,-1,40,42,44,46,48,50,52,54,-1,-1,-1,-1,-1,-1,-1,-1,-1,-1,-1,-1,-1,-1,-1,-1,-1,-1,-1,-1,-1,-1,-1,-1,-1,-1],"split_conditions":[3E1,1.8E1,6E1,1.2E1,1.2699288E-1,3.5E1,4E0,-6.293164E-1,2E1,2.4E1,3.6E1,3.4E1,2.9151986E0,4.5E1,3.0795366E1,2.3E1,3E0,2.6E1,3.3E1,2.9E1,-4.563446E-2,3.3E1,1.2699288E-1,2.9773556E1,1.6E1,6.5E1,2.3627975E1,6E0,7.2E1,-4.7988E-1,-7.747608E-2,-1.00330666E-1,-2.827037E-1,-2.4058805E-1,-7.2376214E-2,-2.2428352E-2,1.1664162E-1,-3.160743E-1,-8.733993E-2,-5.187906E-2,1.06883265E-1,4.4438085E-1,-2.5731046E-2,4.9557695E-1,7.4208134E-1,1.1280402E-1,3.4517E-1,-8.10976E-2,1.2265425E-1,2.1161576E-1,7.837918E-1,1.5015093E0,1.89066E-1,2.428246E0,1.3887724E0],"split_indices":[9,9,9,9,1,8,2,0,6,6,6,6,1,8,0,8,4,8,6,9,0,9,1,0,3,9,0,2,6,0,0,0,0,0,0,0,0,0,0,0,0,0,0,0,0,0,0,0,0,0,0,0,0,0,0],"split_type":[0,0,0,0,0,0,0,0,0,0,0,0,0,0,0,0,0,0,0,0,0,0,0,0,0,0,0,0,0,0,0,0,0,0,0,0,0,0,0,0,0,0,0,0,0,0,0,0,0,0,0,0,0,0,0],"sum_hessian":[7.69E2,4.71E2,2.98E2,3.13E2,1.58E2,2.23E2,7.5E1,2.14E2,9.9E1,1.22E2,3.6E1,7.9E1,1.44E2,7E0,6.8E1,8.5E1,1.4E1,4.3E1,7.9E1,3.4E1,2E0,4.8E1,3.1E1,1.17E2,2.7E1,4E0,3E0,4.2E1,2.6E1,8.4E1,1E0,3E0,1.1E1,2.2E1,2.1E1,5.6E1,2.3E1,3.3E1,1E0,1.6E1,3.2E1,2.5E1,6E0,7.1E1,4.6E1,1.3E1,1.4E1,2E0,2E0,1E0,2E0,4E1,2E0,1.7E1,9E0],"tree_param":{"num_deleted":"0","num_feature":"14","num_nodes":"55","size_leaf_vector":"1"}},{"base_weights":[1.01301506E-1,-6.8665915E0,1.6657059E1,-1.0817817E1,-7.369987E-1,1.0205567E1,3.0198145E1,-1.1922684E1,-8.252515E0,4.7049764E-1,-4.723859E0,1.194763E1,4.0914807E0,7.6953855E0,3.3150105E1,-6.2698746E-1,-5.276627E-1,-7.4228945E0,-5.2438945E-1,-2.001364E0,2.2817583E0,-5.9525547E0,-2.1405525E0,9.483618E0,1.6884962E1,4.561777E0,-1.3795672E-1,4.820568E-1,1.2423928E1,2.7064682E1,3.9981003E1,-4.132443E-1,-3.137388E-1,-1.5542412E-1,-2.0518797E-3,1.5857011E-2,2.5612628E-1,-3.125058E-1,-3.971888E-2,-1.8733013E-1,-5.1265545E-2,4.470299E-1,1.0672992E0,1.1077341E0,7.4376E-1,5.5951845E-2,2.6912484E-1,-7.839438E-2,1.1856579E-1,2.313001E-1,7.5831956E-1,1.4601641E0,5.3958005E-1,2.4526756E0,1.5345688E0],"categories":[],"categories_nodes":[],"categories_segments":[],"categories_sizes":[],"default_left":[0,0,0,0,0,0,0,0,0,0,0,0,0,0,0,0,0,0,0,0,0,0,0,0,0,0,0,0,0,0,0,0,0,0,0,0,0,0,0,0,0,0,0,0,0,0,0,0,0,0,0,0,0,0,0],"id":10,"left_children":[1,3,5,7,9,11,13,15,17,19,21,23,25,27,29,-1,-1,31,-1,33,35,37,39,41,43,45,-1,47,49,51,53,-1,-1,-1,-1,-1,-1,-1,-1,-1,-1,-1,-1,-1,-1,-1,-1,-1,-1,-1,-1,-1,-1,-1,-1],"loss_changes":[9.113243E4,1.3458014E4,2.0134094E4,8.596094E2,1.0565146E3,1.6552969E3,4.7269453E3,6.540234E1,1.16864746E2,7.6121094E2,1.491372E2,1.3484082E3,1.3179382E2,3.350963E2,1.6614688E3,0E0,0E0,2.5476074E1,0E0,1.5613498E2,5.4531573E2,4.7220825E1,2.839898E1,3.5668262E2,9.4081055E1,9.2870056E1,0E0,2.3082335E1,5.815338E1,1.0073125E3,9.386094E2,0E0,0E0,0E0,0E0,0E0,0E0,0E0,0E0,0E0,0E0,0E0,0E0,0E0,0E0,0E0,0E0,0E0,0E0,0E0,0E0,0E0,0E0,0E0,0E0],"parents":[2147483647,0,0,1,1,2,2,3,3,4,4,5,5,6,6,7,7,8,8,9,9,10,10,11,11,12,12,13,13,14,14,17,17,19,19,20,20,21,21,22,22,23,23,24,24,25,25,27,27,28,28,29,29,30,30],"right_children":[2,4,6,8,10,12,14,16,18,20,22,24,26,28,30,-1,-1,32,-1,34,36,38,40,42,44,46,-1,48,50,52,54,-1,-1,-1,-1,-1,-1,-1,-1,-1,-1,-1,-1,-1,-1,-1,-1,-1,-1,-1,-1,-1,-1,-1,-1],"split_conditions":[4.4857143E1,2.1428572E1,6E1,1.3142858E1,1.2699288E-1,1.2699288E-1,4E0,1E1,1.9196161E0,2.7E1,2.9E1,2.9811026E1,1.05E2,4.5E1,3.0795366E1,-6.2698746E-1,-5.276627E-1,4E0,-5.2438945E-1,4E0,4E0,2.8E1,2.6768124E1,3E1,5.1857143E1,2.5095104E1,-1.3795672E-1,6.5E1,2.7764914E1,5.8E1,5.5285713E1,-4.132443E-1,-3.137388E-1,-1.5542412E-1,-2.0518797E-3,1.5857011E-2,2.5612628E-1,-3.125058E-1,-3.971888E-2,-1.8733013E-1,-5.1265545E-2,4.470299E-1,1.0672992E0,1.1077341E0,7.4376E-1,5.5951845E-2,2.6912484E-1,-7.839438E-2,1.1856579E-1,2.313001E-1,7.5831956E-1,1.4601641E0,5.3958005E-1,2.4526756E0,1.5345688E0],"split_indices":[10,10,9,10,1,1,2,9,1,10,9,0,7,8,0,0,0,2,0,2,2,3,0,3,10,0,0,9,0,7,10,0,0,0,0,0,0,0,0,0,0,0,0,0,0,0,0,0,0,0,0,0,0,0,0],"split_type":[0,0,0,0,0,0,0,0,0,0,0,0,0,0,0,0,0,0,0,0,0,0,0,0,0,0,0,0,0,0,0,0,0,0,0,0,0,0,0,0,0,0,0,0,0,0,0,0,0,0,0,0,0,0,0],"sum_hessian":[7.88E2,5.55E2,2.33E2,3.37E2,2.18E2,1.59E2,7.4E1,2.33E2,1.04E2,1.68E2,5E1,1.23E2,3.6E1,9E0,6.5E1,1.55E2,7.8E1,7.9E1,2.5E1,7.1E1,9.7E1,3.3E1,1.7E1,8.4E1,3.9E1,3.4E1,2E0,4E0,5E0,3.7E1,2.8E1,4.2E1,3.7E1,4.5E1,2.6E1,5.8E1,3.9E1,3.1E1,2E0,6E0,1.1E1,8.2E1,2E0,8E0,3.1E1,7E0,2.7E1,2E0,2E0,2E0,3E0,3.2E1,5E0,1.2E1,1.6E1],"tree_param":{"num_deleted":"0","num_feature":"14","num_nodes":"55","size_leaf_vector":"1"}},{"base_weights":[-1.3025917E-1,-6.6363993E0,1.6030754E1,-1.0295433E1,-3.8286018E-1,9.487723E0,2.8044958E1,-1.1399838E1,-7.9759645E0,6.880219E-1,-4.1952605E0,1.0843111E1,3.5821047E0,9.251463E0,3.1424185E1,-1.0874766E1,-6.464191E-1,-7.328793E0,-9.76589E0,-1.0419136E0,3.4276237E0,-4.650344E0,1.518157E0,9.545536E0,1.885724E1,1.7003628E0,6.335673E0,1.183877E0,1.1553351E1,3.4185223E1,1.796279E1,-5.847002E-1,-4.8727533E-1,-3.8189152E-1,-2.740038E-1,-5.030968E-1,-2.0217685E-1,-1.2345083E-1,4.8376005E-2,2.656149E-1,-1.1025204E-1,-3.012628E-1,-1.5945224E-1,3.543536E-4,1.5128417E-1,4.9307942E-1,7.5250894E-2,1.3393961E0,7.3211217E-1,2.911439E-2,2.2454503E-1,3.5885215E-1,8.498361E-2,1.1461359E-1,-5.3532697E-2,6.840126E-1,2.4714689E-1,1.4350764E0,2.0456731E0,-6.2277794E-2,1.0784224E0],"categories":[],"categories_nodes":[],"categories_segments":[],"categories_sizes":[],"default_left":[0,0,0,0,0,0,0,0,0,0,0,0,0,0,0,0,0,0,0,0,0,0,0,0,0,0,0,0,0,0,0,0,0,0,0,0,0,0,0,0,0,0,0,0,0,0,0,0,0,0,0,0,0,0,0,0,0,0,0,0,0],"id":11,"left_children":[1,3,5,7,9,11,13,15,17,19,21,23,25,27,29,31,-1,33,35,37,39,41,43,45,47,49,51,53,55,57,59,-1,-1,-1,-1,-1,-1,-1,-1,-1,-1,-1,-1,-1,-1,-1,-1,-1,-1,-1,-1,-1,-1,-1,-1,-1,-1,-1,-1,-1,-1],"loss_changes":[7.949148E4,1.2329406E4,1.6792129E4,7.8003125E2,8.194127E2,1.0977842E3,4.5358516E3,4.2402344E1,5.932617E1,7.4764685E2,1.2146338E2,1.015875E3,1.3430917E2,2.2774109E2,1.7646523E3,4.885742E1,0E0,7.849121E0,5.054199E0,2.805527E2,6.592738E2,6.3160645E1,9.090468E0,2.4182129E2,1.0918164E2,5.3545544E1,3.0707916E1,1.2449873E1,7.297632E1,7.4429297E2,9.272285E2,0E0,0E0,0E0,0E0,0E0,0E0,0E0,0E0,0E0,0E0,0E0,0E0,0E0,0E0,0E0,0E0,0E0,0E0,0E0,0E0,0E0,0E0,0E0,0E0,0E0,0E0,0E0,0E0,0E0,0E0],"parents":[2147483647,0,0,1,1,2,2,3,3,4,4,5,5,6,6,7,7,8,8,9,9,10,10,11,11,12,12,13,13,14,14,15,15,17,17,18,18,19,19,20,20,21,21,22,22,23,23,24,24,25,25,26,26,27,27,28,28,29,29,30,30],"right_children":[2,4,6,8,10,12,14,16,18,20,22,24,26,28,30,32,-1,34,36,38,40,42,44,46,48,50,52,54,56,58,60,-1,-1,-1,-1,-1,-1,-1,-1,-1,-1,-1,-1,-1,-1,-1,-1,-1,-1,-1,-1,-1,-1,-1,-1,-1,-1,-1,-1,-1,-1],"split_conditions":[4.4857143E1,2.2428572E1,5.8E1,1.1285714E1,1.2699288E-1,1.2699288E-1,4E0,1.2699288E-1,1.9196161E0,4E0,3.6E1,3.1830944E1,2.9818316E1,4.4E1,1.2699288E-1,8.714286E0,-6.464191E-1,1.8E1,2E1,2.9142857E1,6E0,2.7857143E1,9.168457E0,6.1857143E1,3.2886612E1,7.2E1,5.642857E1,3E0,6.8E1,3.0795366E1,2.6768124E1,-5.847002E-1,-4.8727533E-1,-3.8189152E-1,-2.740038E-1,-5.030968E-1,-2.0217685E-1,-1.2345083E-1,4.8376005E-2,2.656149E-1,-1.1025204E-1,-3.012628E-1,-1.5945224E-1,3.543536E-4,1.5128417E-1,4.9307942E-1,7.5250894E-2,1.3393961E0,7.3211217E-1,2.911439E-2,2.2454503E-1,3.5885215E-1,8.498361E-2,1.1461359E-1,-5.3532697E-2,6.840126E-1,2.4714689E-1,1.4350764E0,2.0456731E0,-6.2277794E-2,1.0784224E0],"split_indices":[10,10,9,10,1,1,2,1,1,2,6,0,0,8,1,10,0,9,9,10,2,10,1,10,0,8,10,2,8,0,0,0,0,0,0,0,0,0,0,0,0,0,0,0,0,0,0,0,0,0,0,0,0,0,0,0,0,0,0,0,0],"split_type":[0,0,0,0,0,0,0,0,0,0,0,0,0,0,0,0,0,0,0,0,0,0,0,0,0,0,0,0,0,0,0,0,0,0,0,0,0,0,0,0,0,0,0,0,0,0,0,0,0,0,0,0,0,0,0,0,0,0,0,0,0],"sum_hessian":[7.54E2,5.38E2,2.16E2,3.39E2,1.99E2,1.41E2,7.5E1,2.27E2,1.12E2,1.56E2,4.3E1,1.14E2,2.7E1,1.2E1,6.3E1,1.75E2,5.2E1,8.6E1,2.6E1,9.6E1,6E1,4E1,3E0,1E2,1.4E1,1.7E1,1E1,3E0,9E0,5.1E1,1.2E1,9.6E1,7.9E1,7.1E1,1.5E1,2.4E1,2E0,5.6E1,4E1,4.5E1,1.5E1,1.9E1,2.1E1,2E0,1E0,9.6E1,4E0,3E0,1.1E1,1.3E1,4E0,8E0,2E0,2E0,1E0,6E0,3E0,3.1E1,2E1,2E0,1E1],"tree_param":{"num_deleted":"0","num_feature":"14","num_nodes":"61","size_leaf_vector":"1"}},{"base_weights":[2.2754703E-1,-5.4772863E0,1.6450426E1,-9.885856E0,3.120962E-1,1.00571575E1,2.7873089E1,-1.0766176E1,-7.371208E0,-1.0591989E0,6.190736E0,8.076822E0,1.2986587E1,7.7850637E0,2.9885681E1,-1.1361106E1,-4.7524032E-1,-7.642886E0,-3.096851E0,-1.4503175E0,6.751758E0,2.7815819E0,7.808388E0,8.680663E0,2.2144794E0,6.7757015E0,1.58097105E1,-2.0466296E-1,1.0482416E1,2.4147083E1,3.778556E1,-5.7137877E-1,-2.0366828E-1,-3.9458978E-1,-2.5183347E-1,-1.861308E-1,1.6443491E-2,-1.3195966E-1,9.021102E-3,5.965075E-1,6.5556936E-2,3.818193E-2,2.2452305E-1,1.3707513E-1,4.993452E-1,4.7054186E-1,1.1807708E-1,1.869578E-1,-3.1307768E-2,2.3793702E-1,5.534026E-1,8.8465303E-1,4.201513E-1,-7.723947E-2,6.1889745E-2,2.5399047E-1,7.095877E-1,1.2640688E0,3.667263E-1,1.9377173E0,3.3914873E-1],"categories":[],"categories_nodes":[],"categories_segments":[],"categories_sizes":[],"default_left":[0,0,0,0,0,0,0,0,0,0,0,0,0,0,0,0,0,0,0,0,0,0,0,0,0,0,0,0,0,0,0,0,0,0,0,0,0,0,0,0,0,0,0,0,0,0,0,0,0,0,0,0,0,0,0,0,0,0,0,0,0],"id":12,"left_children":[1,3,5,7,9,11,13,15,17,19,21,23,25,27,29,31,-1,33,35,37,39,41,43,45,47,49,51,53,55,57,59,-1,-1,-1,-1,-1,-1,-1,-1,-1,-1,-1,-1,-1,-1,-1,-1,-1,-1,-1,-1,-1,-1,-1,-1,-1,-1,-1,-1,-1,-1],"loss_changes":[7.292603E4,1.4882932E4,1.4690445E4,6.53375E2,2.0460787E3,6.666758E2,2.7186602E3,7.436914E1,7.968213E1,6.3912445E2,2.4299207E2,2.710503E2,8.0465137E2,1.7455429E2,2.0796484E3,3.0957031E1,0E0,1.4094238E1,1.6230125E1,3.8240915E2,2.660945E2,5.519406E1,3.258462E2,3.1921582E2,4.1320744E1,1.0316504E2,3.395537E2,7.7113595E0,4.814911E1,5.96459E2,5.1803516E2,0E0,0E0,0E0,0E0,0E0,0E0,0E0,0E0,0E0,0E0,0E0,0E0,0E0,0E0,0E0,0E0,0E0,0E0,0E0,0E0,0E0,0E0,0E0,0E0,0E0,0E0,0E0,0E0,0E0,0E0],"parents":[2147483647,0,0,1,1,2,2,3,3,4,4,5,5,6,6,7,7,8,8,9,9,10,10,11,11,12,12,13,13,14,14,15,15,17,17,18,18,19,19,20,20,21,21,22,22,23,23,24,24,25,25,26,26,27,27,28,28,29,29,30,30],"right_children":[2,4,6,8,10,12,14,16,18,20,22,24,26,28,30,32,-1,34,36,38,40,42,44,46,48,50,52,54,56,58,60,-1,-1,-1,-1,-1,-1,-1,-1,-1,-1,-1,-1,-1,-1,-1,-1,-1,-1,-1,-1,-1,-1,-1,-1,-1,-1,-1,-1,-1,-1],"split_conditions":[3.9E1,1.8E1,6E1,1.3E1,3.6E1,2.9818316E1,4E0,1E1,2.3E1,4.6E1,3.1E1,1E0,4.3E1,4.5E1,3.0131119E1,1.6E1,-4.7524032E-1,2E1,3.3583218E1,2.8E1,1.8E1,4.4E1,3E0,1E0,4E0,4.7E1,1E0,2.4279064E1,2.8341568E1,1.09E2,6E0,-5.7137877E-1,-2.0366828E-1,-3.9458978E-1,-2.5183347E-1,-1.861308E-1,1.6443491E-2,-1.3195966E-1,9.021102E-3,5.965075E-1,6.5556936E-2,3.818193E-2,2.2452305E-1,1.3707513E-1,4.993452E-1,4.7054186E-1,1.1807708E-1,1.869578E-1,-3.1307768E-2,2.3793702E-1,5.534026E-1,8.8465303E-1,4.201513E-1,-7.723947E-2,6.1889745E-2,2.5399047E-1,7.095877E-1,1.2640688E0,3.667263E-1,1.9377173E0,3.3914873E-1],"split_indices":[9,9,9,9,6,0,2,9,8,8,9,12,8,8,0,8,0,6,0,9,3,7,4,11,2,9,12,0,0,9,2,0,0,0,0,0,0,0,0,0,0,0,0,0,0,0,0,0,0,0,0,0,0,0,0,0,0,0,0,0,0],"split_type":[0,0,0,0,0,0,0,0,0,0,0,0,0,0,0,0,0,0,0,0,0,0,0,0,0,0,0,0,0,0,0,0,0,0,0,0,0,0,0,0,0,0,0,0,0,0,0,0,0,0,0,0,0,0,0,0,0,0,0,0,0],"sum_hessian":[7.86E2,5.82E2,2.04E2,3.3E2,2.52E2,1.32E2,7.2E1,2.42E2,8.8E1,2.05E2,4.7E1,8.1E1,5.1E1,7E0,6.5E1,1.59E2,8.3E1,8.2E1,6E0,1.96E2,9E0,1.6E1,3.1E1,7.3E1,8E0,1.7E1,3.4E1,2E0,5E0,4E1,2.5E1,1.57E2,2E0,7.3E1,9E0,5E0,1E0,1.13E2,8.3E1,4E0,5E0,8E0,8E0,1E1,2.1E1,6.5E1,8E0,5E0,3E0,1.3E1,4E0,2.6E1,8E0,1E0,1E0,3E0,2E0,3.7E1,3E0,2.4E1,1E0],"tree_param":{"num_deleted":"0","num_feature":"14","num_nodes":"61","size_leaf_vector":"1"}},{"base_weights":[2.2481093E-1,-5.7841434E0,1.4634672E1,-9.35009E0,-1.892738E-1,8.568264E0,2.2614037E1,-1.0271492E1,-7.2690578E0,5.900218E-1,-4.015553E0,6.2659154E0,1.2777902E1,2.9418932E1,6.435804E0,-9.7173815E0,-5.933374E-1,-6.4981923E0,-9.156858E0,-7.9154813E-1,2.479511E0,-5.496292E0,-1.5760986E0,7.2535667E0,2.4013784E0,1.4323034E1,3.8412862E0,2.4590899E1,3.4082005E1,8.431377E0,2.7398298E0,-5.2526903E-1,-4.3740162E-1,-3.28067E-1,-4.089613E-2,-4.6491694E-1,-1.3342233E-1,-1.1181448E-1,4.2312715E-2,2.1489175E-1,-1.0481763E-1,-2.897455E-1,1.9367075E-2,1.6707973E-1,-1.2948562E-1,3.1098273E-1,5.780093E-1,3.791523E-3,2.042896E-1,8.664422E-1,6.1346215E-1,2.6693082E-1,5.0465107E-2,1.3293157E0,8.2723236E-1,2.0997937E0,1.2314419E0,2.2040406E-1,5.478338E-1,-2.586076E-2,3.0415386E-1],"categories":[],"categories_nodes":[],"categories_segments":[],"categories_sizes":[],"default_left":[0,0,0,0,0,0,0,0,0,0,0,0,0,0,0,0,0,0,0,0,0,0,0,0,0,0,0,0,0,0,0,0,0,0,0,0,0,0,0,0,0,0,0,0,0,0,0,0,0,0,0,0,0,0,0,0,0,0,0,0,0],"id":13,"left_children":[1,3,5,7,9,11,13,15,17,19,21,23,25,27,29,31,-1,33,35,37,39,41,43,45,47,49,51,53,55,57,59,-1,-1,-1,-1,-1,-1,-1,-1,-1,-1,-1,-1,-1,-1,-1,-1,-1,-1,-1,-1,-1,-1,-1,-1,-1,-1,-1,-1,-1,-1],"loss_changes":[6.64978E4,1.0811676E4,1.0746008E4,5.600176E2,6.345115E2,1.1799023E3,1.0489512E4,8.53418E1,9.329785E1,4.640143E2,1.2137634E2,3.1082764E2,5.6635205E2,6.928125E2,1.9816687E2,4.1009766E1,0E0,2.2611328E1,8.911133E-1,2.4561115E2,6.3303986E2,4.0897705E1,8.34234E1,2.308811E2,7.41167E1,2.1974121E1,2.853505E1,1.5419727E2,1.3596445E3,1.4474268E2,1.3381555E2,0E0,0E0,0E0,0E0,0E0,0E0,0E0,0E0,0E0,0E0,0E0,0E0,0E0,0E0,0E0,0E0,0E0,0E0,0E0,0E0,0E0,0E0,0E0,0E0,0E0,0E0,0E0,0E0,0E0,0E0],"parents":[2147483647,0,0,1,1,2,2,3,3,4,4,5,5,6,6,7,7,8,8,9,9,10,10,11,11,12,12,13,13,14,14,15,15,17,17,18,18,19,19,20,20,21,21,22,22,23,23,24,24,25,25,26,26,27,27,28,28,29,29,30,30],"right_children":[2,4,6,8,10,12,14,16,18,20,22,24,26,28,30,32,-1,34,36,38,40,42,44,46,48,50,52,54,56,58,60,-1,-1,-1,-1,-1,-1,-1,-1,-1,-1,-1,-1,-1,-1,-1,-1,-1,-1,-1,-1,-1,-1,-1,-1,-1,-1,-1,-1,-1,-1],"split_conditions":[4.4857143E1,2.2428572E1,4E0,1.1285714E1,2.9151986E0,3.003535E1,6E0,1.2699288E-1,2.760997E0,4E0,2.7857143E1,5.3E1,1.4559754E1,3.0131119E1,1.2699288E-1,8.714286E0,-5.933374E-1,3.1E1,1.9E1,2.8571428E1,6E0,3.5E1,2.3E1,4.7E1,4.5E1,4.2E1,5.457143E1,5E1,5.5285713E1,5.557143E1,2.7302069E1,-5.2526903E-1,-4.3740162E-1,-3.28067E-1,-4.089613E-2,-4.6491694E-1,-1.3342233E-1,-1.1181448E-1,4.2312715E-2,2.1489175E-1,-1.0481763E-1,-2.897455E-1,1.9367075E-2,1.6707973E-1,-1.2948562E-1,3.1098273E-1,5.780093E-1,3.791523E-3,2.042896E-1,8.664422E-1,6.1346215E-1,2.6693082E-1,5.0465107E-2,1.3293157E0,8.2723236E-1,2.0997937E0,1.2314419E0,2.2040406E-1,5.478338E-1,-2.586076E-2,3.0415386E-1],"split_indices":[10,10,2,10,1,0,2,1,1,2,10,6,1,0,1,10,0,3,6,10,2,6,7,6,7,6,10,7,10,10,0,0,0,0,0,0,0,0,0,0,0,0,0,0,0,0,0,0,0,0,0,0,0,0,0,0,0,0,0,0,0],"split_type":[0,0,0,0,0,0,0,0,0,0,0,0,0,0,0,0,0,0,0,0,0,0,0,0,0,0,0,0,0,0,0,0,0,0,0,0,0,0,0,0,0,0,0,0,0,0,0,0,0,0,0,0,0,0,0,0,0,0,0,0,0],"sum_hessian":[7.66E2,5.41E2,2.25E2,3.3E2,2.11E2,1.29E2,9.6E1,2.26E2,1.04E2,1.76E2,3.5E1,8.5E1,4.4E1,6.7E1,2.9E1,1.73E2,5.3E1,7.7E1,2.7E1,1.02E2,7.4E1,2.1E1,1.4E1,6.7E1,1.8E1,3.7E1,7E0,3.6E1,3.1E1,1.8E1,1.1E1,9E1,8.3E1,7.6E1,1E0,2.6E1,1E0,5.4E1,4.8E1,5.3E1,2.1E1,2E1,1E0,2E0,1.2E1,5.6E1,1.1E1,8E0,1E1,1.2E1,2.5E1,4E0,3E0,2.7E1,9E0,1.5E1,1.6E1,8E0,1E1,6E0,5E0],"tree_param":{"num_deleted":"0","num_feature":"14","num_nodes":"61","size_leaf_vector":"1"}},{"base_weights":[3.3051816E-1,-5.2318115E0,1.3812725E1,-8.709335E0,-3.155092E-1,8.704631E0,2.4049341E1,-9.885355E0,-6.6865234E0,-2.0612774E0,1.0615958E0,6.990677E0,1.2236852E1,5.9486027E0,2.5558985E1,-5.263602E-1,-4.4780618E-1,-6.994708E0,-4.680136E0,-2.2647746E0,3.3888488E0,1.713547E0,-2.7344184E0,8.188497E0,3.9058611E0,1.3391714E1,4.7885747E0,-1.5510708E-1,1.0189329E1,2.6083832E1,2.7463487E-1,-3.5957575E-1,-2.0809877E-1,-6.8367004E-2,-2.4947226E-1,4.610424E-2,-1.3415591E-1,2.8420497E-2,2.0697625E-1,1.07895136E-1,-1.4506821E-1,-5.4421812E-2,-2.4307947E-1,3.0426797E-1,5.2418965E-1,2.6417947E-1,2.421364E-2,9.026661E-1,5.5403405E-1,2.5643775E-1,6.018276E-2,7.11078E-1,2.8129408E-1,5.9080888E-2,1.3224381E0],"categories":[],"categories_nodes":[],"categories_segments":[],"categories_sizes":[],"default_left":[0,0,0,0,0,0,0,0,0,0,0,0,0,0,0,0,0,0,0,0,0,0,0,0,0,0,0,0,0,0,0,0,0,0,0,0,0,0,0,0,0,0,0,0,0,0,0,0,0,0,0,0,0,0,0],"id":14,"left_children":[1,3,5,7,9,11,13,15,17,19,21,23,25,27,29,-1,-1,31,33,35,37,39,41,43,45,47,49,-1,51,53,-1,-1,-1,-1,-1,-1,-1,-1,-1,-1,-1,-1,-1,-1,-1,-1,-1,-1,-1,-1,-1,-1,-1,-1,-1],"loss_changes":[5.7516504E4,9.280684E3,1.1503527E4,6.9038086E2,5.4551624E2,8.286201E2,1.8700586E3,2.4404297E1,4.1464844E1,1.18583496E2,3.1898718E2,3.5230176E2,3.4875537E2,3.0028088E2,5.728867E2,0E0,0E0,2.693457E1,1.2646606E1,1.3179465E2,6.1159973E0,2.2978305E2,6.123288E1,2.934248E2,1.4357587E2,2.4165527E2,3.582901E0,0E0,1.1995544E1,5.6852734E2,0E0,0E0,0E0,0E0,0E0,0E0,0E0,0E0,0E0,0E0,0E0,0E0,0E0,0E0,0E0,0E0,0E0,0E0,0E0,0E0,0E0,0E0,0E0,0E0,0E0],"parents":[2147483647,0,0,1,1,2,2,3,3,4,4,5,5,6,6,7,7,8,8,9,9,10,10,11,11,12,12,13,13,14,14,17,17,18,18,19,19,20,20,21,21,22,22,23,23,24,24,25,25,26,26,28,28,29,29],"right_children":[2,4,6,8,10,12,14,16,18,20,22,24,26,28,30,-1,-1,32,34,36,38,40,42,44,46,48,50,-1,52,54,-1,-1,-1,-1,-1,-1,-1,-1,-1,-1,-1,-1,-1,-1,-1,-1,-1,-1,-1,-1,-1,-1,-1,-1,-1],"split_conditions":[4.642857E1,2.2428572E1,5.9E1,1.2E1,2.7E1,3.003535E1,2.44947E1,8.857142E0,1.8E1,3.6E1,1E0,5.7E1,1E0,9E0,7.2E1,-5.263602E-1,-4.4780618E-1,2E1,1E1,2.3714285E1,8E0,1E0,3.4E1,4.3E1,5.8E1,5.2E1,3.4564274E1,-1.5510708E-1,2.2367168E1,3.3E1,2.7463487E-1,-3.5957575E-1,-2.0809877E-1,-6.8367004E-2,-2.4947226E-1,4.610424E-2,-1.3415591E-1,2.8420497E-2,2.0697625E-1,1.07895136E-1,-1.4506821E-1,-5.4421812E-2,-2.4307947E-1,3.0426797E-1,5.2418965E-1,2.6417947E-1,2.421364E-2,9.026661E-1,5.5403405E-1,2.5643775E-1,6.018276E-2,7.11078E-1,2.8129408E-1,5.9080888E-2,1.3224381E0],"split_indices":[10,10,9,9,10,0,0,10,9,9,12,6,12,3,7,0,0,6,6,10,3,11,7,9,8,10,0,0,0,8,0,0,0,0,0,0,0,0,0,0,0,0,0,0,0,0,0,0,0,0,0,0,0,0,0],"split_type":[0,0,0,0,0,0,0,0,0,0,0,0,0,0,0,0,0,0,0,0,0,0,0,0,0,0,0,0,0,0,0,0,0,0,0,0,0,0,0,0,0,0,0,0,0,0,0,0,0,0,0,0,0,0,0],"sum_hessian":[7.65E2,5.42E2,2.23E2,3.17E2,2.25E2,1.5E2,7.3E1,1.98E2,1.19E2,9.9E1,1.26E2,1.03E2,4.7E1,6E0,6.7E1,1.11E2,8.7E1,1.01E2,1.8E1,9.6E1,3E0,1.08E2,1.8E1,7.3E1,3E1,4E1,7E0,2E0,4E0,6.5E1,2E0,9.3E1,8E0,2E0,1.6E1,1.1E1,8.5E1,1E0,2E0,9.9E1,9E0,1.1E1,7E0,4E1,3.3E1,2.1E1,9E0,1.1E1,2.9E1,6E0,1E0,1E0,3E0,1E0,6.4E1],"tree_param":{"num_deleted":"0","num_feature":"14","num_nodes":"55","size_leaf_vector":"1"}},{"base_weights":[1.1981137E-1,-4.7945065E0,1.4195396E1,-8.322551E0,5.631936E-2,8.509693E0,2.328529E1,-9.329901E0,-6.3320465E0,-6.8687403E-1,5.734429E0,9.481423E0,3.8302948E0,6.640737E0,2.4877625E1,-8.875061E0,-5.318169E-1,-6.607798E0,-2.380746E0,3.3702752E-1,-3.5130067E0,-7.7888364E-1,6.26541E0,5.7967606E0,1.0365141E1,5.2830296E0,9.834815E-1,6.1718845E-1,2.6824315E0,2.717374E1,1.3916186E1,-4.4610962E-1,-1.6622292E-1,-3.001897E-1,-4.2106614E-1,2.2181654E-2,-1.3946238E-1,-2.8688846E-2,1.5654305E-1,-2.1107788E-1,-8.309902E-3,1.3006019E-2,-7.1422294E-2,3.5237798E-1,1.0084844E-2,1.4244469E-1,4.0079543E-1,5.35635E-2,5.417014E-1,8.099189E-2,3.0319208E-1,8.1395485E-2,-1.0429859E-1,1.8955612E-1,-7.1525574E-2,1.3829056E0,4.698565E-1,-3.0417314E-2,8.193819E-1],"categories":[],"categories_nodes":[],"categories_segments":[],"categories_sizes":[],"default_left":[0,0,0,0,0,0,0,0,0,0,0,0,0,0,0,0,0,0,0,0,0,0,0,0,0,0,0,0,0,0,0,0,0,0,0,0,0,0,0,0,0,0,0,0,0,0,0,0,0,0,0,0,0,0,0,0,0,0,0],"id":15,"left_children":[1,3,5,7,9,11,13,15,17,19,21,23,25,27,29,31,-1,33,35,37,39,41,43,45,47,49,51,-1,53,55,57,-1,-1,-1,-1,-1,-1,-1,-1,-1,-1,-1,-1,-1,-1,-1,-1,-1,-1,-1,-1,-1,-1,-1,-1,-1,-1,-1,-1],"loss_changes":[5.3192082E4,9.755408E3,1.0086652E4,6.0261523E2,1.02094275E3,5.2752637E2,1.8490781E3,3.4546875E1,1.0848047E2,6.204319E2,1.0171655E2,2.7204883E2,8.992456E1,1.4748346E2,1.3584883E3,1.4026367E1,0E0,6.5549805E1,1.1621269E1,4.0384882E2,1.3446729E2,2.3962612E0,1.2188959E2,1.2108209E2,3.4137305E2,3.308145E1,2.1198154E1,0E0,3.2783146E1,2.2228125E2,5.1252295E2,0E0,0E0,0E0,0E0,0E0,0E0,0E0,0E0,0E0,0E0,0E0,0E0,0E0,0E0,0E0,0E0,0E0,0E0,0E0,0E0,0E0,0E0,0E0,0E0,0E0,0E0,0E0,0E0],"parents":[2147483647,0,0,1,1,2,2,3,3,4,4,5,5,6,6,7,7,8,8,9,9,10,10,11,11,12,12,13,13,14,14,15,15,17,17,18,18,19,19,20,20,21,21,22,22,23,23,24,24,25,25,26,26,28,28,29,29,30,30],"right_children":[2,4,6,8,10,12,14,16,18,20,22,24,26,28,30,32,-1,34,36,38,40,42,44,46,48,50,52,-1,54,56,58,-1,-1,-1,-1,-1,-1,-1,-1,-1,-1,-1,-1,-1,-1,-1,-1,-1,-1,-1,-1,-1,-1,-1,-1,-1,-1,-1,-1],"split_conditions":[3.9E1,1.9E1,6E1,1.2E1,4.7E1,1.2699288E-1,4E0,1.2699288E-1,2.3E1,1.2699288E-1,3E1,3.7E1,8E1,3E0,1.2699288E-1,1.9E1,-5.318169E-1,1.2699288E-1,2E0,3.3E1,3.5E1,1.2699288E-1,1E0,4E0,2.6E1,9E0,1.05E2,6.1718845E-1,1.2699288E-1,6.5E1,9E0,-4.4610962E-1,-1.6622292E-1,-3.001897E-1,-4.2106614E-1,2.2181654E-2,-1.3946238E-1,-2.8688846E-2,1.5654305E-1,-2.1107788E-1,-8.309902E-3,1.3006019E-2,-7.1422294E-2,3.5237798E-1,1.0084844E-2,1.4244469E-1,4.0079543E-1,5.35635E-2,5.417014E-1,8.099189E-2,3.0319208E-1,8.1395485E-2,-1.0429859E-1,1.8955612E-1,-7.1525574E-2,1.3829056E0,4.698565E-1,-3.0417314E-2,8.193819E-1],"split_indices":[9,9,9,9,7,1,2,1,8,1,9,6,7,4,1,6,0,1,4,6,9,1,11,4,7,3,7,0,1,7,3,0,0,0,0,0,0,0,0,0,0,0,0,0,0,0,0,0,0,0,0,0,0,0,0,0,0,0,0],"split_type":[0,0,0,0,0,0,0,0,0,0,0,0,0,0,0,0,0,0,0,0,0,0,0,0,0,0,0,0,0,0,0,0,0,0,0,0,0,0,0,0,0,0,0,0,0,0,0,0,0,0,0,0,0,0,0,0,0,0,0],"sum_hessian":[7.67E2,5.69E2,1.98E2,3.29E2,2.4E2,1.23E2,7.5E1,2.16E2,1.13E2,2.13E2,2.7E1,1.01E2,2.2E1,7E0,6.8E1,1.66E2,5E1,1.05E2,8E0,1.57E2,5.6E1,2E0,2.5E1,2.1E1,8E1,1.4E1,8E0,2E0,5E0,5.5E1,1.3E1,1.64E2,2E0,8.2E1,2.3E1,1E0,7E0,1.19E2,3.8E1,4.6E1,1E1,1E0,1E0,2.2E1,3E0,1E1,1.1E1,4E0,7.6E1,3E0,1.1E1,7E0,1E0,4E0,1E0,5.3E1,2E0,2E0,1.1E1],"tree_param":{"num_deleted":"0","num_feature":"14","num_nodes":"59","size_leaf_vector":"1"}},{"base_weights":[-1.7852584E-1,-4.920536E0,1.1633814E1,-7.944904E0,-4.098504E-1,7.8405905E0,2.2210451E1,-8.811774E0,-5.935095E0,5.88702E-1,-3.5484996E0,1.4748785E1,7.035341E0,1.7187769E1,2.840048E1,-8.368717E0,-5.0145316E-1,-5.316325E0,-3.8494006E-1,-7.709654E-1,2.4838264E0,-4.639456E0,-1.7801666E-1,5.1749682E0,1.8630068E1,7.90684E0,1.9930503E0,1.9135048E1,4.9112897E0,3.2596596E1,1.3553264E1,-4.2793947E-1,-3.071715E-1,-3.1468043E-1,-2.3533264E-1,-8.944433E-2,2.8631447E-2,1.9869944E-1,-5.912282E-2,-2.7213198E-1,-1.7326362E-1,-6.586348E-2,1.06804624E-1,-3.2609846E-2,3.2354203E-1,2.1370248E-1,9.8191327E-1,3.4944272E-1,5.943502E-1,2.4492478E-2,1.7941871E-1,1.0177672E0,8.870195E-2,3.557251E-1,-1.5261927E-1,2.0311332E0,1.1056737E0,9.826657E-1,3.59129E-1],"categories":[],"categories_nodes":[],"categories_segments":[],"categories_sizes":[],"default_left":[0,0,0,0,0,0,0,0,0,0,0,0,0,0,0,0,0,0,0,0,0,0,0,0,0,0,0,0,0,0,0,0,0,0,0,0,0,0,0,0,0,0,0,0,0,0,0,0,0,0,0,0,0,0,0,0,0,0,0],"id":16,"left_children":[1,3,5,7,9,11,13,15,17,19,21,23,25,27,29,31,-1,33,-1,35,37,39,41,43,45,47,49,51,53,55,57,-1,-1,-1,-1,-1,-1,-1,-1,-1,-1,-1,-1,-1,-1,-1,-1,-1,-1,-1,-1,-1,-1,-1,-1,-1,-1,-1,-1],"loss_changes":[4.262806E4,7.404335E3,8.571918E3,5.139297E2,6.884581E2,7.9741406E2,1.2840215E3,3.741797E1,6.929468E1,4.3223035E2,1.940578E2,4.981294E2,6.3021094E2,7.188174E2,1.0534238E3,1.974707E1,0E0,1.6852295E1,0E0,1.3505634E2,3.8713394E2,1.886316E1,3.9722782E1,4.9527832E1,7.527539E1,3.7363916E2,5.339836E1,5.782705E2,1.26990204E2,6.161797E2,1.3086902E2,0E0,0E0,0E0,0E0,0E0,0E0,0E0,0E0,0E0,0E0,0E0,0E0,0E0,0E0,0E0,0E0,0E0,0E0,0E0,0E0,0E0,0E0,0E0,0E0,0E0,0E0,0E0,0E0],"parents":[2147483647,0,0,1,1,2,2,3,3,4,4,5,5,6,6,7,7,8,8,9,9,10,10,11,11,12,12,13,13,14,14,15,15,17,17,19,19,20,20,21,21,22,22,23,23,24,24,25,25,26,26,27,27,28,28,29,29,30,30],"right_children":[2,4,6,8,10,12,14,16,18,20,22,24,26,28,30,32,-1,34,-1,36,38,40,42,44,46,48,50,52,54,56,58,-1,-1,-1,-1,-1,-1,-1,-1,-1,-1,-1,-1,-1,-1,-1,-1,-1,-1,-1,-1,-1,-1,-1,-1,-1,-1,-1,-1],"split_conditions":[4.4857143E1,2.2428572E1,6.6E1,1.3E1,1.2699288E-1,5.0142857E1,3.0131119E1,1.2699288E-1,1.2699288E-1,4E0,3.5E1,3.2E1,1.0325258E1,5.4E1,1.2699288E-1,1.1142858E1,-5.0145316E-1,4E0,-3.8494006E-1,3.2E1,6E0,2.6428572E1,5E0,3.5E1,3.5E1,3.0854239E1,3.1303858E1,1.05E2,6E0,5.5285713E1,4.8E1,-4.2793947E-1,-3.071715E-1,-3.1468043E-1,-2.3533264E-1,-8.944433E-2,2.8631447E-2,1.9869944E-1,-5.912282E-2,-2.7213198E-1,-1.7326362E-1,-6.586348E-2,1.06804624E-1,-3.2609846E-2,3.2354203E-1,2.1370248E-1,9.8191327E-1,3.4944272E-1,5.943502E-1,2.4492478E-2,1.7941871E-1,1.0177672E0,8.870195E-2,3.557251E-1,-1.5261927E-1,2.0311332E0,1.1056737E0,9.826657E-1,3.59129E-1],"split_indices":[10,10,9,9,1,10,0,1,1,2,9,9,1,7,1,10,0,2,0,8,2,10,4,7,8,0,0,9,2,10,7,0,0,0,0,0,0,0,0,0,0,0,0,0,0,0,0,0,0,0,0,0,0,0,0,0,0,0,0],"split_type":[0,0,0,0,0,0,0,0,0,0,0,0,0,0,0,0,0,0,0,0,0,0,0,0,0,0,0,0,0,0,0,0,0,0,0,0,0,0,0,0,0,0,0,0,0,0,0,0,0,0,0,0,0,0,0,0,0,0,0],"sum_hessian":[7.59E2,5.42E2,2.17E2,3.24E2,2.18E2,1.61E2,5.6E1,2.24E2,1E2,1.66E2,5.2E1,1.5E1,1.46E2,3.3E1,2.3E1,1.7E2,5.4E1,7.7E1,2.3E1,9.7E1,6.9E1,3.9E1,1.3E1,5E0,1E1,1.24E2,2.2E1,2.8E1,5E0,1.7E1,6E0,1.54E2,1.6E1,2.6E1,5.1E1,5.5E1,4.2E1,4.9E1,2E1,2.1E1,1.8E1,9E0,4E0,1E0,4E0,1E0,9E0,1.03E2,2.1E1,1.2E1,1E1,2.6E1,2E0,4E0,1E0,8E0,9E0,2E0,4E0],"tree_param":{"num_deleted":"0","num_feature":"14","num_nodes":"59","size_leaf_vector":"1"}},{"base_weights":[3.4728307E-1,-4.777987E0,1.1888608E1,-7.6433907E0,-4.843761E-1,7.0415907E0,2.187265E1,-8.562725E0,-5.818942E0,4.795062E-1,-3.7876303E0,4.7603917E0,1.13891E1,5.211394E0,2.375616E1,-4.4787738E-1,-7.413809E0,-5.327296E0,-7.521031E0,-1.1020309E0,2.3920445E0,-5.737991E0,-2.4261477E0,5.9012237E0,6.166637E-1,9.6293955E0,2.182863E1,5.98265E-1,5.4141194E-1,2.6148228E1,1.0414164E1,-3.7334427E-1,-1.0838409E-1,-3.006004E-1,-2.3298132E-1,-3.8358262E-1,-1.0894952E-1,-1.1285007E-1,4.5031276E-2,2.0754336E-1,-7.5920284E-2,-8.4262274E-2,-2.9347596E-1,-1.512667E-1,5.8742505E-2,4.093565E-1,2.0319262E-1,1.1555584E-1,-7.979866E-2,5.350844E-1,1.8968563E-1,4.1807157E-1,1.4919337E0,-6.054456E-2,1.4055258E-1,1.0255556E0,1.5627064E0,5.951006E-1,-1.4880382E-1],"categories":[],"categories_nodes":[],"categories_segments":[],"categories_sizes":[],"default_left":[0,0,0,0,0,0,0,0,0,0,0,0,0,0,0,0,0,0,0,0,0,0,0,0,0,0,0,0,0,0,0,0,0,0,0,0,0,0,0,0,0,0,0,0,0,0,0,0,0,0,0,0,0,0,0,0,0,0,0],"id":17,"left_children":[1,3,5,7,9,11,13,15,17,19,21,23,25,27,29,-1,31,33,35,37,39,41,43,45,47,49,51,53,-1,55,57,-1,-1,-1,-1,-1,-1,-1,-1,-1,-1,-1,-1,-1,-1,-1,-1,-1,-1,-1,-1,-1,-1,-1,-1,-1,-1,-1,-1],"loss_changes":[4.5012637E4,6.4799424E3,1.1169902E4,4.8019336E2,6.7681323E2,1.5226709E3,2.2612031E3,2.794336E1,5.1147217E1,5.0171988E2,1.1353705E2,4.974546E2,7.8181055E2,2.2672289E2,1.8979023E3,0E0,2.4267578E-1,1.2216553E1,9.852295E-1,2.125165E2,5.2213666E2,2.3632812E-1,6.828438E1,3.1533374E2,9.366951E1,2.5976416E2,5.0561572E2,2.7423538E1,0E0,9.995469E2,2.744928E2,0E0,0E0,0E0,0E0,0E0,0E0,0E0,0E0,0E0,0E0,0E0,0E0,0E0,0E0,0E0,0E0,0E0,0E0,0E0,0E0,0E0,0E0,0E0,0E0,0E0,0E0,0E0,0E0],"parents":[2147483647,0,0,1,1,2,2,3,3,4,4,5,5,6,6,7,7,8,8,9,9,10,10,11,11,12,12,13,13,14,14,16,16,17,17,18,18,19,19,20,20,21,21,22,22,23,23,24,24,25,25,26,26,27,27,29,29,30,30],"right_children":[2,4,6,8,10,12,14,16,18,20,22,24,26,28,30,-1,32,34,36,38,40,42,44,46,48,50,52,54,-1,56,58,-1,-1,-1,-1,-1,-1,-1,-1,-1,-1,-1,-1,-1,-1,-1,-1,-1,-1,-1,-1,-1,-1,-1,-1,-1,-1,-1,-1],"split_conditions":[4.4857143E1,2.2428572E1,6E1,1.2E1,2.760997E0,2.9818316E1,4E0,1E1,1.2699288E-1,4E0,2.7E1,1.2699288E-1,5.6E1,3.003535E1,1.9196161E0,-4.4787738E-1,1.5285714E1,4E0,2.3E1,2.9857143E1,6E0,2.3714285E1,2.3884806E1,5.8E1,5E1,1.4559754E1,3.164626E1,2.1E1,5.4141194E-1,2.8967487E1,6E0,-3.7334427E-1,-1.0838409E-1,-3.006004E-1,-2.3298132E-1,-3.8358262E-1,-1.0894952E-1,-1.1285007E-1,4.5031276E-2,2.0754336E-1,-7.5920284E-2,-8.4262274E-2,-2.9347596E-1,-1.512667E-1,5.8742505E-2,4.093565E-1,2.0319262E-1,1.1555584E-1,-7.979866E-2,5.350844E-1,1.8968563E-1,4.1807157E-1,1.4919337E0,-6.054456E-2,1.4055258E-1,1.0255556E0,1.5627064E0,5.951006E-1,-1.4880382E-1],"split_indices":[10,10,9,9,1,0,2,9,1,2,10,1,9,0,1,0,10,2,9,10,2,10,1,8,8,1,0,3,0,0,2,0,0,0,0,0,0,0,0,0,0,0,0,0,0,0,0,0,0,0,0,0,0,0,0,0,0,0,0],"split_type":[0,0,0,0,0,0,0,0,0,0,0,0,0,0,0,0,0,0,0,0,0,0,0,0,0,0,0,0,0,0,0,0,0,0,0,0,0,0,0,0,0,0,0,0,0,0,0,0,0,0,0,0,0,0,0,0,0,0,0],"sum_hessian":[7.59E2,5.26E2,2.33E2,3.15E2,2.11E2,1.58E2,7.5E1,2.07E2,1.08E2,1.64E2,4.7E1,1.05E2,5.3E1,8E0,6.7E1,1.49E2,5.8E1,8.7E1,2.1E1,9E1,7.4E1,1.8E1,2.9E1,8.2E1,2.3E1,4.7E1,6E0,5E0,3E0,5.6E1,1.1E1,5.7E1,1E0,3.9E1,4.8E1,2E1,1E0,5.7E1,3.3E1,5.1E1,2.3E1,1E0,1.7E1,2.5E1,4E0,3.5E1,4.7E1,1.3E1,1E1,3.9E1,8E0,3E0,3E0,3E0,2E0,2.9E1,2.7E1,1E1,1E0],"tree_param":{"num_deleted":"0","num_feature":"14","num_nodes":"59","size_leaf_vector":"1"}},{"base_weights":[1.6998555E-1,-4.5246687E0,1.100461E1,-7.2441683E0,-5.10788E-1,6.9025655E0,1.9438694E1,-7.966829E0,-5.429807E0,3.824275E-1,-3.165363E0,5.083875E0,1.0512654E1,1.5905057E1,2.444456E1,-7.5255804E0,-4.5908847E-1,-4.9269776E0,-3.4057644E-1,-1.1466137E0,1.5820725E0,-3.9343843E0,-3.1903267E-1,4.6742926E0,8.998849E-1,1.2389765E1,4.3985753E0,4.542097E0,1.71207E1,3.1840227E1,1.6916092E1,-4.098187E-1,-3.3324233E-1,-2.5861543E-1,-1.8085942E-1,-7.637828E-2,5.870352E-2,5.553935E-2,2.714896E-1,-2.3616675E-1,-1.1292563E-1,-8.182182E-2,1.0580504E-1,2.7796423E-1,5.0115466E-2,7.4590147E-1,4.4051048E-1,2.884818E-1,3.8836937E-2,5.281567E-1,6.1263163E-2,2.6841482E-2,8.9582884E-1,1.8643936E0,7.288447E-1,9.7388107E-1,1.8608598E-1],"categories":[],"categories_nodes":[],"categories_segments":[],"categories_sizes":[],"default_left":[0,0,0,0,0,0,0,0,0,0,0,0,0,0,0,0,0,0,0,0,0,0,0,0,0,0,0,0,0,0,0,0,0,0,0,0,0,0,0,0,0,0,0,0,0,0,0,0,0,0,0,0,0,0,0,0,0],"id":18,"left_children":[1,3,5,7,9,11,13,15,17,19,21,23,25,27,29,31,-1,33,-1,35,37,39,41,43,-1,45,47,49,51,53,55,-1,-1,-1,-1,-1,-1,-1,-1,-1,-1,-1,-1,-1,-1,-1,-1,-1,-1,-1,-1,-1,-1,-1,-1,-1,-1],"loss_changes":[3.9876945E4,5.967213E3,8.0653066E3,3.8418164E2,5.2759644E2,1.0036216E3,9.732578E2,5.4739258E1,3.3137695E1,3.0814325E2,1.2132257E2,4.9240454E2,5.537739E2,5.852754E2,1.1317285E3,4.6413086E1,0E0,5.069336E0,0E0,6.7214554E1,1.6442581E2,4.750824E1,4.5167564E1,3.4214355E2,0E0,2.3057129E2,6.503909E1,1.06882034E2,5.579248E2,7.7308105E2,5.0207227E2,0E0,0E0,0E0,0E0,0E0,0E0,0E0,0E0,0E0,0E0,0E0,0E0,0E0,0E0,0E0,0E0,0E0,0E0,0E0,0E0,0E0,0E0,0E0,0E0,0E0,0E0],"parents":[2147483647,0,0,1,1,2,2,3,3,4,4,5,5,6,6,7,7,8,8,9,9,10,10,11,11,12,12,13,13,14,14,15,15,17,17,19,19,20,20,21,21,22,22,23,23,25,25,26,26,27,27,28,28,29,29,30,30],"right_children":[2,4,6,8,10,12,14,16,18,20,22,24,26,28,30,32,-1,34,-1,36,38,40,42,44,-1,46,48,50,52,54,56,-1,-1,-1,-1,-1,-1,-1,-1,-1,-1,-1,-1,-1,-1,-1,-1,-1,-1,-1,-1,-1,-1,-1,-1,-1,-1],"split_conditions":[4.4857143E1,2.2428572E1,5.9E1,1.3E1,1.2699288E-1,3.003535E1,3.0795366E1,1.2699288E-1,1.2699288E-1,2.7E1,3.5E1,3E1,1.2699288E-1,3.7E1,5.5285713E1,8.714286E0,-4.5908847E-1,1.8E1,-3.4057644E-1,2.8E1,3.9E1,3E1,5E0,1.2699288E-1,8.998849E-1,4.6E1,7.9E1,3.1E1,3.1E1,1.2699288E-1,3.3976467E1,-4.098187E-1,-3.3324233E-1,-2.5861543E-1,-1.8085942E-1,-7.637828E-2,5.870352E-2,5.553935E-2,2.714896E-1,-2.3616675E-1,-1.1292563E-1,-8.182182E-2,1.0580504E-1,2.7796423E-1,5.0115466E-2,7.4590147E-1,4.4051048E-1,2.884818E-1,3.8836937E-2,5.281567E-1,6.1263163E-2,2.6841482E-2,8.9582884E-1,1.8643936E0,7.288447E-1,9.7388107E-1,1.8608598E-1],"split_indices":[10,10,9,9,1,0,0,1,1,10,9,3,1,6,10,10,0,9,0,3,9,6,4,1,0,6,7,6,7,1,0,0,0,0,0,0,0,0,0,0,0,0,0,0,0,0,0,0,0,0,0,0,0,0,0,0,0],"split_type":[0,0,0,0,0,0,0,0,0,0,0,0,0,0,0,0,0,0,0,0,0,0,0,0,0,0,0,0,0,0,0,0,0,0,0,0,0,0,0,0,0,0,0,0,0,0,0,0,0,0,0,0,0,0,0,0,0],"sum_hessian":[7.82E2,5.46E2,2.36E2,3.25E2,2.21E2,1.6E2,7.6E1,2.3E2,9.5E1,1.66E2,5.5E1,1.08E2,5.2E1,4.7E1,2.9E1,1.74E2,5.6E1,7.3E1,2.2E1,7.3E1,9.3E1,4.3E1,1.2E1,1.06E2,2E0,3.9E1,1.3E1,5E0,4.2E1,1.3E1,1.6E1,9.3E1,8.1E1,5.9E1,1.4E1,6.3E1,1E1,8.4E1,9E0,2.8E1,1.5E1,8E0,4E0,8.5E1,2.1E1,2.1E1,1.8E1,9E0,4E0,1E0,4E0,2E0,4E1,9E0,4E0,1.3E1,3E0],"tree_param":{"num_deleted":"0","num_feature":"14","num_nodes":"57","size_leaf_vector":"1"}},{"base_weights":[-3.2650277E-2,-4.4613967E0,1.0760072E1,-7.020449E0,-4.5692107E-1,5.7901626E0,1.8552135E1,-7.667704E0,-5.409931E0,4.589917E-1,-3.079781E0,6.824397E0,1.8739126E0,1.9717695E1,2.5811543E0,-7.2558417E0,-4.4492918E-1,-4.825584E0,-6.7678223E0,-1.1768304E0,1.6763204E0,-3.8317516E0,-3.555876E-1,1.2765406E1,6.155362E0,2.9010282E0,-4.7042122E-1,2.1606817E1,1.0810783E1,-1.6526804E0,6.1697006E0,-3.9019525E-1,-3.228185E-1,-2.4453083E-1,-5.2063945E-3,-1.422364E-1,-3.4839404E-1,2.7011022E-2,-9.2682526E-2,5.6402918E-2,2.4395597E-1,-2.0243232E-1,2.0486515E-2,-8.2110696E-2,1.01572864E-1,2.3536709E-1,8.676446E-1,2.4104093E-1,3.764654E-1,3.2253932E-2,2.4466239E-1,-9.621045E-2,6.841042E-2,1.0842734E-1,1.0938329E0,5.9890574E-1,-1.6747943E-1,5.9327126E-2,-1.4973012E-1,3.650235E-1,6.943484E-2],"categories":[],"categories_nodes":[],"categories_segments":[],"categories_sizes":[],"default_left":[0,0,0,0,0,0,0,0,0,0,0,0,0,0,0,0,0,0,0,0,0,0,0,0,0,0,0,0,0,0,0,0,0,0,0,0,0,0,0,0,0,0,0,0,0,0,0,0,0,0,0,0,0,0,0,0,0,0,0,0,0],"id":19,"left_children":[1,3,5,7,9,11,13,15,17,19,21,23,25,27,29,31,-1,33,35,37,39,41,43,45,47,49,51,53,55,57,59,-1,-1,-1,-1,-1,-1,-1,-1,-1,-1,-1,-1,-1,-1,-1,-1,-1,-1,-1,-1,-1,-1,-1,-1,-1,-1,-1,-1,-1,-1],"loss_changes":[3.6470254E4,5.5407783E3,8.489721E3,3.0251562E2,5.107035E2,5.4210596E2,1.5500059E3,5.3554688E1,4.5102295E1,3.166034E2,1.11305725E2,3.5069678E2,7.360176E1,1.1125156E3,1.1654973E2,2.8483398E1,0E0,2.1598267E1,1.3692627E0,8.002653E1,1.5428961E2,4.121698E1,4.3262135E1,2.8797632E2,1.4522827E2,9.122475E1,2.9362488E1,2.934961E2,3.0459912E2,1.8793282E1,1.1486725E1,0E0,0E0,0E0,0E0,0E0,0E0,0E0,0E0,0E0,0E0,0E0,0E0,0E0,0E0,0E0,0E0,0E0,0E0,0E0,0E0,0E0,0E0,0E0,0E0,0E0,0E0,0E0,0E0,0E0,0E0],"parents":[2147483647,0,0,1,1,2,2,3,3,4,4,5,5,6,6,7,7,8,8,9,9,10,10,11,11,12,12,13,13,14,14,15,15,17,17,18,18,19,19,20,20,21,21,22,22,23,23,24,24,25,25,26,26,27,27,28,28,29,29,30,30],"right_children":[2,4,6,8,10,12,14,16,18,20,22,24,26,28,30,32,-1,34,36,38,40,42,44,46,48,50,52,54,56,58,60,-1,-1,-1,-1,-1,-1,-1,-1,-1,-1,-1,-1,-1,-1,-1,-1,-1,-1,-1,-1,-1,-1,-1,-1,-1,-1,-1,-1,-1,-1],"split_conditions":[4.4857143E1,2.1428572E1,5.7E1,1.2571428E1,1.2699288E-1,6.0651976E-1,6.6E1,1.2699288E-1,1.2699288E-1,2.7E1,3.5E1,5E1,6.2E1,1.2699288E-1,6E1,8.714286E0,-4.4492918E-1,3.1E1,6E0,2.1E1,3.9E1,3.6E1,5E0,3.2E1,5.557143E1,4.8E1,7.1E1,3.1E1,8.6E1,1E0,2.6E1,-3.9019525E-1,-3.228185E-1,-2.4453083E-1,-5.2063945E-3,-1.422364E-1,-3.4839404E-1,2.7011022E-2,-9.2682526E-2,5.6402918E-2,2.4395597E-1,-2.0243232E-1,2.0486515E-2,-8.2110696E-2,1.01572864E-1,2.3536709E-1,8.676446E-1,2.4104093E-1,3.764654E-1,3.2253932E-2,2.4466239E-1,-9.621045E-2,6.841042E-2,1.0842734E-1,1.0938329E0,5.9890574E-1,-1.6747943E-1,5.9327126E-2,-1.4973012E-1,3.650235E-1,6.943484E-2],"split_indices":[10,10,9,10,1,1,7,1,1,10,9,10,6,1,9,10,0,3,3,6,9,6,4,9,10,6,6,7,6,5,3,0,0,0,0,0,0,0,0,0,0,0,0,0,0,0,0,0,0,0,0,0,0,0,0,0,0,0,0,0,0],"split_type":[0,0,0,0,0,0,0,0,0,0,0,0,0,0,0,0,0,0,0,0,0,0,0,0,0,0,0,0,0,0,0,0,0,0,0,0,0,0,0,0,0,0,0,0,0,0,0,0,0,0,0,0,0,0,0,0,0,0,0,0,0],"sum_hessian":[7.61E2,5.4E2,2.21E2,3.29E2,2.11E2,1.36E2,8.5E1,2.32E2,9.7E1,1.57E2,5.4E1,1.07E2,2.9E1,7.9E1,6E0,1.79E2,5.3E1,7.1E1,2.6E1,6.7E1,9E1,4.2E1,1.2E1,9E0,9.8E1,2E1,9E0,6.4E1,1.5E1,3E0,3E0,1.01E2,7.8E1,7E1,1E0,2E0,2.4E1,1.9E1,4.8E1,7.8E1,1.2E1,4E1,2E0,8E0,4E0,4E0,5E0,5.2E1,4.6E1,1E1,1E1,5E0,4E0,1E0,6.3E1,1.4E1,1E0,1E0,2E0,2E0,1E0],"tree_param":{"num_deleted":"0","num_feature":"14","num_nodes":"61","size_leaf_vector":"1"}},{"base_weights":[-4.852142E-2,-4.1114306E0,1.0037056E1,-6.6150026E0,-4.2588416E-1,6.599625E0,1.7297676E1,-7.264012E0,-5.045862E0,-1.4787022E0,1.5403129E0,4.9243584E0,9.641803E0,8.445015E-1,1.9056564E1,-6.868013E0,-4.2434007E-1,-4.412212E0,-3.3978352E-1,-6.694997E-1,-4.0001016E0,-7.098803E-1,2.9046264E0,1.22205925E1,4.4222784E0,1.4542683E1,7.5629272E0,-1.6502602E0,1.8759142E-1,2.0864744E1,1.0218864E1,-3.7255487E-1,-3.0067357E-1,-2.4219361E-1,-1.6603024E-1,-8.167998E-2,4.5071136E-2,-2.4163078E-1,-1.0777266E-1,-1.1229296E-2,-1.5942469E-1,1.9815712E-1,-5.0176284E-3,1.9915524E-1,9.5651895E-1,2.4402693E-1,-2.631855E-3,7.7212584E-1,4.8625182E-2,2.6818135E-1,5.435427E-1,1.9775486E-2,-1.13029E-1,9.438661E-2,1.0785964E0,7.5229996E-1,1.0397698E-1],"categories":[],"categories_nodes":[],"categories_segments":[],"categories_sizes":[],"default_left":[0,0,0,0,0,0,0,0,0,0,0,0,0,0,0,0,0,0,0,0,0,0,0,0,0,0,0,0,0,0,0,0,0,0,0,0,0,0,0,0,0,0,0,0,0,0,0,0,0,0,0,0,0,0,0,0,0],"id":20,"left_children":[1,3,5,7,9,11,13,15,17,19,21,23,25,27,29,31,-1,33,-1,35,37,39,41,43,45,47,49,51,-1,53,55,-1,-1,-1,-1,-1,-1,-1,-1,-1,-1,-1,-1,-1,-1,-1,-1,-1,-1,-1,-1,-1,-1,-1,-1,-1,-1],"loss_changes":[3.224902E4,5.173547E3,5.5263223E3,3.0348828E2,4.742485E2,7.424717E2,2.067537E3,5.5020508E1,8.2001465E1,3.0133E2,2.4765945E2,3.1961304E2,4.401836E2,6.4216194E1,8.2549414E2,4.587793E1,0E0,2.019812E1,0E0,1.7412852E2,4.486853E1,3.657248E1,1.5943863E2,2.6531732E2,1.9917224E2,1.6814575E2,2.3269775E2,7.1369534E0,0E0,6.705508E2,4.7947632E2,0E0,0E0,0E0,0E0,0E0,0E0,0E0,0E0,0E0,0E0,0E0,0E0,0E0,0E0,0E0,0E0,0E0,0E0,0E0,0E0,0E0,0E0,0E0,0E0,0E0,0E0],"parents":[2147483647,0,0,1,1,2,2,3,3,4,4,5,5,6,6,7,7,8,8,9,9,10,10,11,11,12,12,13,13,14,14,15,15,17,17,19,19,20,20,21,21,22,22,23,23,24,24,25,25,26,26,27,27,29,29,30,30],"right_children":[2,4,6,8,10,12,14,16,18,20,22,24,26,28,30,32,-1,34,-1,36,38,40,42,44,46,48,50,52,-1,54,56,-1,-1,-1,-1,-1,-1,-1,-1,-1,-1,-1,-1,-1,-1,-1,-1,-1,-1,-1,-1,-1,-1,-1,-1,-1,-1],"split_conditions":[4.4857143E1,1.8E1,6.1E1,1.2571428E1,3E1,2.9818316E1,4E0,1.2699288E-1,1.2699288E-1,1.2699288E-1,4E0,4.9E1,5.2714287E1,6.6E1,1.9196161E0,4E0,-4.2434007E-1,4E0,-3.3978352E-1,2.6857143E1,2.8857143E1,1E0,1.2699288E-1,4E0,6.142857E1,2.1826492E1,5.7285713E1,2E0,1.8759142E-1,2.4430927E1,4.6E1,-3.7255487E-1,-3.0067357E-1,-2.4219361E-1,-1.6603024E-1,-8.167998E-2,4.5071136E-2,-2.4163078E-1,-1.0777266E-1,-1.1229296E-2,-1.5942469E-1,1.9815712E-1,-5.0176284E-3,1.9915524E-1,9.5651895E-1,2.4402693E-1,-2.631855E-3,7.7212584E-1,4.8625182E-2,2.6818135E-1,5.435427E-1,1.9775486E-2,-1.13029E-1,9.438661E-2,1.0785964E0,7.5229996E-1,1.0397698E-1],"split_indices":[10,9,9,10,9,0,2,1,1,1,2,10,10,9,1,2,0,2,0,10,10,11,1,2,10,1,10,2,0,0,7,0,0,0,0,0,0,0,0,0,0,0,0,0,0,0,0,0,0,0,0,0,0,0,0,0,0],"split_type":[0,0,0,0,0,0,0,0,0,0,0,0,0,0,0,0,0,0,0,0,0,0,0,0,0,0,0,0,0,0,0,0,0,0,0,0,0,0,0,0,0,0,0,0,0,0,0,0,0,0,0,0,0,0,0,0,0],"sum_hessian":[7.85E2,5.6E2,2.25E2,3.33E2,2.27E2,1.54E2,7.1E1,2.33E2,1E2,1.48E2,7.9E1,1.01E2,5.3E1,7E0,6.4E1,1.81E2,5.2E1,7.6E1,2.4E1,1.13E2,3.5E1,3E1,4.9E1,5E0,9.6E1,1.4E1,3.9E1,4E0,3E0,5.2E1,1.2E1,1.03E2,7.8E1,5.2E1,2.4E1,7E1,4.3E1,2.3E1,1.2E1,2.6E1,4E0,3.6E1,1.3E1,3E0,2E0,8.7E1,9E0,1.3E1,1E0,2.5E1,1.4E1,1E0,3E0,2E0,5E1,7E0,5E0],"tree_param":{"num_deleted":"0","num_feature":"14","num_nodes":"57","size_leaf_vector":"1"}},{"base_weights":[1.8625967E-1,-3.8441293E0,9.681956E0,-6.173339E0,-3.3284178E-1,5.8866477E0,1.8435509E1,-6.9076266E0,-4.55647E0,4.5485184E-1,-3.3222666E0,4.428101E0,8.775759E0,2.033531E1,7.5585303E0,-3.6045763E-1,-2.8227803E-1,-4.111902E0,-5.904079E0,-1.1187906E0,1.4897587E0,-4.5450335E0,-2.206868E0,5.3317933E0,5.2990055E-1,1.4556238E1,6.958514E0,1.6497406E1,2.6494495E1,-2.4019165E0,1.1145558E1,-1.382299E-1,-2.1613109E-1,-3.0050763E-1,-8.6609796E-2,4.187038E-2,-9.060201E-2,1.2652169E-1,8.977948E-3,-2.5547165E-1,-1.343158E-1,1.04127936E-1,-1.2308737E-1,2.9318848E-1,-5.3760954E-3,1.0033371E-1,-9.130905E-2,2.5939924E-1,9.295934E-1,2.828993E-1,7.855467E-1,8.9928335E-1,1.3900541E-1,1.5772158E0,8.128239E-1,-1.6503061E-1,7.3542595E-3,-8.5426144E-2,6.482942E-1],"categories":[],"categories_nodes":[],"categories_segments":[],"categories_sizes":[],"default_left":[0,0,0,0,0,0,0,0,0,0,0,0,0,0,0,0,0,0,0,0,0,0,0,0,0,0,0,0,0,0,0,0,0,0,0,0,0,0,0,0,0,0,0,0,0,0,0,0,0,0,0,0,0,0,0,0,0,0,0],"id":21,"left_children":[1,3,5,7,9,11,13,15,17,19,21,23,25,27,29,-1,-1,31,33,35,37,39,41,43,45,47,49,51,53,55,57,-1,-1,-1,-1,-1,-1,-1,-1,-1,-1,-1,-1,-1,-1,-1,-1,-1,-1,-1,-1,-1,-1,-1,-1,-1,-1,-1,-1],"loss_changes":[2.9927143E4,4.487955E3,7.6323047E3,3.6031738E2,5.195564E2,6.522197E2,1.2927812E3,4.492285E1,3.9228027E1,2.8666705E2,5.2707825E1,3.8820264E2,4.6595557E2,9.575703E2,4.555114E2,0E0,0E0,1.161377E1,2.098999E-1,9.644677E1,1.440758E2,8.3046875E0,3.3552193E1,2.6105298E2,8.021134E1,3.572273E2,4.0056714E2,7.4617773E2,5.729043E2,9.648577E0,2.3274011E2,0E0,0E0,0E0,0E0,0E0,0E0,0E0,0E0,0E0,0E0,0E0,0E0,0E0,0E0,0E0,0E0,0E0,0E0,0E0,0E0,0E0,0E0,0E0,0E0,0E0,0E0,0E0,0E0],"parents":[2147483647,0,0,1,1,2,2,3,3,4,4,5,5,6,6,7,7,8,8,9,9,10,10,11,11,12,12,13,13,14,14,17,17,18,18,19,19,20,20,21,21,22,22,23,23,24,24,25,25,26,26,27,27,28,28,29,29,30,30],"right_children":[2,4,6,8,10,12,14,16,18,20,22,24,26,28,30,-1,-1,32,34,36,38,40,42,44,46,48,50,52,54,56,58,-1,-1,-1,-1,-1,-1,-1,-1,-1,-1,-1,-1,-1,-1,-1,-1,-1,-1,-1,-1,-1,-1,-1,-1,-1,-1,-1,-1],"split_conditions":[4.4857143E1,2.2428572E1,6E1,1.3285714E1,2.760997E0,2.9818316E1,1.9196161E0,1.1E1,1.9196161E0,2.7E1,2.6428572E1,1.2699288E-1,5.2714287E1,3.0795366E1,1.5340917E1,-3.6045763E-1,-2.8227803E-1,1.2E1,1.9E1,2.1E1,2.94502E1,3.1483898E1,2.2367168E1,6.1285713E1,5.7E1,3.6E1,1.05E2,6.1E1,5.5714287E1,2.44947E1,4.3E1,-1.382299E-1,-2.1613109E-1,-3.0050763E-1,-8.6609796E-2,4.187038E-2,-9.060201E-2,1.2652169E-1,8.977948E-3,-2.5547165E-1,-1.343158E-1,1.04127936E-1,-1.2308737E-1,2.9318848E-1,-5.3760954E-3,1.0033371E-1,-9.130905E-2,2.5939924E-1,9.295934E-1,2.828993E-1,7.855467E-1,8.9928335E-1,1.3900541E-1,1.5772158E0,8.128239E-1,-1.6503061E-1,7.3542595E-3,-8.5426144E-2,6.482942E-1],"split_indices":[10,10,9,10,1,0,1,9,1,10,10,1,10,0,1,0,0,7,6,6,0,0,0,10,6,6,7,8,10,0,6,0,0,0,0,0,0,0,0,0,0,0,0,0,0,0,0,0,0,0,0,0,0,0,0,0,0,0,0],"split_type":[0,0,0,0,0,0,0,0,0,0,0,0,0,0,0,0,0,0,0,0,0,0,0,0,0,0,0,0,0,0,0,0,0,0,0,0,0,0,0,0,0,0,0,0,0,0,0,0,0,0,0,0,0,0,0,0,0,0,0],"sum_hessian":[7.8E2,5.48E2,2.32E2,3.29E2,2.19E2,1.63E2,6.9E1,2.24E2,1.05E2,1.74E2,4.5E1,1.1E2,5.3E1,5.8E1,1.1E1,1.77E2,4.7E1,8.2E1,2.3E1,6.9E1,1.05E2,2E1,2.5E1,8.9E1,2.1E1,1.1E1,4.2E1,3.8E1,2E1,3E0,8E0,1.3E1,6.9E1,2.2E1,1E0,1.8E1,5.1E1,5.8E1,4.7E1,1.4E1,6E0,1E0,2.4E1,8.1E1,8E0,1.3E1,8E0,4E0,7E0,3.8E1,4E0,3.4E1,4E0,1.2E1,8E0,2E0,1E0,1E0,7E0],"tree_param":{"num_deleted":"0","num_feature":"14","num_nodes":"59","size_leaf_vector":"1"}},{"base_weights":[1.3877422E-1,-3.6714356E0,9.168528E0,-5.9791207E0,-4.3461502E-1,5.8106256E0,1.7629894E1,-6.5888815E0,-4.6660304E0,-2.2685401E0,9.47752E-1,7.038099E0,1.5553684E0,1.9774216E1,7.6964626E0,-6.172972E0,-3.8319382E-1,-4.974735E0,-2.811719E0,-1.6378698E0,-4.118584E0,-3.171152E-1,2.655339E0,5.661307E0,1.1301017E1,1.9353938E0,-1.7616965E-1,2.3211E1,1.3114814E1,8.877055E0,-1.6176605E-1,-3.3643916E-1,-2.6481274E-1,-2.2508197E-1,-3.1672606E-1,-2.6418438E-2,-1.7368223E-1,-1.327769E-1,-5.78125E-2,-2.2775295E-1,-1.3381259E-1,1.4002911E-2,-1.2683478E-1,1.8984255E-1,-3.2090794E-2,2.955934E-1,-2.1218823E-1,1.0750774E0,2.9527393E-1,-9.231803E-2,1.10607736E-1,1.814314E-1,1.2178663E0,-1.4692822E-1,7.057195E-1,4.9934673E-1,-8.329048E-2],"categories":[],"categories_nodes":[],"categories_segments":[],"categories_sizes":[],"default_left":[0,0,0,0,0,0,0,0,0,0,0,0,0,0,0,0,0,0,0,0,0,0,0,0,0,0,0,0,0,0,0,0,0,0,0,0,0,0,0,0,0,0,0,0,0,0,0,0,0,0,0,0,0,0,0,0,0],"id":22,"left_children":[1,3,5,7,9,11,13,15,17,19,21,23,25,27,29,31,-1,33,35,37,39,41,43,45,47,49,-1,51,53,55,-1,-1,-1,-1,-1,-1,-1,-1,-1,-1,-1,-1,-1,-1,-1,-1,-1,-1,-1,-1,-1,-1,-1,-1,-1,-1,-1],"loss_changes":[2.631928E4,4.0160264E3,6.3471855E3,2.2066602E2,5.725605E2,8.4566064E2,1.2110391E3,4.7475586E1,4.49729E1,1.06430725E2,2.7946536E2,6.814038E2,8.0161385E1,8.857129E2,1.9649792E2,4.135498E1,0E0,2.7452148E1,2.3858566E1,3.319908E1,2.9185486E0,1.00120995E2,2.0944266E2,2.6830762E2,1.5241436E3,4.1763535E1,0E0,6.523926E2,3.6240747E2,1.57052E2,0E0,0E0,0E0,0E0,0E0,0E0,0E0,0E0,0E0,0E0,0E0,0E0,0E0,0E0,0E0,0E0,0E0,0E0,0E0,0E0,0E0,0E0,0E0,0E0,0E0,0E0,0E0],"parents":[2147483647,0,0,1,1,2,2,3,3,4,4,5,5,6,6,7,7,8,8,9,9,10,10,11,11,12,12,13,13,14,14,15,15,17,17,18,18,19,19,20,20,21,21,22,22,23,23,24,24,25,25,27,27,28,28,29,29],"right_children":[2,4,6,8,10,12,14,16,18,20,22,24,26,28,30,32,-1,34,36,38,40,42,44,46,48,50,-1,52,54,56,-1,-1,-1,-1,-1,-1,-1,-1,-1,-1,-1,-1,-1,-1,-1,-1,-1,-1,-1,-1,-1,-1,-1,-1,-1,-1,-1],"split_conditions":[4.4857143E1,1.8E1,6.6E1,1.1142858E1,2.7E1,1.2699288E-1,1.2699288E-1,1.2699288E-1,2E1,1.2699288E-1,4E0,4E0,1.04E2,5.6142857E1,6E0,4E0,-3.8319382E-1,1.2699288E-1,2.1E1,2.1E1,2.6E1,1.2699288E-1,6E0,5.9E1,6E0,3E1,-1.7616965E-1,4E0,5.6857143E1,1.09E2,-1.6176605E-1,-3.3643916E-1,-2.6481274E-1,-2.2508197E-1,-3.1672606E-1,-2.6418438E-2,-1.7368223E-1,-1.327769E-1,-5.78125E-2,-2.2775295E-1,-1.3381259E-1,1.4002911E-2,-1.2683478E-1,1.8984255E-1,-3.2090794E-2,2.955934E-1,-2.1218823E-1,1.0750774E0,2.9527393E-1,-9.231803E-2,1.10607736E-1,1.814314E-1,1.2178663E0,-1.4692822E-1,7.057195E-1,4.9934673E-1,-8.329048E-2],"split_indices":[10,9,9,10,10,1,1,1,6,1,2,2,7,10,2,2,0,1,6,9,8,1,2,9,2,7,0,2,10,9,0,0,0,0,0,0,0,0,0,0,0,0,0,0,0,0,0,0,0,0,0,0,0,0,0,0,0],"split_type":[0,0,0,0,0,0,0,0,0,0,0,0,0,0,0,0,0,0,0,0,0,0,0,0,0,0,0,0,0,0,0,0,0,0,0,0,0,0,0,0,0,0,0,0,0,0,0,0,0,0,0,0,0,0,0,0,0],"sum_hessian":[7.63E2,5.37E2,2.26E2,3.13E2,2.24E2,1.63E2,6.3E1,2.11E2,1.02E2,9.6E1,1.28E2,1.26E2,3.7E1,5.1E1,1.2E1,1.57E2,5.4E1,8.6E1,1.6E1,7.3E1,2.3E1,7.4E1,5.4E1,9.7E1,2.9E1,3.5E1,2E0,3.2E1,1.9E1,1.1E1,1E0,9.2E1,6.5E1,6.7E1,1.9E1,4E0,1.2E1,2.2E1,5.1E1,1.6E1,7E0,5.9E1,1.5E1,4E1,1.4E1,9.5E1,2E0,9E0,2E1,2E0,3.3E1,2E0,3E1,1E0,1.8E1,1E1,1E0],"tree_param":{"num_deleted":"0","num_feature":"14","num_nodes":"57","size_leaf_vector":"1"}},{"base_weights":[3.9018267E-1,-3.3683093E0,9.100702E0,-5.5574546E0,-4.4585872E-2,5.5757732E0,1.5907654E1,-6.153425E0,-4.235597E0,-1.094601E0,1.5548074E0,3.862537E0,8.657931E0,2.9310915E0,1.7694056E1,-3.3242926E-1,-5.453134E0,-5.530767E0,-3.7944548E0,-3.091243E0,-4.378972E-1,2.807144E0,-1.229026E0,4.9451146E0,1.8521359E0,1.4958788E1,6.785304E0,-1.6157341E-1,6.674604E0,8.410261E0,1.9826738E1,-2.432237E-1,-3.3322623E-1,-2.9280472E-1,-1.5291189E-1,-2.2263062E-1,-1.48781E-1,-1.6646455E-1,1.9950073E-2,-7.718131E-2,2.675322E-2,-2.9658573E-3,1.8311228E-1,-1.12057544E-1,5.5603394E-3,1.11939326E-1,3.3033592E-1,-1.4963913E-2,1.9016862E-1,2.2344983E-1,8.304923E-1,2.8183895E-1,7.423076E-1,-1.07284E-1,9.3146324E-2,4.1496015E-1,4.4052126E-3,-1.577219E-1,4.730814E-1,7.537268E-1,1.2456518E0],"categories":[],"categories_nodes":[],"categories_segments":[],"categories_sizes":[],"default_left":[0,0,0,0,0,0,0,0,0,0,0,0,0,0,0,0,0,0,0,0,0,0,0,0,0,0,0,0,0,0,0,0,0,0,0,0,0,0,0,0,0,0,0,0,0,0,0,0,0,0,0,0,0,0,0,0,0,0,0,0,0],"id":23,"left_children":[1,3,5,7,9,11,13,15,17,19,21,23,25,27,29,-1,31,33,35,37,39,41,43,45,47,49,51,53,55,57,59,-1,-1,-1,-1,-1,-1,-1,-1,-1,-1,-1,-1,-1,-1,-1,-1,-1,-1,-1,-1,-1,-1,-1,-1,-1,-1,-1,-1,-1,-1],"loss_changes":[2.595948E4,4.0307192E3,5.645873E3,2.3705762E2,3.7284644E2,8.0615234E2,1.8258262E3,4.2805664E1,4.014868E1,1.7434747E2,3.1024414E2,2.1718811E2,5.592529E2,1.2843015E2,1.2390078E3,0E0,3.8890137E1,2.2001343E0,3.1481323E1,2.8746307E1,1.1056078E2,1.4973526E2,3.823075E1,2.8649756E2,1.6065915E2,1.336018E2,3.329292E2,3.2115005E1,5.2770935E1,2.122273E2,1.0022012E3,0E0,0E0,0E0,0E0,0E0,0E0,0E0,0E0,0E0,0E0,0E0,0E0,0E0,0E0,0E0,0E0,0E0,0E0,0E0,0E0,0E0,0E0,0E0,0E0,0E0,0E0,0E0,0E0,0E0,0E0],"parents":[2147483647,0,0,1,1,2,2,3,3,4,4,5,5,6,6,7,7,8,8,9,9,10,10,11,11,12,12,13,13,14,14,16,16,17,17,18,18,19,19,20,20,21,21,22,22,23,23,24,24,25,25,26,26,27,27,28,28,29,29,30,30],"right_children":[2,4,6,8,10,12,14,16,18,20,22,24,26,28,30,-1,32,34,36,38,40,42,44,46,48,50,52,54,56,58,60,-1,-1,-1,-1,-1,-1,-1,-1,-1,-1,-1,-1,-1,-1,-1,-1,-1,-1,-1,-1,-1,-1,-1,-1,-1,-1,-1,-1,-1,-1],"split_conditions":[4.4857143E1,2.2428572E1,6E1,1.1285714E1,4E0,2.9818316E1,4E0,4E0,1E0,1E0,6E0,5.1E1,5.2714287E1,3.003535E1,1E0,-3.3242926E-1,6E0,1.9E1,4E0,4.3E1,2.7285715E1,1E0,1.7E1,5.3285713E1,7.1E1,3.6E1,1.05E2,6.5E1,3.1483898E1,2.44947E1,2.8967487E1,-2.432237E-1,-3.3322623E-1,-2.9280472E-1,-1.5291189E-1,-2.2263062E-1,-1.48781E-1,-1.6646455E-1,1.9950073E-2,-7.718131E-2,2.675322E-2,-2.9658573E-3,1.8311228E-1,-1.12057544E-1,5.5603394E-3,1.11939326E-1,3.3033592E-1,-1.4963913E-2,1.9016862E-1,2.2344983E-1,8.304923E-1,2.8183895E-1,7.423076E-1,-1.07284E-1,9.3146324E-2,4.1496015E-1,4.4052126E-3,-1.577219E-1,4.730814E-1,7.537268E-1,1.2456518E0],"split_indices":[10,10,9,10,2,0,2,2,13,13,2,6,10,0,13,0,2,9,2,7,10,13,3,10,7,6,7,9,0,0,0,0,0,0,0,0,0,0,0,0,0,0,0,0,0,0,0,0,0,0,0,0,0,0,0,0,0,0,0,0,0],"split_type":[0,0,0,0,0,0,0,0,0,0,0,0,0,0,0,0,0,0,0,0,0,0,0,0,0,0,0,0,0,0,0,0,0,0,0,0,0,0,0,0,0,0,0,0,0,0,0,0,0,0,0,0,0,0,0,0,0,0,0,0,0],"sum_hessian":[7.91E2,5.53E2,2.38E2,3.33E2,2.2E2,1.58E2,8E1,2.27E2,1.06E2,1.33E2,8.7E1,1.03E2,5.5E1,1E1,7E1,1.28E2,9.9E1,2.4E1,8.2E1,3.2E1,1.01E2,6E1,2.7E1,6.6E1,3.7E1,1.1E1,4.4E1,6E0,4E0,1.4E1,5.6E1,7E1,2.9E1,2E1,4E0,4.3E1,3.9E1,3E1,2E0,4.7E1,5.4E1,1.4E1,4.6E1,1.5E1,1.2E1,2.6E1,4E1,1.8E1,1.9E1,2E0,9E0,4E1,4E0,3E0,3E0,3E0,1E0,1E0,1.3E1,3.1E1,2.5E1],"tree_param":{"num_deleted":"0","num_feature":"14","num_nodes":"61","size_leaf_vector":"1"}},{"base_weights":[3.704552E-1,-2.9001374E0,9.802363E0,-5.3578367E0,1.9540776E-1,5.693076E0,1.6666792E1,-6.225053E0,-4.4843526E0,-5.7415694E-1,3.362106E0,4.3906384E0,9.38178E0,4.912E0,1.7821592E1,-6.2452683E0,-7.628112E-2,-3.9683185E0,-3.011662E-1,-8.557314E-1,4.0492754E0,-2.3388702E-1,4.503838E0,2.7712274E0,5.4216275E0,7.02992E0,2.0675838E1,5.0610226E-1,6.2962823E0,1.4878529E1,2.3559801E1,-3.132674E-1,-7.7820085E-2,-2.1756688E-1,-1.1712708E-1,-9.98447E-3,-1.2825161E-1,3.216698E-1,-2.8758584E-2,-5.913002E-2,1.6613455E-1,2.2186337E-2,2.874286E-1,1.7421232E-1,-2.1362592E-2,3.648308E-1,1.0535141E-1,1.2706539E-1,5.1187736E-1,3.400555E-2,1.2752371E0,3.3662606E-2,4.295063E-3,9.7095996E-2,3.993992E-1,8.408594E-1,3.9113352E-1,1.3261851E0,4.3852887E-1],"categories":[],"categories_nodes":[],"categories_segments":[],"categories_sizes":[],"default_left":[0,0,0,0,0,0,0,0,0,0,0,0,0,0,0,0,0,0,0,0,0,0,0,0,0,0,0,0,0,0,0,0,0,0,0,0,0,0,0,0,0,0,0,0,0,0,0,0,0,0,0,0,0,0,0,0,0,0,0],"id":24,"left_children":[1,3,5,7,9,11,13,15,17,19,21,23,25,27,29,31,-1,33,-1,35,37,39,41,43,45,47,49,51,53,55,57,-1,-1,-1,-1,-1,-1,-1,-1,-1,-1,-1,-1,-1,-1,-1,-1,-1,-1,-1,-1,-1,-1,-1,-1,-1,-1,-1,-1],"loss_changes":[2.3843027E4,4.3679927E3,5.51849E3,2.1448535E2,6.2336005E2,5.6415063E2,9.169668E2,5.4819336E0,1.05545654E2,2.716443E2,2.0633636E2,1.4358704E2,7.04636E2,4.560547E1,7.809551E2,5.0302734E0,0E0,6.7644775E1,0E0,2.1815558E2,1.3600314E2,4.7793667E1,1.8949194E2,9.043115E1,3.3887134E2,3.7712146E2,4.6544092E2,1.5287638E-1,2.8685684E1,5.1135352E2,6.8788184E2,0E0,0E0,0E0,0E0,0E0,0E0,0E0,0E0,0E0,0E0,0E0,0E0,0E0,0E0,0E0,0E0,0E0,0E0,0E0,0E0,0E0,0E0,0E0,0E0,0E0,0E0,0E0,0E0],"parents":[2147483647,0,0,1,1,2,2,3,3,4,4,5,5,6,6,7,7,8,8,9,9,10,10,11,11,12,12,13,13,14,14,15,15,17,17,19,19,20,20,21,21,22,22,23,23,24,24,25,25,26,26,27,27,28,28,29,29,30,30],"right_children":[2,4,6,8,10,12,14,16,18,20,22,24,26,28,30,32,-1,34,-1,36,38,40,42,44,46,48,50,52,54,56,58,-1,-1,-1,-1,-1,-1,-1,-1,-1,-1,-1,-1,-1,-1,-1,-1,-1,-1,-1,-1,-1,-1,-1,-1,-1,-1,-1,-1],"split_conditions":[3.9E1,1.8E1,6E1,1E1,3.6E1,3.0999744E1,4E0,1.6E1,1.2699288E-1,4.5E1,3E1,4.6E1,5.6E1,4.4E1,3.1206264E1,3.4999607E1,-7.628112E-2,1.7E1,-3.011662E-1,1.2699288E-1,3.1E1,3.0405281E1,3E0,5.2E1,7.7E1,4.6E1,3.1856512E1,2.5655062E1,2.8341568E1,8.2E1,1.2699288E-1,-3.132674E-1,-7.7820085E-2,-2.1756688E-1,-1.1712708E-1,-9.98447E-3,-1.2825161E-1,3.216698E-1,-2.8758584E-2,-5.913002E-2,1.6613455E-1,2.2186337E-2,2.874286E-1,1.7421232E-1,-2.1362592E-2,3.648308E-1,1.0535141E-1,1.2706539E-1,5.1187736E-1,3.400555E-2,1.2752371E0,3.3662606E-2,4.295063E-3,9.7095996E-2,3.993992E-1,8.408594E-1,3.9113352E-1,1.3261851E0,4.3852887E-1],"split_indices":[9,9,9,9,6,0,2,7,1,8,9,7,9,8,0,0,0,6,0,1,6,0,4,6,7,8,0,0,0,6,1,0,0,0,0,0,0,0,0,0,0,0,0,0,0,0,0,0,0,0,0,0,0,0,0,0,0,0,0],"split_type":[0,0,0,0,0,0,0,0,0,0,0,0,0,0,0,0,0,0,0,0,0,0,0,0,0,0,0,0,0,0,0,0,0,0,0,0,0,0,0,0,0,0,0,0,0,0,0,0,0,0,0,0,0,0,0,0,0,0,0],"sum_hessian":[7.71E2,5.73E2,1.98E2,3.19E2,2.54E2,1.25E2,7.3E1,1.57E2,1.62E2,2.05E2,4.9E1,9.4E1,3.1E1,7E0,6.6E1,1.56E2,1E0,1.24E2,3.8E1,1.94E2,1.1E1,1.2E1,3.7E1,3.8E1,5.6E1,2.7E1,4E0,2E0,5E0,4.6E1,2E1,1.55E2,1E0,9.9E1,2.5E1,1.41E2,5.3E1,7E0,4E0,1E1,2E0,9E0,2.8E1,3.1E1,7E0,3.5E1,2.1E1,1.2E1,1.5E1,1E0,3E0,1E0,1E0,2E0,3E0,3.5E1,1.1E1,1.6E1,4E0],"tree_param":{"num_deleted":"0","num_feature":"14","num_nodes":"59","size_leaf_vector":"1"}},{"base_weights":[3.3658832E-2,-3.1135745E0,7.978525E0,-5.018189E0,-1.0036469E-1,4.835144E0,1.5164932E1,-5.5867815E0,-3.802071E0,-1.0893619E0,1.2982223E0,2.0720575E0,5.6629305E0,6.7790794E0,1.7614828E1,-3.3021104E-1,-5.2615843E0,-4.861795E0,-3.4173086E0,-3.0094762E0,-5.0824517E-1,2.7063894E0,-1.7022027E0,5.0242085E0,3.3597046E-1,5.258013E0,7.002708E-1,-5.219433E-1,9.065698E0,1.8402E1,3.5682573E0,-2.920067E-1,-2.2780287E-1,-2.4678035E-1,-7.172165E-2,-1.9334126E-1,-1.4093302E-1,-1.7106955E-1,-1.3281211E-2,-5.3822905E-2,5.861164E-2,8.967986E-2,2.2896066E-1,-1.0112246E-1,9.2708334E-2,1.5694885E-1,7.3830557E-1,2.6872787E-1,-4.8955283E-3,2.8283152E-1,-4.4011544E-2,1.155199E-1,-1.5901518E-1,6.920513E-1,1.4976351E-1,2.1624298E-1,9.613029E-1,4.926319E-2,2.8293094E-1],"categories":[],"categories_nodes":[],"categories_segments":[],"categories_sizes":[],"default_left":[0,0,0,0,0,0,0,0,0,0,0,0,0,0,0,0,0,0,0,0,0,0,0,0,0,0,0,0,0,0,0,0,0,0,0,0,0,0,0,0,0,0,0,0,0,0,0,0,0,0,0,0,0,0,0,0,0,0,0],"id":25,"left_children":[1,3,5,7,9,11,13,15,17,19,21,23,25,27,29,-1,31,33,35,37,39,41,43,45,47,49,-1,51,53,55,57,-1,-1,-1,-1,-1,-1,-1,-1,-1,-1,-1,-1,-1,-1,-1,-1,-1,-1,-1,-1,-1,-1,-1,-1,-1,-1,-1,-1],"loss_changes":[1.9828287E4,3.2592505E3,5.00934E3,2.193916E2,3.0710114E2,3.4965063E2,1.2776094E3,4.300537E1,2.9868286E1,1.4352585E2,3.9331604E2,1.930693E2,3.350996E2,2.885409E2,5.093047E2,0E0,4.8089355E1,3.6010742E-3,1.2512695E1,3.299817E1,9.770364E1,9.94852E1,3.7917427E1,2.1076993E2,5.517991E1,2.9125635E2,0E0,4.4994686E1,3.3539E2,4.8526953E2,1.6022331E1,0E0,0E0,0E0,0E0,0E0,0E0,0E0,0E0,0E0,0E0,0E0,0E0,0E0,0E0,0E0,0E0,0E0,0E0,0E0,0E0,0E0,0E0,0E0,0E0,0E0,0E0,0E0,0E0],"parents":[2147483647,0,0,1,1,2,2,3,3,4,4,5,5,6,6,7,7,8,8,9,9,10,10,11,11,12,12,13,13,14,14,16,16,17,17,18,18,19,19,20,20,21,21,22,22,23,23,24,24,25,25,27,27,28,28,29,29,30,30],"right_children":[2,4,6,8,10,12,14,16,18,20,22,24,26,28,30,-1,32,34,36,38,40,42,44,46,48,50,-1,52,54,56,58,-1,-1,-1,-1,-1,-1,-1,-1,-1,-1,-1,-1,-1,-1,-1,-1,-1,-1,-1,-1,-1,-1,-1,-1,-1,-1,-1,-1],"split_conditions":[4.642857E1,2.2428572E1,6E1,1.2571428E1,4E0,1E0,1E0,1E0,1E0,1E0,6E0,5.5E1,1.05E2,7.1E1,6.6E1,-3.3021104E-1,8.714286E0,2E1,4E0,3.2E1,3.1142857E1,3.4E1,4.5E1,4E0,4.8285713E1,6.0285713E1,7.002708E-1,3E0,4.6E1,3.3E1,4E0,-2.920067E-1,-2.2780287E-1,-2.4678035E-1,-7.172165E-2,-1.9334126E-1,-1.4093302E-1,-1.7106955E-1,-1.3281211E-2,-5.3822905E-2,5.861164E-2,8.967986E-2,2.2896066E-1,-1.0112246E-1,9.2708334E-2,1.5694885E-1,7.3830557E-1,2.6872787E-1,-4.8955283E-3,2.8283152E-1,-4.4011544E-2,1.155199E-1,-1.5901518E-1,6.920513E-1,1.4976351E-1,2.1624298E-1,9.613029E-1,4.926319E-2,2.8293094E-1],"split_indices":[10,10,9,10,2,13,13,13,13,13,2,7,7,9,8,0,10,7,2,6,10,6,6,2,10,10,0,4,7,6,2,0,0,0,0,0,0,0,0,0,0,0,0,0,0,0,0,0,0,0,0,0,0,0,0,0,0,0,0],"split_type":[0,0,0,0,0,0,0,0,0,0,0,0,0,0,0,0,0,0,0,0,0,0,0,0,0,0,0,0,0,0,0,0,0,0,0,0,0,0,0,0,0,0,0,0,0,0,0,0,0,0,0,0,0,0,0,0,0,0,0],"sum_hessian":[7.91E2,5.67E2,2.24E2,3.47E2,2.2E2,1.57E2,6.7E1,2.34E2,1.13E2,1.29E2,9.1E1,3.7E1,1.2E2,1.6E1,5.1E1,5.2E1,1.82E2,2.7E1,8.6E1,2.9E1,1E2,6.2E1,2.9E1,1.3E1,2.4E1,1.16E2,4E0,4E0,1.2E1,4.8E1,3E0,9.6E1,8.6E1,2.6E1,1E0,4.6E1,4E1,2.5E1,4E0,7.5E1,2.5E1,4.3E1,1.9E1,2.7E1,2E0,1.2E1,1E0,1E0,2.3E1,1.09E2,7E0,2E0,2E0,6E0,6E0,3E0,4.5E1,2E0,1E0],"tree_param":{"num_deleted":"0","num_feature":"14","num_nodes":"59","size_leaf_vector":"1"}},{"base_weights":[2.8485397E-1,-2.8965878E0,7.551575E0,-4.824673E0,-1.1499468E-1,4.621852E0,1.3997878E1,-5.339832E0,-3.8254273E0,-1.1060041E0,1.4189501E0,3.273147E0,8.36525E0,1.0147575E1,2.0419662E1,-5.0073857E0,-3.1446275E-1,-3.4252868E0,-4.874936E0,-2.2711315E0,-2.494466E-2,2.1942108E0,-1.2491208E0,1.0358794E1,2.809352E0,6.545537E0,2.0522015E1,5.1801143E0,1.363532E1,2.514311E1,1.0347833E1,-2.7203926E-1,-2.140622E-1,-1.7480497E-1,-1.8579578E-2,-6.6230826E-2,-2.4786846E-1,-2.606186E-2,-1.472271E-1,5.543248E-2,-6.647699E-2,8.549468E-3,1.525759E-1,-1.2169236E-1,2.3465283E-2,2.097168E-1,8.58998E-1,1.4502478E-2,1.7214556E-1,2.3644434E-1,5.0437695E-1,1.4301987E-1,1.2111161E0,-9.398602E-2,3.7518975E-1,9.7219604E-1,4.2133313E-1,1.4194009E0,7.23139E-1,7.506859E-1,1.3396023E-1],"categories":[],"categories_nodes":[],"categories_segments":[],"categories_sizes":[],"default_left":[0,0,0,0,0,0,0,0,0,0,0,0,0,0,0,0,0,0,0,0,0,0,0,0,0,0,0,0,0,0,0,0,0,0,0,0,0,0,0,0,0,0,0,0,0,0,0,0,0,0,0,0,0,0,0,0,0,0,0,0,0],"id":26,"left_children":[1,3,5,7,9,11,13,15,17,19,21,23,25,27,29,31,-1,33,35,37,39,41,43,45,47,49,51,53,55,57,59,-1,-1,-1,-1,-1,-1,-1,-1,-1,-1,-1,-1,-1,-1,-1,-1,-1,-1,-1,-1,-1,-1,-1,-1,-1,-1,-1,-1,-1,-1],"loss_changes":[1.7615166E4,2.841914E3,4.316828E3,1.406958E2,3.329629E2,7.8546606E2,1.5730488E3,3.2896484E1,2.9496582E1,1.6746642E2,1.8062758E2,3.6525342E2,7.947888E2,7.436538E2,9.767412E2,2.580127E1,0E0,1.6648682E1,1.6279907E0,7.388257E1,1.0499571E2,1.1569122E2,4.1859528E1,2.2228302E2,1.809599E2,1.9681116E2,2.5748145E2,3.586059E2,6.530381E2,1.7859473E2,3.175846E2,0E0,0E0,0E0,0E0,0E0,0E0,0E0,0E0,0E0,0E0,0E0,0E0,0E0,0E0,0E0,0E0,0E0,0E0,0E0,0E0,0E0,0E0,0E0,0E0,0E0,0E0,0E0,0E0,0E0,0E0],"parents":[2147483647,0,0,1,1,2,2,3,3,4,4,5,5,6,6,7,7,8,8,9,9,10,10,11,11,12,12,13,13,14,14,15,15,17,17,18,18,19,19,20,20,21,21,22,22,23,23,24,24,25,25,26,26,27,27,28,28,29,29,30,30],"right_children":[2,4,6,8,10,12,14,16,18,20,22,24,26,28,30,32,-1,34,36,38,40,42,44,46,48,50,52,54,56,58,60,-1,-1,-1,-1,-1,-1,-1,-1,-1,-1,-1,-1,-1,-1,-1,-1,-1,-1,-1,-1,-1,-1,-1,-1,-1,-1,-1,-1,-1,-1],"split_conditions":[4.4857143E1,2.2428572E1,6E1,1.2571428E1,4E0,3.056188E1,3.0795366E1,1.2699288E-1,1.2699288E-1,2.7571428E1,1.2699288E-1,4.9142857E1,5.6E1,7.3E1,7.2E1,4E0,-3.1446275E-1,3.1E1,1E1,2.1E1,2.973857E1,1E1,2.8E1,4E0,5.1857143E1,5.7285713E1,3.164626E1,2.4694794E1,4E0,5.4E1,8.8E1,-2.7203926E-1,-2.140622E-1,-1.7480497E-1,-1.8579578E-2,-6.6230826E-2,-2.4786846E-1,-2.606186E-2,-1.472271E-1,5.543248E-2,-6.647699E-2,8.549468E-3,1.525759E-1,-1.2169236E-1,2.3465283E-2,2.097168E-1,8.58998E-1,1.4502478E-2,1.7214556E-1,2.3644434E-1,5.0437695E-1,1.4301987E-1,1.2111161E0,-9.398602E-2,3.7518975E-1,9.7219604E-1,4.2133313E-1,1.4194009E0,7.23139E-1,7.506859E-1,1.3396023E-1],"split_indices":[10,10,9,10,2,0,0,1,1,10,1,10,9,9,6,2,0,3,6,6,0,3,10,2,10,10,0,0,4,8,9,0,0,0,0,0,0,0,0,0,0,0,0,0,0,0,0,0,0,0,0,0,0,0,0,0,0,0,0,0,0],"split_type":[0,0,0,0,0,0,0,0,0,0,0,0,0,0,0,0,0,0,0,0,0,0,0,0,0,0,0,0,0,0,0,0,0,0,0,0,0,0,0,0,0,0,0,0,0,0,0,0,0,0,0,0,0,0,0,0,0,0,0,0,0],"sum_hessian":[7.6E2,5.29E2,2.31E2,3.12E2,2.17E2,1.6E2,7.1E1,2.03E2,1.09E2,1.32E2,8.5E1,1.19E2,4.1E1,4.6E1,2.5E1,1.55E2,4.8E1,8.2E1,2.7E1,6.3E1,6.9E1,6.6E1,1.9E1,6E0,1.13E2,3.7E1,4E0,2E1,2.6E1,1.6E1,9E0,9.3E1,6.2E1,8E1,2E0,1E0,2.6E1,1.8E1,4.5E1,3.7E1,3.2E1,2E1,4.6E1,1.1E1,8E0,4E0,2E0,2.3E1,9E1,2.6E1,1.1E1,1E0,3E0,5E0,1.5E1,1.1E1,1.5E1,1.1E1,5E0,5E0,4E0],"tree_param":{"num_deleted":"0","num_feature":"14","num_nodes":"61","size_leaf_vector":"1"}},{"base_weights":[1.3179272E-1,-3.0000606E0,6.406994E0,-4.689746E0,-4.1861558E-1,3.6775188E0,9.046576E0,-5.2710366E0,-3.8713405E0,-9.355441E-1,5.0898266E0,2.6609719E0,5.67237E0,1.3141704E1,1.3608823E0,-2.8336772E-1,-4.523279E0,-3.4982266E0,-4.83743E0,-3.852731E-1,-2.7651932E0,-7.232544E-1,6.802368E0,3.4643211E0,-1.4796157E0,9.410488E-1,7.269354E0,3.3792038E0,1.6652153E1,-1.1420134E0,2.6895385E0,-2.3789136E-1,-6.5332256E-2,-1.899082E-1,-1.1242676E-1,-2.4545164E-1,-6.0073473E-2,-5.5820484E-2,4.356554E-2,-1.7365138E-1,-2.941083E-2,-8.505605E-2,2.4784852E-2,4.40147E-1,1.3338913E-1,4.559214E-2,2.1047948E-1,2.1278457E-1,-1.0966293E-1,4.9644904E-3,2.5500995E-1,5.365539E-1,2.4725333E-1,2.3306881E-1,-6.2210448E-2,6.7255896E-1,1.0210962E0,1.5469074E-1,-9.5652245E-2,6.455E-2,4.8518696E-1],"categories":[],"categories_nodes":[],"categories_segments":[],"categories_sizes":[],"default_left":[0,0,0,0,0,0,0,0,0,0,0,0,0,0,0,0,0,0,0,0,0,0,0,0,0,0,0,0,0,0,0,0,0,0,0,0,0,0,0,0,0,0,0,0,0,0,0,0,0,0,0,0,0,0,0,0,0,0,0,0,0],"id":27,"left_children":[1,3,5,7,9,11,13,15,17,19,21,23,25,27,29,-1,31,33,35,37,39,41,43,45,47,49,51,53,55,57,59,-1,-1,-1,-1,-1,-1,-1,-1,-1,-1,-1,-1,-1,-1,-1,-1,-1,-1,-1,-1,-1,-1,-1,-1,-1,-1,-1,-1,-1,-1],"loss_changes":[1.5407527E4,2.2792734E3,1.8471514E3,1.299248E2,5.9703577E2,2.4852783E2,4.136669E3,2.8300293E1,3.1739868E1,1.9123401E2,1.8411237E2,2.9784363E2,3.1806042E2,2.8910146E3,1.5936943E2,0E0,4.508606E1,2.9317383E1,3.2140503E0,1.3694545E2,6.575842E1,6.803099E0,9.23172E1,1.369303E2,7.072823E1,4.1505627E1,2.0440735E2,1.4807199E2,4.8551953E2,6.1439873E1,2.9157104E2,0E0,0E0,0E0,0E0,0E0,0E0,0E0,0E0,0E0,0E0,0E0,0E0,0E0,0E0,0E0,0E0,0E0,0E0,0E0,0E0,0E0,0E0,0E0,0E0,0E0,0E0,0E0,0E0,0E0,0E0],"parents":[2147483647,0,0,1,1,2,2,3,3,4,4,5,5,6,6,7,7,8,8,9,9,10,10,11,11,12,12,13,13,14,14,16,16,17,17,18,18,19,19,20,20,21,21,22,22,23,23,24,24,25,25,26,26,27,27,28,28,29,29,30,30],"right_children":[2,4,6,8,10,12,14,16,18,20,22,24,26,28,30,-1,32,34,36,38,40,42,44,46,48,50,52,54,56,58,60,-1,-1,-1,-1,-1,-1,-1,-1,-1,-1,-1,-1,-1,-1,-1,-1,-1,-1,-1,-1,-1,-1,-1,-1,-1,-1,-1,-1,-1,-1],"split_conditions":[3.3E1,1.8E1,4E0,1.1E1,4.3E1,3.003535E1,6E0,4E0,1.2699288E-1,2.760997E0,3.5E1,2.9134005E1,3.6E1,3.3E1,4.4E1,-2.8336772E-1,1.1E1,1.7E1,3.4621517E1,4E0,3E1,2.7E1,3.1E1,3.8E1,3.2E1,3.4564274E1,3.1122147E1,2.5E1,3.0131119E1,2E0,2.6E1,-2.3789136E-1,-6.5332256E-2,-1.899082E-1,-1.1242676E-1,-2.4545164E-1,-6.0073473E-2,-5.5820484E-2,4.356554E-2,-1.7365138E-1,-2.941083E-2,-8.505605E-2,2.4784852E-2,4.40147E-1,1.3338913E-1,4.559214E-2,2.1047948E-1,2.1278457E-1,-1.0966293E-1,4.9644904E-3,2.5500995E-1,5.365539E-1,2.4725333E-1,2.3306881E-1,-6.2210448E-2,6.7255896E-1,1.0210962E0,1.5469074E-1,-9.5652245E-2,6.455E-2,4.8518696E-1],"split_indices":[6,7,2,6,7,0,2,2,1,1,8,0,8,8,7,0,8,6,0,2,6,3,6,6,7,0,0,3,0,4,3,0,0,0,0,0,0,0,0,0,0,0,0,0,0,0,0,0,0,0,0,0,0,0,0,0,0,0,0,0,0],"split_type":[0,0,0,0,0,0,0,0,0,0,0,0,0,0,0,0,0,0,0,0,0,0,0,0,0,0,0,0,0,0,0,0,0,0,0,0,0,0,0,0,0,0,0,0,0,0,0,0,0,0,0,0,0,0,0,0,0,0,0,0,0],"sum_hessian":[7.82E2,5.22E2,2.6E2,3.15E2,2.07E2,1.29E2,1.31E2,1.81E2,1.34E2,1.9E2,1.7E1,8.7E1,4.2E1,8.5E1,4.6E1,1.14E2,6.7E1,1E2,3.4E1,1.47E2,4.3E1,4E0,1.3E1,7.3E1,1.4E1,1.1E1,3.1E1,2.3E1,6.2E1,1.6E1,3E1,6.2E1,5E0,7.9E1,2.1E1,3.3E1,1E0,9.3E1,5.4E1,3.2E1,1.1E1,2E0,2E0,8E0,5E0,1.7E1,5.6E1,1E0,1.3E1,1E1,1E0,1.1E1,2E1,1.8E1,5E0,3.6E1,2.6E1,2E0,1.4E1,2.6E1,4E0],"tree_param":{"num_deleted":"0","num_feature":"14","num_nodes":"61","size_leaf_vector":"1"}},{"base_weights":[-8.353531E-2,-2.9417963E0,7.088481E0,-4.531654E0,-6.284101E-1,4.1654487E0,1.1035358E1,-5.212921E0,-4.0002227E0,-8.0337934E-2,-2.3309555E0,3.1000905E0,6.1992946E0,1.4299526E1,2.947131E0,-2.8364804E-1,-4.48519E0,-3.664417E0,-2.4390154E-1,-6.12314E-1,1.8772049E0,-2.607822E0,3.6475626E-1,5.2825966E0,1.9553875E0,7.1653266E0,1.0772371E0,2.7295449E0,1.5203138E1,-4.3292937E-1,5.159695E0,-1.951112E-1,-2.7134308E-1,-1.8758428E-1,-5.4506894E-2,1.7378259E-3,-7.548704E-2,1.1866361E-1,-2.939186E-2,-2.0278382E-1,-1.1389033E-1,-7.283717E-2,1.3359185E-1,3.2229355E-1,7.116341E-2,-4.1428197E-2,1.4300106E-1,2.0621875E-1,4.3524024E-1,2.5583658E-1,-1.1539759E-2,2.9986992E-1,-1.2687206E-1,-9.240195E-2,7.9062337E-1,1.307271E-1,-1.4916003E-1,3.1303838E-1,-1.0327822E-1],"categories":[],"categories_nodes":[],"categories_segments":[],"categories_sizes":[],"default_left":[0,0,0,0,0,0,0,0,0,0,0,0,0,0,0,0,0,0,0,0,0,0,0,0,0,0,0,0,0,0,0,0,0,0,0,0,0,0,0,0,0,0,0,0,0,0,0,0,0,0,0,0,0,0,0,0,0,0,0],"id":28,"left_children":[1,3,5,7,9,11,13,15,17,19,21,23,25,27,29,-1,31,33,-1,35,37,39,41,43,45,47,49,51,53,55,57,-1,-1,-1,-1,-1,-1,-1,-1,-1,-1,-1,-1,-1,-1,-1,-1,-1,-1,-1,-1,-1,-1,-1,-1,-1,-1,-1,-1],"loss_changes":[1.5825962E4,2.0273833E3,2.4921416E3,9.753613E1,2.1069736E2,2.5812866E2,2.4131807E3,2.1425537E1,3.7542236E1,1.8026437E2,4.200055E1,2.0452612E2,2.0504834E2,6.485166E2,2.1163463E2,0E0,1.1211914E1,2.736145E1,0E0,7.902745E1,4.6639694E1,1.4652679E1,2.9106258E1,1.2102008E2,1.4844016E2,1.3263147E2,4.345123E1,1.1848848E2,6.62999E2,1.0106225E2,1.4817606E2,0E0,0E0,0E0,0E0,0E0,0E0,0E0,0E0,0E0,0E0,0E0,0E0,0E0,0E0,0E0,0E0,0E0,0E0,0E0,0E0,0E0,0E0,0E0,0E0,0E0,0E0,0E0,0E0],"parents":[2147483647,0,0,1,1,2,2,3,3,4,4,5,5,6,6,7,7,8,8,9,9,10,10,11,11,12,12,13,13,14,14,16,16,17,17,19,19,20,20,21,21,22,22,23,23,24,24,25,25,26,26,27,27,28,28,29,29,30,30],"right_children":[2,4,6,8,10,12,14,16,18,20,22,24,26,28,30,-1,32,34,-1,36,38,40,42,44,46,48,50,52,54,56,58,-1,-1,-1,-1,-1,-1,-1,-1,-1,-1,-1,-1,-1,-1,-1,-1,-1,-1,-1,-1,-1,-1,-1,-1,-1,-1,-1,-1],"split_conditions":[4.4857143E1,1.5571428E1,4E0,9.142858E0,1.2699288E-1,3.003535E1,6E0,4E0,1.2699288E-1,3.3E1,2.3884806E1,4.9E1,1.4559754E1,3.4E1,8E1,-2.8364804E-1,6E0,2E1,-2.4390154E-1,2.9375933E1,2.7E1,6E0,2.1E1,5.3E1,5.1857143E1,4.7E1,2.9E1,6E0,2.4430927E1,5.3857143E1,1.09E2,-1.951112E-1,-2.7134308E-1,-1.8758428E-1,-5.4506894E-2,1.7378259E-3,-7.548704E-2,1.1866361E-1,-2.939186E-2,-2.0278382E-1,-1.1389033E-1,-7.283717E-2,1.3359185E-1,3.2229355E-1,7.116341E-2,-4.1428197E-2,1.4300106E-1,2.0621875E-1,4.3524024E-1,2.5583658E-1,-1.1539759E-2,2.9986992E-1,-1.2687206E-1,-9.240195E-2,7.9062337E-1,1.307271E-1,-1.4916003E-1,3.1303838E-1,-1.0327822E-1],"split_indices":[10,10,2,10,1,0,2,2,1,6,1,8,1,8,6,0,2,6,0,0,3,3,8,6,10,8,6,4,0,10,6,0,0,0,0,0,0,0,0,0,0,0,0,0,0,0,0,0,0,0,0,0,0,0,0,0,0,0,0],"split_type":[0,0,0,0,0,0,0,0,0,0,0,0,0,0,0,0,0,0,0,0,0,0,0,0,0,0,0,0,0,0,0,0,0,0,0,0,0,0,0,0,0,0,0,0,0,0,0,0,0,0,0,0,0,0,0,0,0,0,0],"sum_hessian":[7.7E2,5.51E2,2.19E2,3.26E2,2.25E2,1.27E2,9.2E1,1.39E2,1.87E2,1.71E2,5.4E1,8.5E1,4.2E1,6.5E1,2.7E1,8.1E1,5.8E1,1.39E2,4.8E1,1.35E2,3.6E1,4.9E1,5E0,2.8E1,5.7E1,3.5E1,7E0,5E0,6E1,1.1E1,1.6E1,3.9E1,1.9E1,1.34E2,5E0,7.9E1,5.6E1,3E1,6E0,7E0,4.2E1,3E0,2E0,2.1E1,7E0,1.4E1,4.3E1,1.3E1,2.2E1,1E0,6E0,3E0,2E0,2E0,5.8E1,5E0,6E0,1.4E1,2E0],"tree_param":{"num_deleted":"0","num_feature":"14","num_nodes":"59","size_leaf_vector":"1"}},{"base_weights":[-1.5937416E-1,-2.7411544E0,6.083505E0,-4.214894E0,-4.8374027E-1,3.580708E0,9.232715E0,-4.6558433E0,-3.3069408E0,7.859386E-2,-2.214666E0,4.3963284E0,6.728756E-1,1.2667041E1,2.5908883E0,-4.3655725E0,-2.7869064E-1,-3.347273E0,2.8240634E-2,-9.439795E-1,8.6941844E-1,-5.340604E-1,-2.5930843E0,3.5030594E0,7.749589E0,3.6083267E0,-8.902367E-2,1.603867E1,7.9285116E0,3.190383E0,-2.433592E-1,-2.357835E-1,-1.8898469E-1,-1.5310259E-1,-2.1465103E-1,-1.5233473E-1,-2.9761571E-2,-7.455807E-3,1.20750725E-1,-6.6071086E-2,1.0030218E-1,-1.6528794E-1,-9.738642E-2,8.1797116E-2,2.2384849E-1,1.4381854E-1,4.816328E-1,2.5577196E-1,-9.818087E-2,-7.1231045E-2,4.036547E-2,-7.0616915E-3,9.002075E-1,2.7321026E-2,4.9152586E-1,2.2680412E-1,-1.791664E-2],"categories":[],"categories_nodes":[],"categories_segments":[],"categories_sizes":[],"default_left":[0,0,0,0,0,0,0,0,0,0,0,0,0,0,0,0,0,0,0,0,0,0,0,0,0,0,0,0,0,0,0,0,0,0,0,0,0,0,0,0,0,0,0,0,0,0,0,0,0,0,0,0,0,0,0,0,0],"id":29,"left_children":[1,3,5,7,9,11,13,15,17,19,21,23,25,27,29,31,-1,33,-1,35,37,39,41,43,45,47,49,51,53,55,-1,-1,-1,-1,-1,-1,-1,-1,-1,-1,-1,-1,-1,-1,-1,-1,-1,-1,-1,-1,-1,-1,-1,-1,-1,-1,-1],"loss_changes":[1.2395103E4,1.8077622E3,1.7403516E3,1.16322754E2,2.104195E2,2.9824622E2,2.2253906E3,3.4021973E1,1.9223999E1,1.334436E2,3.2321655E1,2.6939368E2,6.518025E1,9.113135E2,1.7201582E2,1.725122E1,0E0,1.6526733E1,0E0,5.0985405E1,1.4676472E2,2.4650608E1,1.3338226E1,1.381482E2,1.5582483E2,6.0430046E1,2.9881466E1,1.1791904E3,4.0181104E2,1.5921701E2,0E0,0E0,0E0,0E0,0E0,0E0,0E0,0E0,0E0,0E0,0E0,0E0,0E0,0E0,0E0,0E0,0E0,0E0,0E0,0E0,0E0,0E0,0E0,0E0,0E0,0E0,0E0],"parents":[2147483647,0,0,1,1,2,2,3,3,4,4,5,5,6,6,7,7,8,8,9,9,10,10,11,11,12,12,13,13,14,14,15,15,17,17,19,19,20,20,21,21,22,22,23,23,24,24,25,25,26,26,27,27,28,28,29,29],"right_children":[2,4,6,8,10,12,14,16,18,20,22,24,26,28,30,32,-1,34,-1,36,38,40,42,44,46,48,50,52,54,56,-1,-1,-1,-1,-1,-1,-1,-1,-1,-1,-1,-1,-1,-1,-1,-1,-1,-1,-1,-1,-1,-1,-1,-1,-1,-1,-1],"split_conditions":[4.4857143E1,1.6571428E1,4E0,1.2571428E1,1.2699288E-1,1.2699288E-1,6E0,1.2699288E-1,3.1E1,2.6857143E1,2.3E1,3.1054983E1,3.4E1,5.5285713E1,5.9E1,4E0,-2.7869064E-1,2.760997E0,2.8240634E-2,2.3712029E1,4E0,3.4E1,2.7E1,5.3857143E1,4.4E1,5.5E1,5.5285713E1,2.492864E1,4E1,9.370932E0,-2.433592E-1,-2.357835E-1,-1.8898469E-1,-1.5310259E-1,-2.1465103E-1,-1.5233473E-1,-2.9761571E-2,-7.455807E-3,1.20750725E-1,-6.6071086E-2,1.0030218E-1,-1.6528794E-1,-9.738642E-2,8.1797116E-2,2.2384849E-1,1.4381854E-1,4.816328E-1,2.5577196E-1,-9.818087E-2,-7.1231045E-2,4.036547E-2,-7.0616915E-3,9.002075E-1,2.7321026E-2,4.9152586E-1,2.2680412E-1,-1.791664E-2],"split_indices":[10,10,2,10,1,1,2,1,3,10,7,0,6,10,8,2,0,1,0,0,2,6,10,10,8,7,10,0,7,1,0,0,0,0,0,0,0,0,0,0,0,0,0,0,0,0,0,0,0,0,0,0,0,0,0,0,0],"split_type":[0,0,0,0,0,0,0,0,0,0,0,0,0,0,0,0,0,0,0,0,0,0,0,0,0,0,0,0,0,0,0,0,0,0,0,0,0,0,0,0,0,0,0,0,0,0,0,0,0,0,0,0,0,0,0,0,0],"sum_hessian":[7.67E2,5.43E2,2.24E2,3.28E2,2.15E2,1.26E2,9.8E1,2.18E2,1.1E2,1.63E2,5.2E1,9.8E1,2.8E1,6.4E1,3.4E1,1.7E2,4.8E1,1.09E2,1E0,7.1E1,9.2E1,1E1,4.2E1,7.9E1,1.9E1,5E0,2.3E1,3.6E1,2.8E1,3.2E1,2E0,1.02E2,6.8E1,8.7E1,2.2E1,9E0,6.2E1,5.6E1,3.6E1,8E0,2E0,1.8E1,2.4E1,2.8E1,5.1E1,6E0,1.3E1,4E0,1E0,9E0,1.4E1,4E0,3.2E1,6E0,2.2E1,2.3E1,9E0],"tree_param":{"num_deleted":"0","num_feature":"14","num_nodes":"57","size_leaf_vector":"1"}},{"base_weights":[-1.9866674E-1,-2.5789626E0,6.02849E0,