{"learner":{"attributes":{"best_iteration":"77","best_score":"6.286879017606504","scikit_learn":"{\"_estimator_type\": \"regressor\"}"},"feature_names":["temperature_c","precipitation_mm","day_of_week","day_of_month","month","is_weekend","sales_lag_1","sales_lag_2","sales_lag_3","sales_lag_7","sales_rolling_mean_7","weather_Rainy","weather_Storm","weather_Sunny"],"feature_types":["float","float","int","int","int","int","float","float","float","float","float","i","i","i"],"gradient_booster":{"model":{"gbtree_model_param":{"num_parallel_tree":"1","num_trees":"128"},"iteration_indptr":[0,1,2,3,4,5,6,7,8,9,10,11,12,13,14,15,16,17,18,19,20,21,22,23,24,25,26,27,28,29,30,31,32,33,34,35,36,37,38,39,40,41,42,43,44,45,46,47,48,49,50,51,52,53,54,55,56,57,58,59,60,61,62,63,64,65,66,67,68,69,70,71,72,73,74,75,76,77,78,79,80,81,82,83,84,85,86,87,88,89,90,91,92,93,94,95,96,97,98,99,100,101,102,103,104,105,106,107,108,109,110,111,112,113,114,115,116,117,118,119,120,121,122,123,124,125,126,127,128],"tree_info":[0,0,0,0,0,0,0,0,0,0,0,0,0,0,0,0,0,0,0,0,0,0,0,0,0,0,0,0,0,0,0,0,0,0,0,0,0,0,0,0,0,0,0,0,0,0,0,0,0,0,0,0,0,0,0,0,0,0,0,0,0,0,0,0,0,0,0,0,0,0,0,0,0,0,0,0,0,0,0,0,0,0,0,0,0,0,0,0,0,0,0,0,0,0,0,0,0,0,0,0,0,0,0,0,0,0,0,0,0,0,0,0,0,0,0,0,0,0,0,0,0,0,0,0,0,0,0,0],"trees":[{"base_weights":[-4.4212866E-1,-1.0614214E1,2.6562143E1,-1.6905655E1,-3.5360315E-1,1.854428E1,5.1476086E1,-1.895901E1,-1.2761669E1,1.7722411E0,-5.7807035E0,2.3139048E1,9.190628E0,-2.4604206E-1,5.2655273E1,-9.6503747E-1,-7.624008E-1,-1.1203988E1,-7.975556E-1,-1.061893E0,5.0362067E0,-7.3089585E0,-2.8050876E0,1.7275358E1,3.1176615E1,7.1015196E0,1.2700401E1,5.75447E1,3.156179E1,-5.783241E-1,-4.406309E-2,-2.7892644E-2,-5.690631E-1,3.751013E-1,1.8733809E-2,-4.0846848E-1,-2.1098557E-1,-1.8497992E-1,1.1843691E-1,9.557999E-1,5.36862E-1,1.3656024E0,2.2014809E0,3.171614E-1,8.789579E-1,2.3861058E-1,6.6580945E-1,4.0395793E-1,2.9289682E0,1.7171243E0,5.886106E-1],"categories":[],"categories_nodes":[],"categories_segments":[],"categories_sizes":[],"default_left":[0,0,0,0,0,0,0,0,0,0,0,0,0,0,0,0,0,0,0,0,0,0,0,0,0,0,0,0,0,0,0,0,0,0,0,0,0,0,0,0,0,0,0,0,0,0,0,0,0,0,0],"id":0,"left_children":[1,3,5,7,9,11,13,15,17,19,21,23,25,-1,27,-1,-1,29,-1,31,33,35,37,39,41,43,45,47,49,-1,-1,-1,-1,-1,-1,-1,-1,-1,-1,-1,-1,-1,-1,-1,-1,-1,-1,-1,-1,-1,-1],"loss_changes":[2.2085781E5,3.769358E4,4.2991844E4,2.8383438E3,2.5830337E3,7.007621E3,3.78375E3,1.00625E1,4.3236523E2,1.4946809E3,2.6599023E2,4.739949E3,3.2774902E2,0E0,3.5468125E3,0E0,0E0,3.116123E2,0E0,4.4617065E2,8.5927576E2,7.450635E1,1.15208374E2,6.010449E2,1.0823438E3,1.9040564E2,3.409375E1,1.6251094E3,2.5605762E2,0E0,0E0,0E0,0E0,0E0,0E0,0E0,0E0,0E0,0E0,0E0,0E0,0E0,0E0,0E0,0E0,0E0,0E0,0E0,0E0,0E0,0E0],"parents":[2147483647,0,0,1,1,2,2,3,3,4,4,5,5,6,6,7,7,8,8,9,9,10,10,11,11,12,12,14,14,17,17,19,19,20,20,21,21,22,22,23,23,24,24,25,25,26,26,27,27,28,28],"right_children":[2,4,6,8,10,12,14,16,18,20,22,24,26,-1,28,-1,-1,30,-1,32,34,36,38,40,42,44,46,48,50,-1,-1,-1,-1,-1,-1,-1,-1,-1,-1,-1,-1,-1,-1,-1,-1,-1,-1,-1,-1,-1,-1],"split_conditions":[4.157143E1,2.2E1,6.4E1,1.0857142E1,3.179701E-1,3.179701E-1,2.2E1,1.2E1,3.179701E-1,4E0,2.9142857E1,2.9578587E1,2.9358807E1,-2.4604206E-1,4.9719653E0,-9.6503747E-1,-7.624008E-1,2.3E1,-7.975556E-1,9E0,6E0,4E0,3.6E1,5.942857E1,5.2E1,3E1,2.409918E0,1E0,5.7E1,-5.783241E-1,-4.406309E-2,-2.7892644E-2,-5.690631E-1,3.751013E-1,1.8733809E-2,-4.0846848E-1,-2.1098557E-1,-1.8497992E-1,1.1843691E-1,9.557999E-1,5.36862E-1,1.3656024E0,2.2014809E0,3.171614E-1,8.789579E-1,2.3861058E-1,6.6580945E-1,4.0395793E-1,2.9289682E0,1.7171243E0,5.886106E-1],"split_indices":[10,10,9,10,1,1,6,9,1,2,10,0,0,0,1,0,0,6,0,4,2,2,9,10,9,3,1,2,10,0,0,0,0,0,0,0,0,0,0,0,0,0,0,0,0,0,0,0,0,0,0],"split_type":[0,0,0,0,0,0,0,0,0,0,0,0,0,0,0,0,0,0,0,0,0,0,0,0,0,0,0,0,0,0,0,0,0,0,0,0,0,0,0,0,0,0,0,0,0,0,0,0,0,0,0],"sum_hessian":[8.02E2,5.83E2,2.19E2,3.61E2,2.22E2,1.67E2,5.2E1,2.39E2,1.22E2,1.6E2,6.2E1,1.11E2,5.6E1,1E0,5.1E1,2.15E2,2.4E1,8.5E1,3.7E1,8.6E1,7.4E1,4E1,2.2E1,6.6E1,4.5E1,3.7E1,1.9E1,4E1,1.1E1,8.2E1,3E0,8.3E1,3E0,4.8E1,2.6E1,3E1,1E1,1.9E1,3E0,5E1,1.6E1,3.7E1,8E0,3.6E1,1E0,2E0,1.7E1,1E0,3.9E1,9E0,2E0],"tree_param":{"num_deleted":"0","num_feature":"14","num_nodes":"51","size_leaf_vector":"1"}},{"base_weights":[-8.964597E-2,-9.303819E0,2.5382656E1,-1.6247128E1,2.4937558E-1,1.6294468E1,4.5576477E1,-1.7984888E1,-1.2560719E1,-1.1864203E0,9.422211E0,4.1953003E-1,1.9130478E1,4.8768074E1,6.5963616E0,-9.0815574E-1,-6.177253E-1,-1.3284855E1,-7.817804E0,9.865347E-1,-6.545925E0,6.366298E0,1.4239532E1,4.8947215E0,-6.537983E-1,2.1790665E1,1.05328E1,5.507158E1,3.135055E1,-2.2514946E0,1.1583163E1,-6.076068E-1,-7.8899795E-1,-4.1888204E-1,2.848959E-2,-2.0549606E-1,1.2513418E-1,-4.0382767E-1,-6.567804E-2,2.4510276E-2,4.2695975E-1,2.6856607E-1,7.7380216E-1,4.1734123E-1,2.5759635E-2,8.710767E-1,1.3340621E0,2.3055057E-1,6.0339314E-1,-2.3989101E-1,2.8324416E0,5.2351445E-1,1.6653095E0,-3.9711E-3,-1.64891E-1,2.7293026E-1,7.489209E-1],"categories":[],"categories_nodes":[],"categories_segments":[],"categories_sizes":[],"default_left":[0,0,0,0,0,0,0,0,0,0,0,0,0,0,0,0,0,0,0,0,0,0,0,0,0,0,0,0,0,0,0,0,0,0,0,0,0,0,0,0,0,0,0,0,0,0,0,0,0,0,0,0,0,0,0,0,0],"id":1,"left_children":[1,3,5,7,9,11,13,15,17,19,21,23,25,27,29,-1,-1,31,33,35,37,39,41,43,-1,45,47,49,51,53,55,-1,-1,-1,-1,-1,-1,-1,-1,-1,-1,-1,-1,-1,-1,-1,-1,-1,-1,-1,-1,-1,-1,-1,-1,-1,-1],"loss_changes":[1.8377639E5,3.814425E4,3.7430594E4,1.9073281E3,3.2115662E3,6.520082E3,7.6404844E3,3.828125E-1,2.7393945E2,2.4637559E3,3.951504E2,1.4530865E3,2.5836719E3,4.751172E3,2.908145E2,0E0,0E0,7.390625E1,8.460022E1,1.1770608E3,4.7792822E2,2.7671313E2,4.846045E1,2.6783432E2,0E0,1.5223594E3,2.2615479E2,4.2378047E3,3.8629102E2,6.556163E0,1.4164429E0,0E0,0E0,0E0,0E0,0E0,0E0,0E0,0E0,0E0,0E0,0E0,0E0,0E0,0E0,0E0,0E0,0E0,0E0,0E0,0E0,0E0,0E0,0E0,0E0,0E0,0E0],"parents":[2147483647,0,0,1,1,2,2,3,3,4,4,5,5,6,6,7,7,8,8,9,9,10,10,11,11,12,12,13,13,14,14,17,17,18,18,19,19,20,20,21,21,22,22,23,23,25,25,26,26,27,27,28,28,29,29,30,30],"right_children":[2,4,6,8,10,12,14,16,18,20,22,24,26,28,30,-1,-1,32,34,36,38,40,42,44,-1,46,48,50,52,54,56,-1,-1,-1,-1,-1,-1,-1,-1,-1,-1,-1,-1,-1,-1,-1,-1,-1,-1,-1,-1,-1,-1,-1,-1,-1,-1],"split_conditions":[3.6E1,1.8E1,6.1E1,1.2E1,3.9E1,2.9E1,6.4E1,1.5E1,2E1,3.179701E-1,4.8E1,7E0,3.179701E-1,3.179701E-1,2.4242882E1,-9.0815574E-1,-6.177253E-1,3.179701E-1,3.4E1,2.2E1,3.1E1,1E0,1E1,3.179701E-1,-6.537983E-1,2.9578587E1,2.368869E1,1.7E1,6.8E1,2.368869E1,2.8854273E1,-6.076068E-1,-7.8899795E-1,-4.1888204E-1,2.848959E-2,-2.0549606E-1,1.2513418E-1,-4.0382767E-1,-6.567804E-2,2.4510276E-2,4.2695975E-1,2.6856607E-1,7.7380216E-1,4.1734123E-1,2.5759635E-2,8.710767E-1,1.3340621E0,2.3055057E-1,6.0339314E-1,-2.3989101E-1,2.8324416E0,5.2351445E-1,1.6653095E0,-3.9711E-3,-1.64891E-1,2.7293026E-1,7.489209E-1],"split_indices":[9,9,9,9,7,7,7,7,7,1,7,4,1,1,0,0,0,1,7,9,9,2,3,1,0,0,0,7,9,0,0,0,0,0,0,0,0,0,0,0,0,0,0,0,0,0,0,0,0,0,0,0,0,0,0,0,0],"split_type":[0,0,0,0,0,0,0,0,0,0,0,0,0,0,0,0,0,0,0,0,0,0,0,0,0,0,0,0,0,0,0,0,0,0,0,0,0,0,0,0,0,0,0,0,0,0,0,0,0,0,0,0,0,0,0,0,0],"sum_hessian":[7.81E2,5.74E2,2.07E2,3.32E2,2.42E2,1.44E2,6.3E1,2.23E2,1.09E2,2.1E2,3.2E1,2.2E1,1.22E2,5.8E1,5E0,2.14E2,9E0,9.3E1,1.6E1,1.5E2,6E1,2.1E1,1.1E1,1.7E1,5E0,9.2E1,3E1,4.1E1,1.7E1,2E0,3E0,6.8E1,2.5E1,1.5E1,1E0,3.4E1,1.16E2,4.6E1,1.4E1,6E0,1.5E1,2E0,9E0,9E0,8E0,5.1E1,4.1E1,7E0,2.3E1,1E0,4E1,2E0,1.5E1,1E0,1E0,2E0,1E0],"tree_param":{"num_deleted":"0","num_feature":"14","num_nodes":"57","size_leaf_vector":"1"}},{"base_weights":[-5.6272537E-1,-1.0085655E1,2.3079998E1,-1.5522572E1,-5.8142465E-1,1.6332088E1,4.5052677E1,-1.7291023E1,-1.1749212E1,-3.4104578E0,3.282955E0,1.3217655E1,2.3310534E1,-2.6310834E-1,4.712899E1,-8.767161E-1,-6.371679E-1,-1.2043034E1,-3.6455297E-1,-1.6239582E0,-6.689577E0,4.935918E0,-2.5017378E-1,1.5935879E1,7.726679E0,3.940887E1,1.5283986E1,5.0557087E1,2.8018076E1,-5.2814835E-1,-7.3282105E-1,1.6219668E-1,-2.7975032E-1,-1.63801E-1,2.2016926E-2,-3.802964E-1,-1.498331E-1,3.1021437E-1,1.62627E-2,-2.0342338E-1,1.342207E-1,3.536924E-2,8.153874E-1,-8.726559E-3,4.2707673E-1,5.8774227E-1,2.224755E0,8.6639637E-1,4.0162778E-1,3.2304797E-1,2.573751E0,1.468202E0,3.9760995E-1],"categories":[],"categories_nodes":[],"categories_segments":[],"categories_sizes":[],"default_left":[0,0,0,0,0,0,0,0,0,0,0,0,0,0,0,0,0,0,0,0,0,0,0,0,0,0,0,0,0,0,0,0,0,0,0,0,0,0,0,0,0,0,0,0,0,0,0,0,0,0,0,0,0],"id":2,"left_children":[1,3,5,7,9,11,13,15,17,19,21,23,25,-1,27,-1,-1,29,31,33,35,37,39,41,43,45,47,49,51,-1,-1,-1,-1,-1,-1,-1,-1,-1,-1,-1,-1,-1,-1,-1,-1,-1,-1,-1,-1,-1,-1,-1,-1],"loss_changes":[1.7877514E5,2.9238297E4,3.306968E4,2.1991172E3,2.2742153E3,3.5170547E3,5.784875E3,4.5421875E1,3.903252E2,6.921139E2,5.151663E2,1.7276543E3,6.2460195E3,0E0,1.9246953E3,0E0,0E0,2.900039E2,9.3645905E1,2.7085986E2,1.19335815E2,3.4886365E2,3.3586987E2,4.5283203E2,2.783396E2,1.8680957E3,4.0920703E2,1.3674688E3,3.657129E1,0E0,0E0,0E0,0E0,0E0,0E0,0E0,0E0,0E0,0E0,0E0,0E0,0E0,0E0,0E0,0E0,0E0,0E0,0E0,0E0,0E0,0E0,0E0,0E0],"parents":[2147483647,0,0,1,1,2,2,3,3,4,4,5,5,6,6,7,7,8,8,9,9,10,10,11,11,12,12,14,14,17,17,18,18,19,19,20,20,21,21,22,22,23,23,24,24,25,25,26,26,27,27,28,28],"right_children":[2,4,6,8,10,12,14,16,18,20,22,24,26,-1,28,-1,-1,30,32,34,36,38,40,42,44,46,48,50,52,-1,-1,-1,-1,-1,-1,-1,-1,-1,-1,-1,-1,-1,-1,-1,-1,-1,-1,-1,-1,-1,-1,-1,-1],"split_conditions":[3.357143E1,2.2E1,7E1,1.0857142E1,4E0,4E0,2.2E1,1.3E1,2.3E1,3.179701E-1,6E0,3.179701E-1,6E0,-2.6310834E-1,1E0,-8.767161E-1,-6.371679E-1,3.179701E-1,6E0,2.7428572E1,3.0428572E1,3.179701E-1,2.6857143E1,2.8E1,4.6285713E1,4.2E1,3.179701E-1,1E0,1.07E2,-5.2814835E-1,-7.3282105E-1,1.6219668E-1,-2.7975032E-1,-1.63801E-1,2.2016926E-2,-3.802964E-1,-1.498331E-1,3.1021437E-1,1.62627E-2,-2.0342338E-1,1.342207E-1,3.536924E-2,8.153874E-1,-8.726559E-3,4.2707673E-1,5.8774227E-1,2.224755E0,8.6639637E-1,4.0162778E-1,3.2304797E-1,2.573751E0,1.468202E0,3.9760995E-1],"split_indices":[10,10,9,10,2,2,6,9,6,1,2,1,2,0,11,0,0,1,2,10,10,1,10,9,10,9,1,2,9,0,0,0,0,0,0,0,0,0,0,0,0,0,0,0,0,0,0,0,0,0,0,0,0],"split_type":[0,0,0,0,0,0,0,0,0,0,0,0,0,0,0,0,0,0,0,0,0,0,0,0,0,0,0,0,0,0,0,0,0,0,0,0,0,0,0,0,0,0,0,0,0,0,0,0,0,0,0,0,0],"sum_hessian":[7.92E2,5.65E2,2.27E2,3.59E2,2.06E2,1.75E2,5.2E1,2.42E2,1.17E2,1.19E2,8.7E1,1.23E2,5.2E1,2E0,5E1,2.27E2,1.5E1,1.14E2,3E0,7.8E1,4.1E1,5.9E1,2.8E1,8.1E1,4.2E1,1.6E1,3.6E1,4.1E1,9E0,7.6E1,3.8E1,2E0,1E0,4.3E1,3.5E1,3.2E1,9E0,4.6E1,1.3E1,1.2E1,1.6E1,2E0,7.9E1,4E0,3.8E1,3E0,1.3E1,2.7E1,9E0,1E0,4E1,8E0,1E0],"tree_param":{"num_deleted":"0","num_feature":"14","num_nodes":"53","size_leaf_vector":"1"}},{"base_weights":[1.5563478E-1,-8.767257E0,2.3049213E1,-1.4512071E1,-2.6112461E-2,1.338822E1,3.5728203E1,-1.6318249E1,-1.1044869E1,-2.6989238E0,3.555716E0,1.5855967E1,8.148447E0,4.6559067E1,1.49023905E1,-8.648941E-1,-7.5560874E-1,-9.726217E0,-6.941306E-1,-8.1695795E-1,-6.1651807E0,5.5287776E0,-1.014285E0,1.7395367E1,1.1280865E1,3.4735157E0,9.251329E0,5.112294E1,2.8242218E1,1.6804033E1,7.541641E0,-4.9561277E-1,1.6147666E-1,-1.5697037E-1,9.007125E-2,-3.5826796E-1,-1.4990747E-1,3.431761E-1,2.9752344E-2,-2.2158717E-1,8.500435E-2,1.260105E0,7.915041E-1,6.7256206E-1,-1.7382112E-1,2.2813468E-1,-2.9439865E-2,4.83382E-1,1.8040073E-1,-2.27316E-1,2.6175916E0,1.4575945E0,3.876697E-1,1.9883487E-1,8.835576E-1,1.4987594E-1,6.236207E-1],"categories":[],"categories_nodes":[],"categories_segments":[],"categories_sizes":[],"default_left":[0,0,0,0,0,0,0,0,0,0,0,0,0,0,0,0,0,0,0,0,0,0,0,0,0,0,0,0,0,0,0,0,0,0,0,0,0,0,0,0,0,0,0,0,0,0,0,0,0,0,0,0,0,0,0,0,0],"id":3,"left_children":[1,3,5,7,9,11,13,15,17,19,21,23,25,27,29,-1,-1,31,-1,33,35,37,39,41,43,45,47,49,51,53,55,-1,-1,-1,-1,-1,-1,-1,-1,-1,-1,-1,-1,-1,-1,-1,-1,-1,-1,-1,-1,-1,-1,-1,-1,-1,-1],"loss_changes":[1.6607494E5,2.9376121E4,2.744975E4,2.0303906E3,2.2402341E3,1.5646836E3,2.1411188E4,1.0339844E1,3.2898145E2,8.6909607E2,9.0729736E2,4.2354297E2,1.9472461E2,3.9062969E3,3.631831E2,0E0,0E0,2.4411426E2,0E0,5.407889E2,1.27394165E2,4.5688452E2,2.950982E2,3.8311328E2,8.474839E2,4.6932304E1,4.7346924E1,3.658586E3,5.35459E1,2.3004346E2,1.64268E2,0E0,0E0,0E0,0E0,0E0,0E0,0E0,0E0,0E0,0E0,0E0,0E0,0E0,0E0,0E0,0E0,0E0,0E0,0E0,0E0,0E0,0E0,0E0,0E0,0E0,0E0],"parents":[2147483647,0,0,1,1,2,2,3,3,4,4,5,5,6,6,7,7,8,8,9,9,10,10,11,11,12,12,13,13,14,14,17,17,19,19,20,20,21,21,22,22,23,23,24,24,25,25,26,26,27,27,28,28,29,29,30,30],"right_children":[2,4,6,8,10,12,14,16,18,20,22,24,26,28,30,-1,-1,32,-1,34,36,38,40,42,44,46,48,50,52,54,56,-1,-1,-1,-1,-1,-1,-1,-1,-1,-1,-1,-1,-1,-1,-1,-1,-1,-1,-1,-1,-1,-1,-1,-1,-1,-1],"split_conditions":[4.157143E1,2.2E1,4E0,1.0857142E1,4E0,3.179701E-1,6E0,8.857142E0,3.179701E-1,3.179701E-1,6E0,3E0,5.2285713E1,3.179701E-1,3.179701E-1,-8.648941E-1,-7.5560874E-1,2.3E1,-6.941306E-1,2.7428572E1,3.0428572E1,3.179701E-1,2.6857143E1,3.8E1,7E0,1.7803349E1,6.1714287E1,1.7E1,5.842857E1,5.9E1,4.7E1,-4.9561277E-1,1.6147666E-1,-1.5697037E-1,9.007125E-2,-3.5826796E-1,-1.4990747E-1,3.431761E-1,2.9752344E-2,-2.2158717E-1,8.500435E-2,1.260105E0,7.915041E-1,6.7256206E-1,-1.7382112E-1,2.2813468E-1,-2.9439865E-2,4.83382E-1,1.8040073E-1,-2.27316E-1,2.6175916E0,1.4575945E0,3.876697E-1,1.9883487E-1,8.835576E-1,1.4987594E-1,6.236207E-1],"split_indices":[10,10,2,10,2,1,2,10,1,1,2,2,10,1,1,0,0,7,0,10,10,1,10,7,4,1,10,7,10,7,8,0,0,0,0,0,0,0,0,0,0,0,0,0,0,0,0,0,0,0,0,0,0,0,0,0,0],"split_type":[0,0,0,0,0,0,0,0,0,0,0,0,0,0,0,0,0,0,0,0,0,0,0,0,0,0,0,0,0,0,0,0,0,0,0,0,0,0,0,0,0,0,0,0,0,0,0,0,0,0,0,0,0,0,0,0,0],"sum_hessian":[8.11E2,5.84E2,2.27E2,3.52E2,2.32E2,1.3E2,9.7E1,2.29E2,1.23E2,1.33E2,9.9E1,8.7E1,4.3E1,6.3E1,3.4E1,1.19E2,1.1E2,8.7E1,3.6E1,8.7E1,4.6E1,6.9E1,3E1,6.3E1,2.4E1,9E0,3.4E1,4.9E1,1.4E1,2.6E1,8E0,8.6E1,1E0,4.6E1,4.1E1,3.4E1,1.2E1,5.4E1,1.5E1,1.3E1,1.7E1,8E0,5.5E1,2.1E1,3E0,7E0,2E0,3.1E1,3E0,1E0,4.8E1,1.3E1,1E0,2E0,2.4E1,5E0,3E0],"tree_param":{"num_deleted":"0","num_feature":"14","num_nodes":"57","size_leaf_vector":"1"}},{"base_weights":[4.3561682E-1,-8.361417E0,2.2758596E1,-1.3999602E1,3.0749336E-1,1.5643856E1,4.0805332E1,-1.5568946E1,-1.0711888E1,1.8819051E0,-3.9820123E0,1.1059758E1,2.2047045E1,3.186029E1,5.312738E1,-7.8730935E-1,-5.288276E-1,-9.473413E0,-6.5832514E-1,-6.2709504E-1,4.7206116E0,-5.7546177E0,-1.536708E0,1.3543696E1,5.591017E0,2.6088354E1,1.1952353E1,3.5054657E1,3.1276612E0,8.185239E-1,2.7805936E0,-4.8365232E-1,1.5743975E-1,-1.4489323E-1,7.3188E-2,3.4501678E-1,1.738939E-2,-3.272737E-1,-1.3713242E-1,-1.3843927E-1,1.1895267E-1,5.7630354E-1,9.1418475E-1,2.401918E-1,7.4984044E-1,9.1663945E-1,1.4749924E0,2.2378464E-1,6.251903E-1,1.9852602E0,1.3103459E0,3.0529425E-1,-2.1963082E-1],"categories":[],"categories_nodes":[],"categories_segments":[],"categories_sizes":[],"default_left":[0,0,0,0,0,0,0,0,0,0,0,0,0,0,0,0,0,0,0,0,0,0,0,0,0,0,0,0,0,0,0,0,0,0,0,0,0,0,0,0,0,0,0,0,0,0,0,0,0,0,0,0,0],"id":4,"left_children":[1,3,5,7,9,11,13,15,17,19,21,23,25,27,29,-1,-1,31,-1,33,35,37,39,41,43,45,47,49,51,-1,-1,-1,-1,-1,-1,-1,-1,-1,-1,-1,-1,-1,-1,-1,-1,-1,-1,-1,-1,-1,-1,-1,-1],"loss_changes":[1.5630923E5,2.7913023E4,2.8251156E4,1.6184297E3,1.533773E3,4.5406836E3,5.251289E3,3.8746094E1,2.2486621E2,1.1852645E3,2.5556506E2,1.2419258E3,2.4215E3,3.4698828E3,1.3726641E3,0E0,0E0,2.3204248E2,0E0,4.268004E2,7.410609E2,6.541919E1,1.3684914E2,4.204541E2,1.648877E2,7.027129E2,3.0620605E1,3.9958594E2,1.3880615E2,0E0,0E0,0E0,0E0,0E0,0E0,0E0,0E0,0E0,0E0,0E0,0E0,0E0,0E0,0E0,0E0,0E0,0E0,0E0,0E0,0E0,0E0,0E0,0E0],"parents":[2147483647,0,0,1,1,2,2,3,3,4,4,5,5,6,6,7,7,8,8,9,9,10,10,11,11,12,12,13,13,14,14,17,17,19,19,20,20,21,21,22,22,23,23,24,24,25,25,26,26,27,27,28,28],"right_children":[2,4,6,8,10,12,14,16,18,20,22,24,26,28,30,-1,-1,32,-1,34,36,38,40,42,44,46,48,50,52,-1,-1,-1,-1,-1,-1,-1,-1,-1,-1,-1,-1,-1,-1,-1,-1,-1,-1,-1,-1,-1,-1,-1,-1],"split_conditions":[4.157143E1,2.2E1,6.3E1,1.2285714E1,3.179701E-1,3.002706E1,3.0535479E1,1.4E1,3.179701E-1,4E0,2.9142857E1,3.179701E-1,3.179701E-1,5.9E1,3E0,-7.8730935E-1,-5.288276E-1,2.3E1,-6.5832514E-1,2.7142857E1,6E0,3.1E1,3.6E1,4E0,3E1,1.5E1,1.3485152E0,3.179701E-1,1E0,8.185239E-1,2.7805936E0,-4.8365232E-1,1.5743975E-1,-1.4489323E-1,7.3188E-2,3.4501678E-1,1.738939E-2,-3.272737E-1,-1.3713242E-1,-1.3843927E-1,1.1895267E-1,5.7630354E-1,9.1418475E-1,2.401918E-1,7.4984044E-1,9.1663945E-1,1.4749924E0,2.2378464E-1,6.251903E-1,1.9852602E0,1.3103459E0,3.0529425E-1,-2.1963082E-1],"split_indices":[10,10,9,10,1,0,0,9,1,2,10,1,1,7,2,0,0,7,0,10,2,9,9,2,3,3,1,1,2,0,0,0,0,0,0,0,0,0,0,0,0,0,0,0,0,0,0,0,0,0,0,0,0],"split_type":[0,0,0,0,0,0,0,0,0,0,0,0,0,0,0,0,0,0,0,0,0,0,0,0,0,0,0,0,0,0,0,0,0,0,0,0,0,0,0,0,0,0,0,0,0,0,0,0,0,0,0,0,0],"sum_hessian":[7.94E2,5.7E2,2.24E2,3.45E2,2.25E2,1.62E2,6.2E1,2.31E2,1.14E2,1.65E2,6E1,9.6E1,6.6E1,3.8E1,2.4E1,2.21E2,1E1,7.9E1,3.5E1,8.8E1,7.7E1,3.4E1,2.6E1,6.5E1,3.1E1,4.6E1,2E1,3.4E1,4E0,2E0,2.2E1,7.8E1,1E0,4.2E1,4.6E1,5.1E1,2.6E1,2.6E1,8E0,2E1,6E0,4.8E1,1.7E1,3E1,1E0,1.6E1,3E1,2E0,1.8E1,2E1,1.4E1,3E0,1E0],"tree_param":{"num_deleted":"0","num_feature":"14","num_nodes":"53","size_leaf_vector":"1"}},{"base_weights":[-2.4146521E-1,-8.176839E0,2.0686518E1,-1.3165234E1,-2.3775059E-1,1.3581965E1,3.7703884E1,-1.4808782E1,-1.0067647E1,1.4957213E0,-4.5032E0,1.6319647E1,7.357169E0,1.2565003E1,4.1452744E1,-1.4031643E1,-8.2487947E-1,-8.691574E0,-6.3719535E-1,-7.740202E-1,3.916997E0,-6.156962E0,-1.8251466E0,1.4482346E1,2.1015387E1,9.277243E0,5.448636E0,1.4316142E1,-7.9881094E-2,4.547728E1,2.4332977E1,-7.3947066E-1,-6.047042E-1,-4.430058E-1,1.5350376E-1,-1.5162894E-1,6.755841E-2,2.9433918E-1,2.4289608E-3,-3.5430238E-1,-1.9295038E-1,-1.8306552E-1,5.8924194E-2,7.632152E-1,4.2918673E-1,2.3316298E0,7.525665E-1,-2.9527282E-2,4.8659763E-1,2.975956E-1,-3.6464944E-2,8.345693E-1,2.0009308E-1,2.3480928E0,9.25996E-1,-2.3664236E-2,1.3219804E0],"categories":[],"categories_nodes":[],"categories_segments":[],"categories_sizes":[],"default_left":[0,0,0,0,0,0,0,0,0,0,0,0,0,0,0,0,0,0,0,0,0,0,0,0,0,0,0,0,0,0,0,0,0,0,0,0,0,0,0,0,0,0,0,0,0,0,0,0,0,0,0,0,0,0,0,0,0],"id":5,"left_children":[1,3,5,7,9,11,13,15,17,19,21,23,25,27,29,31,-1,33,-1,35,37,39,41,43,45,47,49,51,-1,53,55,-1,-1,-1,-1,-1,-1,-1,-1,-1,-1,-1,-1,-1,-1,-1,-1,-1,-1,-1,-1,-1,-1,-1,-1,-1,-1],"loss_changes":[1.3651372E5,2.3600441E4,2.6811484E4,1.7142266E3,1.714758E3,2.6236191E3,5.699125E3,7.95625E1,3.6799023E2,9.098173E2,2.8549646E2,6.532969E2,1.3634253E2,2.7087878E2,2.8206562E3,6.926172E1,0E0,2.036289E2,0E0,4.168857E2,6.0931067E2,6.018982E1,1.5322406E2,2.518125E2,3.7288086E3,1.13434814E2,9.139844E1,1.5369385E2,0E0,9.311797E2,6.918628E2,0E0,0E0,0E0,0E0,0E0,0E0,0E0,0E0,0E0,0E0,0E0,0E0,0E0,0E0,0E0,0E0,0E0,0E0,0E0,0E0,0E0,0E0,0E0,0E0,0E0,0E0],"parents":[2147483647,0,0,1,1,2,2,3,3,4,4,5,5,6,6,7,7,8,8,9,9,10,10,11,11,12,12,13,13,14,14,15,15,17,17,19,19,20,20,21,21,22,22,23,23,24,24,25,25,26,26,27,27,29,29,30,30],"right_children":[2,4,6,8,10,12,14,16,18,20,22,24,26,28,30,32,-1,34,-1,36,38,40,42,44,46,48,50,52,-1,54,56,-1,-1,-1,-1,-1,-1,-1,-1,-1,-1,-1,-1,-1,-1,-1,-1,-1,-1,-1,-1,-1,-1,-1,-1,-1,-1],"split_conditions":[4.157143E1,2.2E1,6E1,1.0857142E1,3.179701E-1,3.179701E-1,3E0,3.179701E-1,3.179701E-1,4E0,2.9142857E1,4E0,5.6E1,6.257143E1,3.179701E-1,1E1,-8.2487947E-1,2.3E1,-6.3719535E-1,2.7428572E1,6E0,4E0,3E0,6.1285713E1,6E0,2.8E1,2.3524298E1,7.5E1,-7.9881094E-2,7E0,1.4597977E0,-7.3947066E-1,-6.047042E-1,-4.430058E-1,1.5350376E-1,-1.5162894E-1,6.755841E-2,2.9433918E-1,2.4289608E-3,-3.5430238E-1,-1.9295038E-1,-1.8306552E-1,5.8924194E-2,7.632152E-1,4.2918673E-1,2.3316298E0,7.525665E-1,-2.9527282E-2,4.8659763E-1,2.975956E-1,-3.6464944E-2,8.345693E-1,2.0009308E-1,2.3480928E0,9.25996E-1,-2.3664236E-2,1.3219804E0],"split_indices":[10,10,9,10,1,1,2,1,1,2,10,2,8,10,1,9,0,7,0,10,2,2,2,10,2,8,1,7,0,4,1,0,0,0,0,0,0,0,0,0,0,0,0,0,0,0,0,0,0,0,0,0,0,0,0,0,0],"split_type":[0,0,0,0,0,0,0,0,0,0,0,0,0,0,0,0,0,0,0,0,0,0,0,0,0,0,0,0,0,0,0,0,0,0,0,0,0,0,0,0,0,0,0,0,0,0,0,0,0,0,0,0,0,0,0,0,0],"sum_hessian":[8.2E2,5.95E2,2.25E2,3.65E2,2.3E2,1.6E2,6.5E1,2.36E2,1.29E2,1.64E2,6.6E1,1.1E2,5E1,9E0,5.6E1,1.68E2,6.8E1,8.8E1,4.1E1,8.5E1,7.9E1,4E1,2.6E1,8.2E1,2.8E1,2.3E1,2.7E1,8E0,1E0,4.4E1,1.2E1,1.16E2,5.2E1,8.7E1,1E0,4.1E1,4.4E1,5.2E1,2.7E1,2.7E1,1.3E1,1.6E1,1E1,7.1E1,1.1E1,4E0,2.4E1,1E0,2.2E1,2.5E1,2E0,6E0,2E0,4.1E1,3E0,1E0,1.1E1],"tree_param":{"num_deleted":"0","num_feature":"14","num_nodes":"57","size_leaf_vector":"1"}},{"base_weights":[-2.9705495E-1,-8.550939E0,1.5906114E1,-1.2737297E1,-6.095417E-1,1.0337704E1,2.1912378E1,-1.4118688E1,-1.0202328E1,-1.1593509E0,9.652748E-1,7.130769E0,1.5431767E1,9.493143E0,3.291356E1,-1.3370628E1,-7.7457213E-1,-1.0378266E1,-3.8689504E0,5.1177776E-1,-4.868846E0,8.956492E0,3.5988092E0,5.4591413E0,1.704746E1,1.6365367E0,1.5507195E1,4.2112473E1,1.3084707E1,-6.7233366E-1,-2.568444E-1,-5.323699E-1,-2.9080638E-1,5.9133437E-2,-2.713761E-1,-2.552448E-1,6.9153875E-2,-3.875868E-1,-2.1134348E-1,1.3552576E-1,5.536143E-1,-1.4234185E-3,2.3077929E-1,4.4066906E-2,3.8005766E-1,9.933947E-1,4.9470207E-1,2.0027609E-1,-1.9527359E-2,1.0348359E0,3.6040255E-1,1.658754E0,2.558623E0,4.6661934E-1,8.94236E-1],"categories":[],"categories_nodes":[],"categories_segments":[],"categories_sizes":[],"default_left":[0,0,0,0,0,0,0,0,0,0,0,0,0,0,0,0,0,0,0,0,0,0,0,0,0,0,0,0,0,0,0,0,0,0,0,0,0,0,0,0,0,0,0,0,0,0,0,0,0,0,0,0,0,0,0],"id":6,"left_children":[1,3,5,7,9,11,13,15,17,19,-1,21,23,25,27,29,-1,31,33,35,37,39,41,43,45,47,49,51,53,-1,-1,-1,-1,-1,-1,-1,-1,-1,-1,-1,-1,-1,-1,-1,-1,-1,-1,-1,-1,-1,-1,-1,-1,-1,-1],"loss_changes":[1.0699354E5,1.7612371E4,8.803711E3,1.0710742E3,2.0370845E3,2.2097178E3,1.7312332E4,2.084375E1,1.0024707E2,1.1183195E3,0E0,5.4167334E2,7.770205E2,2.904124E3,1.185243E4,2.5470703E1,0E0,8.7868164E1,4.5785515E1,6.187862E2,7.087634E1,7.364702E2,1.1815155E2,8.1552185E1,7.3151074E2,1.3602403E2,1.3582188E3,2.0270938E3,2.4734985E2,0E0,0E0,0E0,0E0,0E0,0E0,0E0,0E0,0E0,0E0,0E0,0E0,0E0,0E0,0E0,0E0,0E0,0E0,0E0,0E0,0E0,0E0,0E0,0E0,0E0,0E0],"parents":[2147483647,0,0,1,1,2,2,3,3,4,4,5,5,6,6,7,7,8,8,9,9,11,11,12,12,13,13,14,14,15,15,17,17,18,18,19,19,20,20,21,21,22,22,23,23,24,24,25,25,26,26,27,27,28,28],"right_children":[2,4,6,8,10,12,14,16,18,20,-1,22,24,26,28,30,-1,32,34,36,38,40,42,44,46,48,50,52,54,-1,-1,-1,-1,-1,-1,-1,-1,-1,-1,-1,-1,-1,-1,-1,-1,-1,-1,-1,-1,-1,-1,-1,-1,-1,-1],"split_conditions":[3.2E1,1.8E1,4E0,1.2E1,4.5E1,3.0535479E1,3.6E1,3.179701E-1,2.6E1,3.179701E-1,9.652748E-1,3.179701E-1,3.6E1,2.7E1,6E0,1.5E1,-7.7457213E-1,2.2E1,3E0,1.8E1,2E1,4E1,3.5E1,3.179701E-1,3.179701E-1,6E0,6E0,2.9672197E1,4.9E1,-6.7233366E-1,-2.568444E-1,-5.323699E-1,-2.9080638E-1,5.9133437E-2,-2.713761E-1,-2.552448E-1,6.9153875E-2,-3.875868E-1,-2.1134348E-1,1.3552576E-1,5.536143E-1,-1.4234185E-3,2.3077929E-1,4.4066906E-2,3.8005766E-1,9.933947E-1,4.9470207E-1,2.0027609E-1,-1.9527359E-2,1.0348359E0,3.6040255E-1,1.658754E0,2.558623E0,4.6661934E-1,8.94236E-1],"split_indices":[6,6,2,6,7,0,8,1,7,1,0,1,8,8,2,7,0,8,4,8,8,8,6,1,1,2,2,0,8,0,0,0,0,0,0,0,0,0,0,0,0,0,0,0,0,0,0,0,0,0,0,0,0,0,0],"split_type":[0,0,0,0,0,0,0,0,0,0,0,0,0,0,0,0,0,0,0,0,0,0,0,0,0,0,0,0,0,0,0,0,0,0,0,0,0,0,0,0,0,0,0,0,0,0,0,0,0,0,0,0,0,0,0],"sum_hessian":[7.98E2,5.29E2,2.69E2,3.46E2,1.83E2,1.41E2,1.28E2,2.21E2,1.25E2,1.79E2,4E0,8.8E1,5.3E1,6.1E1,6.7E1,1.5E2,7.1E1,1.21E2,4E0,1.24E2,5.5E1,5.7E1,3.1E1,8E0,4.5E1,2.7E1,3.4E1,4.5E1,2.2E1,1.48E2,2E0,1.13E2,8E0,1E0,3E0,1.6E1,1.08E2,8E0,4.7E1,1.5E1,4.2E1,7E0,2.4E1,3E0,5E0,3.1E1,1.4E1,1.2E1,1.5E1,2E1,1.4E1,2.5E1,2E1,1.4E1,8E0],"tree_param":{"num_deleted":"0","num_feature":"14","num_nodes":"55","size_leaf_vector":"1"}},{"base_weights":[2.1250059E-1,-7.450702E0,1.9218992E1,-1.2018618E1,-3.8203493E-1,1.2902872E1,3.367807E1,-1.3473913E1,-9.349505E0,1.1714472E0,-4.2001133E0,9.635414E0,1.770456E1,2.2742254E1,4.426664E1,-6.876115E-1,-5.240025E-1,1.2323785E-1,-9.464659E0,-1.0835919E0,2.8076968E0,-5.566172E0,-1.936942E0,1.0465674E1,-1.0132174E0,2.0992558E1,9.421333E0,2.5588524E1,-2.2314835E-2,4.5221386E1,3.190011E-1,-4.3064904E-1,-5.653644E-1,7.0440318E-3,-1.6671643E-1,1.577316E-1,-4.3259493E-1,-2.4893904E-1,-4.803999E-1,-1.5113127E-1,1.0928871E-1,6.0980886E-1,2.7046502E-1,-5.8725774E-1,2.2608101E-1,1.2013823E0,8.667852E-1,1.5030293E-1,4.983569E-1,-2.9614338E-1,1.339804E0,-1.7682911E-1,1.7496954E-1,2.2928896E0,6.2141055E-1],"categories":[],"categories_nodes":[],"categories_segments":[],"categories_sizes":[],"default_left":[0,0,0,0,0,0,0,0,0,0,0,0,0,0,0,0,0,0,0,0,0,0,0,0,0,0,0,0,0,0,0,0,0,0,0,0,0,0,0,0,0,0,0,0,0,0,0,0,0,0,0,0,0,0,0],"id":7,"left_children":[1,3,5,7,9,11,13,15,17,19,21,23,25,27,29,-1,-1,-1,31,33,35,37,39,41,43,45,47,49,51,53,-1,-1,-1,-1,-1,-1,-1,-1,-1,-1,-1,-1,-1,-1,-1,-1,-1,-1,-1,-1,-1,-1,-1,-1,-1],"loss_changes":[1.1608107E5,1.8335602E4,2.0478953E4,1.214125E3,1.333535E3,2.3553867E3,6.9831016E3,4.001953E1,1.9338477E2,5.934115E2,1.901742E2,8.7703516E2,1.5452754E3,2.3331582E3,9.4133594E2,0E0,0E0,0E0,9.7206055E1,1.8787535E2,3.9703693E2,4.7129272E1,1.22981865E2,7.302842E2,5.2830334E2,8.291406E1,4.006787E1,1.3763672E3,7.4256966E1,1.1877344E2,0E0,0E0,0E0,0E0,0E0,0E0,0E0,0E0,0E0,0E0,0E0,0E0,0E0,0E0,0E0,0E0,0E0,0E0,0E0,0E0,0E0,0E0,0E0,0E0,0E0],"parents":[2147483647,0,0,1,1,2,2,3,3,4,4,5,5,6,6,7,7,8,8,9,9,10,10,11,11,12,12,13,13,14,14,18,18,19,19,20,20,21,21,22,22,23,23,24,24,25,25,26,26,27,27,28,28,29,29],"right_children":[2,4,6,8,10,12,14,16,18,20,22,24,26,28,30,-1,-1,-1,32,34,36,38,40,42,44,46,48,50,52,54,-1,-1,-1,-1,-1,-1,-1,-1,-1,-1,-1,-1,-1,-1,-1,-1,-1,-1,-1,-1,-1,-1,-1,-1,-1],"split_conditions":[4.157143E1,2.2E1,6E1,1.0571428E1,3.179701E-1,2.9358807E1,2.911955E1,1.2E1,9E0,2.6428572E1,2.9142857E1,7E0,3.179701E-1,5.9E1,2.0692389E1,-6.876115E-1,-5.240025E-1,1.2323785E-1,3.179701E-1,2.7E1,9E0,7E0,3.9E1,3.179701E-1,4.3E1,5.4857143E1,3.4E1,2.2E1,2.4242882E1,6.8E1,3.190011E-1,-4.3064904E-1,-5.653644E-1,7.0440318E-3,-1.6671643E-1,1.577316E-1,-4.3259493E-1,-2.4893904E-1,-4.803999E-1,-1.5113127E-1,1.0928871E-1,6.0980886E-1,2.7046502E-1,-5.8725774E-1,2.2608101E-1,1.2013823E0,8.667852E-1,1.5030293E-1,4.983569E-1,-2.9614338E-1,1.339804E0,-1.7682911E-1,1.7496954E-1,2.2928896E0,6.2141055E-1],"split_indices":[10,10,9,10,1,0,0,9,7,10,10,4,1,7,1,0,0,0,1,8,4,4,9,1,8,10,6,6,0,7,0,0,0,0,0,0,0,0,0,0,0,0,0,0,0,0,0,0,0,0,0,0,0,0,0],"split_type":[0,0,0,0,0,0,0,0,0,0,0,0,0,0,0,0,0,0,0,0,0,0,0,0,0,0,0,0,0,0,0,0,0,0,0,0,0,0,0,0,0,0,0,0,0,0,0,0,0,0,0,0,0,0,0],"sum_hessian":[7.95E2,5.67E2,2.28E2,3.44E2,2.23E2,1.6E2,6.8E1,2.2E2,1.24E2,1.59E2,6.4E1,9.7E1,6.3E1,3.5E1,3.3E1,1.98E2,2.2E1,1E0,1.23E2,6.7E1,9.2E1,3.9E1,2.5E1,9E1,7E0,4.4E1,1.9E1,3.1E1,4E0,3.2E1,1E0,8.8E1,3.5E1,4.4E1,2.3E1,9E1,2E0,3.6E1,3E0,2E1,5E0,6.6E1,2.4E1,2E0,5E0,2.1E1,2.3E1,2E0,1.7E1,1E0,3E1,2E0,2E0,3.1E1,1E0],"tree_param":{"num_deleted":"0","num_feature":"14","num_nodes":"55","size_leaf_vector":"1"}},{"base_weights":[1.6295489E-2,-7.130878E0,1.9042715E1,-1.145157E1,-2.5504506E-1,1.2164901E1,3.3818184E1,-1.2813103E1,-8.609387E0,1.3919483E0,-4.2688465E0,1.4977797E1,6.1832943E0,3.811538E1,2.0503702E1,-1.2117662E1,-7.2314686E-1,-8.738895E0,1.6681352E-1,6.3539666E-1,7.76301E0,-5.813178E0,-2.8204265E0,2.3215654E1,1.2422191E1,8.581787E0,4.150531E0,1.665105E1,4.1721508E1,4.3257275E0,2.3266716E1,-6.526871E-1,-5.461404E-1,-3.8418612E-1,-5.420601E-1,-4.836433E-2,9.932957E-2,-3.843975E-3,4.1289043E-1,-2.4885128E-1,-4.5828834E-1,-2.599083E-1,-8.529909E-2,8.082287E-1,1.7207928E0,3.6607417E-1,6.841179E-1,-4.4560816E-2,4.537661E-1,2.24096E-2,2.4515884E-1,1.1207242E0,-1.1736546E-1,2.1068926E0,6.058753E-1,-3.0317402E-2,3.0859345E-1,1.2175336E0,1.7518406E-1],"categories":[],"categories_nodes":[],"categories_segments":[],"categories_sizes":[],"default_left":[0,0,0,0,0,0,0,0,0,0,0,0,0,0,0,0,0,0,0,0,0,0,0,0,0,0,0,0,0,0,0,0,0,0,0,0,0,0,0,0,0,0,0,0,0,0,0,0,0,0,0,0,0,0,0,0,0,0,0],"id":8,"left_children":[1,3,5,7,9,11,13,15,17,19,21,23,25,27,29,31,-1,33,-1,35,37,39,41,43,45,47,49,51,53,55,57,-1,-1,-1,-1,-1,-1,-1,-1,-1,-1,-1,-1,-1,-1,-1,-1,-1,-1,-1,-1,-1,-1,-1,-1,-1,-1,-1,-1],"loss_changes":[1.0905988E5,1.7317043E4,2.1844031E4,1.2750508E3,1.4999613E3,2.4480566E3,3.1663203E3,1.0011328E2,2.1325586E2,7.710934E2,1.3123596E2,1.8589902E3,2.081593E2,3.2528594E3,7.486533E2,5.3148438E1,0E0,1.7845801E2,0E0,3.159245E2,6.658069E1,4.1283203E1,8.652698E1,1.2600732E3,4.1404492E2,1.10943726E2,7.861243E1,1.0380757E3,1.9382812E1,4.016353E1,2.5744043E2,0E0,0E0,0E0,0E0,0E0,0E0,0E0,0E0,0E0,0E0,0E0,0E0,0E0,0E0,0E0,0E0,0E0,0E0,0E0,0E0,0E0,0E0,0E0,0E0,0E0,0E0,0E0,0E0],"parents":[2147483647,0,0,1,1,2,2,3,3,4,4,5,5,6,6,7,7,8,8,9,9,10,10,11,11,12,12,13,13,14,14,15,15,17,17,19,19,20,20,21,21,22,22,23,23,24,24,25,25,26,26,27,27,28,28,29,29,30,30],"right_children":[2,4,6,8,10,12,14,16,18,20,22,24,26,28,30,32,-1,34,-1,36,38,40,42,44,46,48,50,52,54,56,58,-1,-1,-1,-1,-1,-1,-1,-1,-1,-1,-1,-1,-1,-1,-1,-1,-1,-1,-1,-1,-1,-1,-1,-1,-1,-1,-1,-1],"split_conditions":[4.157143E1,2.2E1,6E1,1.2285714E1,3.179701E-1,3.179701E-1,3.179701E-1,3.179701E-1,2.4E1,3.8E1,2.7428572E1,5.2285713E1,5.6E1,3.7E1,6.8E1,8.714286E0,-7.2314686E-1,3.179701E-1,1.6681352E-1,2.6428572E1,2.2E1,7E0,7E0,4.2E1,4.3E1,2.8E1,3.5E1,7E0,6.8E1,1.4597977E0,5.1E1,-6.526871E-1,-5.461404E-1,-3.8418612E-1,-5.420601E-1,-4.836433E-2,9.932957E-2,-3.843975E-3,4.1289043E-1,-2.4885128E-1,-4.5828834E-1,-2.599083E-1,-8.529909E-2,8.082287E-1,1.7207928E0,3.6607417E-1,6.841179E-1,-4.4560816E-2,4.537661E-1,2.24096E-2,2.4515884E-1,1.1207242E0,-1.1736546E-1,2.1068926E0,6.058753E-1,-3.0317402E-2,3.0859345E-1,1.2175336E0,1.7518406E-1],"split_indices":[10,10,9,10,1,1,1,1,6,9,10,10,8,6,9,10,0,1,0,10,7,4,3,9,7,8,6,4,7,1,8,0,0,0,0,0,0,0,0,0,0,0,0,0,0,0,0,0,0,0,0,0,0,0,0,0,0,0,0],"split_type":[0,0,0,0,0,0,0,0,0,0,0,0,0,0,0,0,0,0,0,0,0,0,0,0,0,0,0,0,0,0,0,0,0,0,0,0,0,0,0,0,0,0,0,0,0,0,0,0,0,0,0,0,0,0,0,0,0,0,0],"sum_hessian":[8E2,5.82E2,2.18E2,3.57E2,2.25E2,1.5E2,6.8E1,2.39E2,1.18E2,1.6E2,6.5E1,1.01E2,4.9E1,5E1,1.8E1,1.74E2,6.5E1,1.17E2,1E0,1.44E2,1.6E1,3E1,3.5E1,2.2E1,7.9E1,2.1E1,2.8E1,8E0,4.2E1,3E0,1.5E1,9.2E1,8.2E1,8.1E1,3.6E1,6.6E1,7.8E1,1E0,1.5E1,2.6E1,4E0,1E1,2.5E1,1.5E1,7E0,1.7E1,6.2E1,1E0,2E1,5E0,2.3E1,6E0,2E0,4.1E1,1E0,1E0,2E0,1.4E1,1E0],"tree_param":{"num_deleted":"0","num_feature":"14","num_nodes":"59","size_leaf_vector":"1"}},{"base_weights":[1.16786376E-1,-7.8228235E0,1.3611014E1,-1.0885797E1,-9.745283E-1,8.182644E0,3.0787357E1,-1.2125423E1,-8.530695E0,-1.5538876E0,8.358515E-1,2.9044776E0,1.0369064E1,1.0738712E1,3.517146E1,-1.1471253E1,-6.7856944E-1,-7.6291175E0,-1.02538185E1,-2.8419662E0,1.4480734E0,1.6593659E0,6.4689612E0,7.3105984E0,1.5516237E1,-1.5323773E-1,1.2036268E1,4.0300888E1,2.073157E1,-5.802167E-1,-3.0607328E-1,-4.1153216E-1,-2.2791092E-1,-5.31403E-1,-1.11012116E-1,-9.918396E-2,-2.6398903E-1,-9.2732504E-2,2.415717E-1,1.1355712E-1,-1.2552682E-1,4.5816642E-1,1.1461911E-1,4.4719872E-1,1.836912E-1,9.410848E-1,4.3980318E-1,6.326936E-1,1.1562576E-1,1.4952576E0,2.2574115E0,1.1327952E0,2.0996915E-1],"categories":[],"categories_nodes":[],"categories_segments":[],"categories_sizes":[],"default_left":[0,0,0,0,0,0,0,0,0,0,0,0,0,0,0,0,0,0,0,0,0,0,0,0,0,0,0,0,0,0,0,0,0,0,0,0,0,0,0,0,0,0,0,0,0,0,0,0,0,0,0,0,0],"id":9,"left_children":[1,3,5,7,9,11,13,15,17,19,-1,21,23,25,27,29,-1,31,33,35,37,39,41,43,45,-1,47,49,51,-1,-1,-1,-1,-1,-1,-1,-1,-1,-1,-1,-1,-1,-1,-1,-1,-1,-1,-1,-1,-1,-1,-1,-1],"loss_changes":[8.474621E4,1.0435514E4,2.7067273E4,9.0084766E2,1.6146907E3,2.5549062E3,5.7749688E3,5.526172E1,1.11302734E2,5.879963E2,0E0,2.8662372E2,2.373877E3,2.8763892E2,3.3863984E3,4.2875E1,0E0,1.17649414E2,9.365674E1,2.1131512E2,5.2297864E2,1.3580527E2,1.7029926E2,5.671035E2,1.1228125E3,0E0,4.8808105E1,7.158906E2,4.456875E2,0E0,0E0,0E0,0E0,0E0,0E0,0E0,0E0,0E0,0E0,0E0,0E0,0E0,0E0,0E0,0E0,0E0,0E0,0E0,0E0,0E0,0E0,0E0,0E0],"parents":[2147483647,0,0,1,1,2,2,3,3,4,4,5,5,6,6,7,7,8,8,9,9,11,11,12,12,13,13,14,14,15,15,17,17,18,18,19,19,20,20,21,21,22,22,23,23,24,24,26,26,27,27,28,28],"right_children":[2,4,6,8,10,12,14,16,18,20,-1,22,24,26,28,30,-1,32,34,36,38,40,42,44,46,-1,48,50,52,-1,-1,-1,-1,-1,-1,-1,-1,-1,-1,-1,-1,-1,-1,-1,-1,-1,-1,-1,-1,-1,-1,-1,-1],"split_conditions":[3.1E1,1.8E1,5.8E1,1.2E1,4.7E1,3.4E1,4E0,3.179701E-1,3.179701E-1,3E1,8.358515E-1,3.9E1,3.002706E1,2.2974585E1,3.179701E-1,1.5E1,-6.7856944E-1,1.8E1,2.4E1,1.3485152E0,4E0,1.3485152E0,3.179701E-1,3.179701E-1,3.179701E-1,-1.5323773E-1,7E0,2.911955E1,5.1E1,-5.802167E-1,-3.0607328E-1,-4.1153216E-1,-2.2791092E-1,-5.31403E-1,-1.11012116E-1,-9.918396E-2,-2.6398903E-1,-9.2732504E-2,2.415717E-1,1.1355712E-1,-1.2552682E-1,4.5816642E-1,1.1461911E-1,4.4719872E-1,1.836912E-1,9.410848E-1,4.3980318E-1,6.326936E-1,1.1562576E-1,1.4952576E0,2.2574115E0,1.1327952E0,2.0996915E-1],"split_indices":[6,6,9,9,8,8,2,1,1,9,0,9,0,0,1,8,0,9,8,1,2,1,1,1,1,0,4,0,8,0,0,0,0,0,0,0,0,0,0,0,0,0,0,0,0,0,0,0,0,0,0,0,0],"split_type":[0,0,0,0,0,0,0,0,0,0,0,0,0,0,0,0,0,0,0,0,0,0,0,0,0,0,0,0,0,0,0,0,0,0,0,0,0,0,0,0,0,0,0,0,0,0,0,0,0,0,0,0,0],"sum_hessian":[7.89E2,4.97E2,2.92E2,3.43E2,1.54E2,2.23E2,6.9E1,2.22E2,1.21E2,1.5E2,4E0,6.6E1,1.57E2,1.3E1,5.6E1,1.59E2,6.3E1,8.3E1,3.8E1,1.05E2,4.5E1,5E1,1.6E1,1E2,5.7E1,1E0,1.2E1,4E1,1.6E1,1.54E2,5E0,6.8E1,1.5E1,3.6E1,2E0,7.9E1,2.6E1,2.3E1,2.2E1,4.4E1,6E0,9E0,7E0,6.8E1,3.2E1,3.7E1,2E1,1.1E1,1E0,1.5E1,2.5E1,1.4E1,2E0],"tree_param":{"num_deleted":"0","num_feature":"14","num_nodes":"53","size_leaf_vector":"1"}},{"base_weights":[3.2431554E-2,-6.5551796E0,1.6963606E1,-1.03841305E1,-9.1211416E-2,1.2428428E1,3.1703754E1,-1.1511718E1,-8.0724945E0,-2.0150552E0,2.3947034E0,8.667421E0,1.7263075E1,2.2434464E1,3.8062393E1,-6.1618966E-1,-5.251197E-1,-8.191823E0,1.6512279E-1,-1.7251099E0,-5.141066E-1,4.294513E0,-1.195965E0,6.6036997E0,1.3331439E1,2.1322895E1,8.635616E0,2.4526096E1,-3.8232866E-1,1.9301175E0,5.60094E-1,-4.575553E-1,-3.2511476E-1,-3.1675372E-2,-1.9598837E-1,2.8019792E-1,-1.346534E-2,-1.7695868E-1,5.4175388E-2,4.112594E-1,1.7092799E-1,1.3600043E0,4.734853E-1,8.2667965E-1,1.4592377E0,4.7813222E-1,2.3766537E-1,3.455421E-1,1.3471862E0,1.8877831E-1,-2.1745296E-1],"categories":[],"categories_nodes":[],"categories_segments":[],"categories_sizes":[],"default_left":[0,0,0,0,0,0,0,0,0,0,0,0,0,0,0,0,0,0,0,0,0,0,0,0,0,0,0,0,0,0,0,0,0,0,0,0,0,0,0,0,0,0,0,0,0,0,0,0,0,0,0],"id":10,"left_children":[1,3,5,7,9,11,13,15,17,19,21,23,25,27,29,-1,-1,31,-1,33,-1,35,37,39,41,43,45,47,49,-1,-1,-1,-1,-1,-1,-1,-1,-1,-1,-1,-1,-1,-1,-1,-1,-1,-1,-1,-1,-1,-1],"loss_changes":[9.078996E4,1.4502682E4,1.4847602E4,8.6628906E2,1.0521954E3,3.0506074E3,2.269914E3,7.138281E1,1.9536475E2,2.7949E2,6.600085E2,8.841118E2,2.477832E3,1.1547607E3,2.6835938E0,0E0,0E0,1.3984766E2,0E0,2.8739572E2,0E0,3.780017E2,1.8543826E2,3.4373755E2,1.3491333E3,1.4377637E3,4.8119995E1,7.507129E2,6.58999E1,0E0,0E0,0E0,0E0,0E0,0E0,0E0,0E0,0E0,0E0,0E0,0E0,0E0,0E0,0E0,0E0,0E0,0E0,0E0,0E0,0E0,0E0],"parents":[2147483647,0,0,1,1,2,2,3,3,4,4,5,5,6,6,7,7,8,8,9,9,10,10,11,11,12,12,13,13,14,14,17,17,19,19,21,21,22,22,23,23,24,24,25,25,26,26,27,27,28,28],"right_children":[2,4,6,8,10,12,14,16,18,20,22,24,26,28,30,-1,-1,32,-1,34,-1,36,38,40,42,44,46,48,50,-1,-1,-1,-1,-1,-1,-1,-1,-1,-1,-1,-1,-1,-1,-1,-1,-1,-1,-1,-1,-1,-1],"split_conditions":[4.157143E1,2.2E1,7E1,1.2285714E1,4E0,2.9578587E1,2.8325836E1,8.857142E0,2.4E1,9E0,6E0,4E0,3.179701E-1,5.2E1,1.22E2,-6.1618966E-1,-5.251197E-1,4E0,1.6512279E-1,3.179701E-1,-5.141066E-1,3.179701E-1,2.6857143E1,3.179701E-1,4.9E1,4E0,6.5E1,5.3857143E1,2.4239923E1,1.9301175E0,5.60094E-1,-4.575553E-1,-3.2511476E-1,-3.1675372E-2,-1.9598837E-1,2.8019792E-1,-1.346534E-2,-1.7695868E-1,5.4175388E-2,4.112594E-1,1.7092799E-1,1.3600043E0,4.734853E-1,8.2667965E-1,1.4592377E0,4.7813222E-1,2.3766537E-1,3.455421E-1,1.3471862E0,1.8877831E-1,-2.1745296E-1],"split_indices":[10,10,9,10,2,0,0,10,6,4,2,2,1,7,6,0,0,2,0,1,0,1,10,1,6,2,7,10,0,0,0,0,0,0,0,0,0,0,0,0,0,0,0,0,0,0,0,0,0,0,0],"split_type":[0,0,0,0,0,0,0,0,0,0,0,0,0,0,0,0,0,0,0,0,0,0,0,0,0,0,0,0,0,0,0,0,0,0,0,0,0,0,0,0,0,0,0,0,0,0,0,0,0,0,0],"sum_hessian":[8.12E2,5.85E2,2.27E2,3.67E2,2.18E2,1.75E2,5.2E1,2.44E2,1.23E2,1.23E2,9.5E1,1E2,7.5E1,2.3E1,2.9E1,1.29E2,1.15E2,1.22E2,1E0,1.2E2,3E0,6.2E1,3.3E1,7.1E1,2.9E1,5E1,2.5E1,2.1E1,2E0,2.8E1,1E0,7.5E1,4.7E1,8.1E1,3.9E1,4.8E1,1.4E1,1.6E1,1.7E1,4.6E1,2.5E1,5E0,2.4E1,3.3E1,1.7E1,1.9E1,6E0,3E0,1.8E1,1E0,1E0],"tree_param":{"num_deleted":"0","num_feature":"14","num_nodes":"51","size_leaf_vector":"1"}},{"base_weights":[-8.407911E-2,-6.114911E0,1.5551801E1,-9.800511E0,-4.593547E-1,8.583278E0,2.4012325E1,-1.0989853E1,-7.224612E0,-2.2986143E0,1.9786172E0,6.0848193E0,1.2760507E1,3.0378426E1,9.4787445E0,-1.0283932E1,-6.183595E-1,-8.330701E0,-5.441803E0,-9.5695144E-1,-4.722156E0,3.5093029E0,-9.1584766E-1,6.8131223E0,-3.668952E0,1.5134691E1,8.099466E0,-3.5157147E-1,3.1637672E1,4.5058413E0,1.1308304E1,-5.4423755E-1,-4.4976065E-1,-4.2740425E-1,-1.4121123E-1,-1.576376E-1,-2.9632446E-1,-3.4314714E-2,-3.9728555E-1,-2.0465134E-1,-4.064664E-1,2.2843257E-1,5.596292E-3,-1.8586421E-1,6.1551105E-2,4.119062E-1,1.7095342E-1,1.8120371E-1,-6.085002E-1,3.7508005E-1,8.233952E-1,4.329711E-1,-2.1495437E-2,1.7458012E0,1.0931466E0,-7.30011E-3,3.815702E-1,6.26188E-1,2.3354995E-1],"categories":[],"categories_nodes":[],"categories_segments":[],"categories_sizes":[],"default_left":[0,0,0,0,0,0,0,0,0,0,0,0,0,0,0,0,0,0,0,0,0,0,0,0,0,0,0,0,0,0,0,0,0,0,0,0,0,0,0,0,0,0,0,0,0,0,0,0,0,0,0,0,0,0,0,0,0,0,0],"id":11,"left_children":[1,3,5,7,9,11,13,15,17,19,21,23,25,27,29,31,-1,33,35,37,39,41,43,45,47,49,51,-1,53,55,57,-1,-1,-1,-1,-1,-1,-1,-1,-1,-1,-1,-1,-1,-1,-1,-1,-1,-1,-1,-1,-1,-1,-1,-1,-1,-1,-1,-1],"loss_changes":[7.3175555E4,1.1668209E4,1.25286875E4,9.5916797E2,1.00001E3,1.174751E3,8.686707E3,9.6447266E1,1.7157959E2,4.0843127E2,4.2854355E2,5.7198193E2,3.643286E2,3.3787148E3,2.3109155E2,2.4425781E1,0E0,5.4861816E1,3.1241455E1,1.515462E2,6.318628E1,2.2622601E2,2.090629E2,3.2006372E2,4.160953E2,1.6140674E2,8.491577E1,0E0,1.3195586E3,1.465105E2,1.18983154E2,0E0,0E0,0E0,0E0,0E0,0E0,0E0,0E0,0E0,0E0,0E0,0E0,0E0,0E0,0E0,0E0,0E0,0E0,0E0,0E0,0E0,0E0,0E0,0E0,0E0,0E0,0E0,0E0],"parents":[2147483647,0,0,1,1,2,2,3,3,4,4,5,5,6,6,7,7,8,8,9,9,10,10,11,11,12,12,13,13,14,14,15,15,17,17,18,18,19,19,20,20,21,21,22,22,23,23,24,24,25,25,26,26,28,28,29,29,30,30],"right_children":[2,4,6,8,10,12,14,16,18,20,22,24,26,28,30,32,-1,34,36,38,40,42,44,46,48,50,52,-1,54,56,58,-1,-1,-1,-1,-1,-1,-1,-1,-1,-1,-1,-1,-1,-1,-1,-1,-1,-1,-1,-1,-1,-1,-1,-1,-1,-1,-1,-1],"split_conditions":[4.157143E1,2.2E1,4E0,1.2285714E1,4E0,2.9358807E1,6E0,3.179701E-1,4E0,3.179701E-1,6E0,7E0,3.179701E-1,2.2E1,2.368869E1,1E1,-6.183595E-1,2.2E1,1.2E1,9E0,7E0,3.179701E-1,2.6857143E1,6.33E0,2E0,3.8E1,5.2E1,-3.5157147E-1,3.179701E-1,8.5E1,9.6E1,-5.4423755E-1,-4.4976065E-1,-4.2740425E-1,-1.4121123E-1,-1.576376E-1,-2.9632446E-1,-3.4314714E-2,-3.9728555E-1,-2.0465134E-1,-4.064664E-1,2.2843257E-1,5.596292E-3,-1.8586421E-1,6.1551105E-2,4.119062E-1,1.7095342E-1,1.8120371E-1,-6.085002E-1,3.7508005E-1,8.233952E-1,4.329711E-1,-2.1495437E-2,1.7458012E0,1.0931466E0,-7.30011E-3,3.815702E-1,6.26188E-1,2.3354995E-1],"split_indices":[10,10,2,10,2,0,2,1,2,1,2,4,1,6,0,9,0,8,8,4,4,1,10,1,2,6,6,0,1,6,6,0,0,0,0,0,0,0,0,0,0,0,0,0,0,0,0,0,0,0,0,0,0,0,0,0,0,0,0],"split_type":[0,0,0,0,0,0,0,0,0,0,0,0,0,0,0,0,0,0,0,0,0,0,0,0,0,0,0,0,0,0,0,0,0,0,0,0,0,0,0,0,0,0,0,0,0,0,0,0,0,0,0,0,0,0,0,0,0,0,0],"sum_hessian":[7.74E2,5.59E2,2.15E2,3.38E2,2.21E2,1.19E2,9.6E1,2.29E2,1.09E2,1.26E2,9.5E1,7.6E1,4.3E1,6.6E1,3E1,1.57E2,7.2E1,6.5E1,4.4E1,8.2E1,4.4E1,6.2E1,3.3E1,7.1E1,5E0,2.7E1,1.6E1,2E0,6.4E1,9E0,2.1E1,1.02E2,5.5E1,6.2E1,3E0,9E0,3.5E1,8E1,2E0,3.9E1,5E0,4.7E1,1.5E1,1.4E1,1.9E1,4.9E1,2.2E1,3E0,2E0,5E0,2.2E1,1.5E1,1E0,4.6E1,1.8E1,4E0,5E0,1.7E1,4E0],"tree_param":{"num_deleted":"0","num_feature":"14","num_nodes":"59","size_leaf_vector":"1"}},{"base_weights":[-1.05528176E-1,-6.4039016E0,1.22387495E1,-9.321752E0,-5.1612526E-1,8.30025E0,3.1579565E1,-1.038647E1,-7.168269E0,-9.497585E-1,1.4764265E1,1.4598469E0,1.0011719E1,2.3278288E1,3.886874E1,-5.40547E-1,-9.166312E0,-7.6266823E0,-5.0845575E0,-2.2149045E0,1.7081735E0,3.3010414E-1,9.002513E-1,2.6355317E0,-5.8073014E-1,6.7144713E0,1.4888195E1,2.4118711E1,9.8713875E-2,2.0971282E0,1.1584575E0,-4.71136E-1,-1.35406E-1,-4.1494295E-1,-3.3603644E-1,-3.5488192E-2,-3.071384E-1,-1.8432209E-1,-5.2851964E-2,1.3316272E-1,-2.2373016E-1,9.154259E-2,3.704119E-1,2.0219374E-2,-1.6114567E-1,4.0800816E-1,2.0725584E-1,6.1359566E-1,1.2093178E0,1.242841E0,1.970088E-1],"categories":[],"categories_nodes":[],"categories_segments":[],"categories_sizes":[],"default_left":[0,0,0,0,0,0,0,0,0,0,0,0,0,0,0,0,0,0,0,0,0,0,0,0,0,0,0,0,0,0,0,0,0,0,0,0,0,0,0,0,0,0,0,0,0,0,0,0,0,0,0],"id":12,"left_children":[1,3,5,7,9,11,13,15,17,19,21,23,25,27,29,-1,31,33,35,37,39,-1,-1,41,43,45,47,49,-1,-1,-1,-1,-1,-1,-1,-1,-1,-1,-1,-1,-1,-1,-1,-1,-1,-1,-1,-1,-1,-1,-1],"loss_changes":[6.3054965E4,9.22066E3,2.0609496E4,7.486797E2,1.2000919E3,2.6663184E3,1.8786367E3,2.4167969E1,7.7756836E1,5.9225104E2,1.3387695E1,1.1428706E2,2.8424824E3,3.8208887E2,1.3815234E2,0E0,8.708496E1,3.9033203E0,1.113764E2,1.9886041E2,3.4850494E2,0E0,0E0,1.0165164E2,4.8154808E1,3.7848438E2,1.4790303E3,2.4462012E2,0E0,0E0,0E0,0E0,0E0,0E0,0E0,0E0,0E0,0E0,0E0,0E0,0E0,0E0,0E0,0E0,0E0,0E0,0E0,0E0,0E0,0E0,0E0],"parents":[2147483647,0,0,1,1,2,2,3,3,4,4,5,5,6,6,7,7,8,8,9,9,10,10,11,11,12,12,13,13,14,14,16,16,17,17,18,18,19,19,20,20,23,23,24,24,25,25,26,26,27,27],"right_children":[2,4,6,8,10,12,14,16,18,20,22,24,26,28,30,-1,32,34,36,38,40,-1,-1,42,44,46,48,50,-1,-1,-1,-1,-1,-1,-1,-1,-1,-1,-1,-1,-1,-1,-1,-1,-1,-1,-1,-1,-1,-1,-1],"split_conditions":[3.2E1,1.8E1,7E1,1.2E1,4.5E1,3.2E1,2.9672197E1,1E1,1.8E1,3E1,2.3E1,6E0,3.002706E1,3E1,3.3420887E1,-5.40547E-1,7E0,4E0,3E0,2.3E1,7E0,3.3010414E-1,9.002513E-1,2.8E1,1E0,2.6724094E1,5.6E1,2.9349894E1,9.8713875E-2,2.0971282E0,1.1584575E0,-4.71136E-1,-1.35406E-1,-4.1494295E-1,-3.3603644E-1,-3.5488192E-2,-3.071384E-1,-1.8432209E-1,-5.2851964E-2,1.3316272E-1,-2.2373016E-1,9.154259E-2,3.704119E-1,2.0219374E-2,-1.6114567E-1,4.0800816E-1,2.0725584E-1,6.1359566E-1,1.2093178E0,1.242841E0,1.970088E-1],"split_indices":[6,6,9,9,7,8,0,9,9,9,3,2,0,3,0,0,4,2,4,6,4,0,0,3,12,0,9,0,0,0,0,0,0,0,0,0,0,0,0,0,0,0,0,0,0,0,0,0,0,0,0],"split_type":[0,0,0,0,0,0,0,0,0,0,0,0,0,0,0,0,0,0,0,0,0,0,0,0,0,0,0,0,0,0,0,0,0,0,0,0,0,0,0,0,0,0,0,0,0,0,0,0,0,0,0],"sum_hessian":[8.09E2,5.36E2,2.73E2,3.58E2,1.78E2,2.28E2,4.5E1,2.37E2,1.21E2,1.74E2,4E0,4.6E1,1.82E2,2.3E1,2.2E1,1.7E2,6.7E1,9.7E1,2.4E1,1.18E2,5.6E1,2E0,2E0,2.9E1,1.7E1,1.1E2,7.2E1,2.2E1,1E0,1.7E1,5E0,6.4E1,3E0,5.1E1,4.6E1,5E0,1.9E1,5.1E1,6.7E1,4.9E1,7E0,2.6E1,3E0,1.3E1,4E0,6.9E1,4.1E1,5.8E1,1.4E1,2.1E1,1E0],"tree_param":{"num_deleted":"0","num_feature":"14","num_nodes":"51","size_leaf_vector":"1"}},{"base_weights":[-7.266987E-2,-5.5629115E0,1.4242402E1,-8.813163E0,-2.2004458E-1,7.891074E0,2.2003826E1,-9.912123E0,-6.737179E0,-1.8232874E0,2.106229E0,5.1719155E0,1.157516E1,2.9422943E1,8.409151E0,-9.332444E0,-5.634923E-1,-7.7691274E0,-5.1192303E0,-1.4969367E0,-4.8086977E-1,-4.0471442E-2,3.706525E0,5.9621835E0,-1.8955002E0,1.4298719E1,7.0034695E0,2.1152943E1,1.9833084E0,3.865551E0,9.780517E0,-4.9992782E-1,-4.2221037E-1,-3.410325E-1,-4.6013466E-1,-2.7722976E-1,6.856475E-2,-1.8689986E-2,-1.8150198E-1,6.318227E-2,-1.229756E-1,2.3100698E-1,-8.9083545E-2,8.255267E-2,3.5041076E-1,1.7119598E-1,-5.951254E-1,2.0677395E-1,7.249822E-1,3.9436933E-1,-4.6458244E-2,-3.310046E-1,1.146456E0,-1.763691E-2,3.3682668E-1,5.055309E-1,2.9946996E-2],"categories":[],"categories_nodes":[],"categories_segments":[],"categories_sizes":[],"default_left":[0,0,0,0,0,0,0,0,0,0,0,0,0,0,0,0,0,0,0,0,0,0,0,0,0,0,0,0,0,0,0,0,0,0,0,0,0,0,0,0,0,0,0,0,0,0,0,0,0,0,0,0,0,0,0,0,0],"id":13,"left_children":[1,3,5,7,9,11,13,15,17,19,21,23,25,27,29,31,-1,33,35,37,-1,39,41,43,45,47,49,51,-1,53,55,-1,-1,-1,-1,-1,-1,-1,-1,-1,-1,-1,-1,-1,-1,-1,-1,-1,-1,-1,-1,-1,-1,-1,-1,-1,-1],"loss_changes":[6.208926E4,9.913854E3,1.0622051E4,7.43125E2,8.131594E2,1.1622827E3,9.636906E3,7.584375E1,1.7060205E2,3.1372925E2,3.0589673E2,4.1343225E2,5.34874E2,4.4977656E3,1.8650659E2,1.437793E1,0E0,3.920996E1,1.5116699E2,2.9811398E2,0E0,1.2614171E2,2.6395044E2,2.815515E2,4.6660498E2,3.3408203E0,1.5457654E2,1.9769961E3,0E0,1.23482605E2,7.577734E1,0E0,0E0,0E0,0E0,0E0,0E0,0E0,0E0,0E0,0E0,0E0,0E0,0E0,0E0,0E0,0E0,0E0,0E0,0E0,0E0,0E0,0E0,0E0,0E0,0E0,0E0],"parents":[2147483647,0,0,1,1,2,2,3,3,4,4,5,5,6,6,7,7,8,8,9,9,10,10,11,11,12,12,13,13,14,14,15,15,17,17,18,18,19,19,21,21,22,22,23,23,24,24,25,25,26,26,27,27,29,29,30,30],"right_children":[2,4,6,8,10,12,14,16,18,20,22,24,26,28,30,32,-1,34,36,38,-1,40,42,44,46,48,50,52,-1,54,56,-1,-1,-1,-1,-1,-1,-1,-1,-1,-1,-1,-1,-1,-1,-1,-1,-1,-1,-1,-1,-1,-1,-1,-1,-1,-1],"split_conditions":[4.157143E1,2.2E1,4E0,1.0857142E1,4E0,2.9578587E1,6E0,1.3485152E0,4E0,9E0,2.6428572E1,7E0,3.179701E-1,2.9672197E1,2.368869E1,8.714286E0,-5.634923E-1,3.179701E-1,2.3E1,3.179701E-1,-4.8086977E-1,6E0,3.6E1,5.257143E1,2E0,3E1,6.5E1,2.2E1,1.9833084E0,8.5E1,7E0,-4.9992782E-1,-4.2221037E-1,-3.410325E-1,-4.6013466E-1,-2.7722976E-1,6.856475E-2,-1.8689986E-2,-1.8150198E-1,6.318227E-2,-1.229756E-1,2.3100698E-1,-8.9083545E-2,8.255267E-2,3.5041076E-1,1.7119598E-1,-5.951254E-1,2.0677395E-1,7.249822E-1,3.9436933E-1,-4.6458244E-2,-3.310046E-1,1.146456E0,-1.763691E-2,3.3682668E-1,5.055309E-1,2.9946996E-2],"split_indices":[10,10,2,10,2,0,2,1,2,4,10,4,1,0,0,10,0,1,6,1,0,2,7,10,2,6,7,6,0,6,4,0,0,0,0,0,0,0,0,0,0,0,0,0,0,0,0,0,0,0,0,0,0,0,0,0,0],"split_type":[0,0,0,0,0,0,0,0,0,0,0,0,0,0,0,0,0,0,0,0,0,0,0,0,0,0,0,0,0,0,0,0,0,0,0,0,0,0,0,0,0,0,0,0,0,0,0,0,0,0,0,0,0,0,0,0,0],"sum_hessian":[7.88E2,5.7E2,2.18E2,3.54E2,2.16E2,1.21E2,9.7E1,2.29E2,1.25E2,1.28E2,8.8E1,7.1E1,5E1,6.2E1,3.5E1,1.66E2,6.3E1,7.4E1,5.1E1,1.24E2,4E0,3.8E1,5E1,6.4E1,7E0,3E1,2E1,3.6E1,2.6E1,9E0,2.6E1,8.9E1,7.7E1,4.8E1,2.6E1,4.8E1,3E0,8.2E1,4.2E1,2.5E1,1.3E1,4.3E1,7E0,1.3E1,5.1E1,5E0,2E0,1E0,2.9E1,1.8E1,2E0,2E0,3.4E1,4E0,5E0,2.5E1,1E0],"tree_param":{"num_deleted":"0","num_feature":"14","num_nodes":"57","size_leaf_vector":"1"}},{"base_weights":[1.24554306E-1,-5.1396303E0,1.3849326E1,-8.399848E0,-3.3957234E-1,9.163157E0,2.4810968E1,-9.371013E0,-6.5646734E0,-2.5494373E0,1.4139328E0,6.837484E0,1.2450848E1,-3.1997108E-1,2.5903353E1,-5.0965184E-1,-4.3005258E-1,-3.7012967E-1,-5.136116E0,-5.103464E0,-1.985229E0,2.1200671E0,-1.6366342E0,7.759613E0,3.3063931E0,1.769924E1,9.5981245E0,1.9885008E1,3.0149885E1,-3.149462E-1,-1.5148906E-1,8.031677E-2,-3.0212927E-1,2.659581E-1,-1.1112332E-1,8.080842E-2,3.1624982E-1,-2.6402474E-4,-1.2769704E-1,4.5215058E-1,2.619078E-1,2.559298E-1,1.017339E-1,5.819417E-1,1.5455226E0,2.116922E-1,5.547683E-1,3.924673E-1,1.1341735E0,1.5888063E0,7.0186096E-1],"categories":[],"categories_nodes":[],"categories_segments":[],"categories_sizes":[],"default_left":[0,0,0,0,0,0,0,0,0,0,0,0,0,0,0,0,0,0,0,0,0,0,0,0,0,0,0,0,0,0,0,0,0,0,0,0,0,0,0,0,0,0,0,0,0,0,0,0,0,0,0],"id":14,"left_children":[1,3,5,7,9,11,13,15,17,19,21,23,25,-1,27,-1,-1,-1,29,31,33,35,37,39,41,43,45,47,49,-1,-1,-1,-1,-1,-1,-1,-1,-1,-1,-1,-1,-1,-1,-1,-1,-1,-1,-1,-1,-1,-1],"loss_changes":[5.7076215E4,8.932859E3,1.102227E4,5.444512E2,9.02607E2,1.1000127E3,2.3818633E3,5.1572266E1,1.0681836E2,1.3829181E2,2.835041E2,2.771631E2,7.7336914E2,0E0,1.0105664E3,0E0,0E0,0E0,9.848035E1,1.231301E2,1.6084888E2,2.1437674E2,3.7397804E1,1.8886182E2,3.7982025E1,1.3216099E3,2.983838E2,7.9870703E2,4.7105664E2,0E0,0E0,0E0,0E0,0E0,0E0,0E0,0E0,0E0,0E0,0E0,0E0,0E0,0E0,0E0,0E0,0E0,0E0,0E0,0E0,0E0,0E0],"parents":[2147483647,0,0,1,1,2,2,3,3,4,4,5,5,6,6,7,7,8,8,9,9,10,10,11,11,12,12,14,14,18,18,19,19,20,20,21,21,22,22,23,23,24,24,25,25,26,26,27,27,28,28],"right_children":[2,4,6,8,10,12,14,16,18,20,22,24,26,-1,28,-1,-1,-1,30,32,34,36,38,40,42,44,46,48,50,-1,-1,-1,-1,-1,-1,-1,-1,-1,-1,-1,-1,-1,-1,-1,-1,-1,-1,-1,-1,-1,-1],"split_conditions":[4.157143E1,1.8E1,6E1,1.2E1,2.6714285E1,2.9358807E1,2.2E1,8.142858E0,1.6E1,2.2E1,1E0,1E0,5.3142857E1,-3.1997108E-1,2.8749432E1,-5.0965184E-1,-4.3005258E-1,-3.7012967E-1,3.1309984E1,1.3285714E1,1.6E1,3.9E1,2.7E1,2.6642822E1,4.4E1,4.2E1,4.7E1,5.3E1,1E0,-3.149462E-1,-1.5148906E-1,8.031677E-2,-3.0212927E-1,2.659581E-1,-1.1112332E-1,8.080842E-2,3.1624982E-1,-2.6402474E-4,-1.2769704E-1,4.5215058E-1,2.619078E-1,2.559298E-1,1.017339E-1,5.819417E-1,1.5455226E0,2.116922E-1,5.547683E-1,3.924673E-1,1.1341735E0,1.5888063E0,7.0186096E-1],"split_indices":[10,6,9,6,10,0,6,10,9,10,12,12,10,0,0,0,0,0,0,10,8,9,8,0,6,9,8,10,12,0,0,0,0,0,0,0,0,0,0,0,0,0,0,0,0,0,0,0,0,0,0],"split_type":[0,0,0,0,0,0,0,0,0,0,0,0,0,0,0,0,0,0,0,0,0,0,0,0,0,0,0,0,0,0,0,0,0,0,0,0,0,0,0,0,0,0,0,0,0,0,0,0,0,0,0],"sum_hessian":[7.88E2,5.7E2,2.18E2,3.39E2,2.31E2,1.54E2,6.4E1,2.19E2,1.2E2,1.02E2,1.29E2,9.2E1,6.2E1,2E0,6.2E1,1E2,1.19E2,7.3E1,4.7E1,1.7E1,8.5E1,1.05E2,2.4E1,7.2E1,2E1,2E1,4.2E1,2.8E1,3.4E1,2.9E1,1.8E1,2E0,1.5E1,2E0,8.3E1,9.5E1,1E1,9E0,1.5E1,4.6E1,2.6E1,7E0,1.3E1,1.5E1,5E0,1E1,3.2E1,6E0,2.2E1,3E1,4E0],"tree_param":{"num_deleted":"0","num_feature":"14","num_nodes":"51","size_leaf_vector":"1"}},{"base_weights":[4.6599224E-1,-4.865222E0,1.206485E1,-7.9881225E0,2.5239782E-2,6.905324E0,2.3145529E1,-9.037278E0,-6.1319366E0,-7.4932516E-1,5.879941E0,1.8477086E0,8.423937E0,7.891734E0,2.6894243E1,-8.560979E0,-5.055591E-1,-5.381597E0,-8.015239E0,2.7953476E-1,-3.197859E0,3.7400622E0,9.268608E0,1.0583681E0,3.6596432E-1,9.813672E0,4.85832E0,1.0691952E1,9.760106E-1,3.1907867E1,1.0172476E1,-4.325303E-1,-2.097914E-1,-3.0029342E-1,-1.0399788E-1,-4.1459447E-1,-1.24238394E-1,-1.2774658E-1,5.7871588E-2,-2.028625E-1,-3.979018E-2,2.3837546E-1,5.309124E-2,5.924326E-1,7.9484945E-3,-5.9675496E-2,1.093505E-1,5.5864006E-1,1.7272092E-1,3.4299802E-2,2.8747895E-1,-1.3867664E-2,6.456774E-1,1.4548096E-1,-2.173008E-1,1.6410513E0,6.828941E-1,6.486187E-1,7.091125E-2],"categories":[],"categories_nodes":[],"categories_segments":[],"categories_sizes":[],"default_left":[0,0,0,0,0,0,0,0,0,0,0,0,0,0,0,0,0,0,0,0,0,0,0,0,0,0,0,0,0,0,0,0,0,0,0,0,0,0,0,0,0,0,0,0,0,0,0,0,0,0,0,0,0,0,0,0,0,0,0],"id":15,"left_children":[1,3,5,7,9,11,13,15,17,19,21,23,25,27,29,31,-1,33,35,37,39,41,43,45,-1,47,49,51,53,55,57,-1,-1,-1,-1,-1,-1,-1,-1,-1,-1,-1,-1,-1,-1,-1,-1,-1,-1,-1,-1,-1,-1,-1,-1,-1,-1,-1,-1],"loss_changes":[4.909464E4,8.308401E3,1.4132934E4,5.911289E2,9.703283E2,1.3054922E3,4.3051445E3,2.0853516E1,1.3067871E2,4.770224E2,1.4661823E2,1.6932994E2,6.06416E2,3.1877856E2,4.957129E3,2.3170898E1,0E0,1.7506982E2,2.9886963E1,3.3639868E2,1.12372314E2,4.1717422E1,2.0964587E2,9.664807E1,0E0,7.738506E2,1.4108197E2,2.9601416E2,7.438954E1,3.5166406E2,3.7377844E2,0E0,0E0,0E0,0E0,0E0,0E0,0E0,0E0,0E0,0E0,0E0,0E0,0E0,0E0,0E0,0E0,0E0,0E0,0E0,0E0,0E0,0E0,0E0,0E0,0E0,0E0,0E0,0E0],"parents":[2147483647,0,0,1,1,2,2,3,3,4,4,5,5,6,6,7,7,8,8,9,9,10,10,11,11,12,12,13,13,14,14,15,15,17,17,18,18,19,19,20,20,21,21,22,22,23,23,25,25,26,26,27,27,28,28,29,29,30,30],"right_children":[2,4,6,8,10,12,14,16,18,20,22,24,26,28,30,32,-1,34,36,38,40,42,44,46,-1,48,50,52,54,56,58,-1,-1,-1,-1,-1,-1,-1,-1,-1,-1,-1,-1,-1,-1,-1,-1,-1,-1,-1,-1,-1,-1,-1,-1,-1,-1,-1,-1],"split_conditions":[3.4E1,1.8E1,5.6E1,1.2E1,3.8E1,3.4E1,4E0,3.179701E-1,3.179701E-1,3.179701E-1,3.7E1,4.7E1,2.6189482E0,6E1,3.179701E-1,1.5E1,-5.055591E-1,1.8E1,2.3E1,2.1E1,3.2E1,4.3E1,1.54573965E1,2.4E1,3.6596432E-1,4.9E1,3.6E1,1.6E1,2E0,6E0,9.2E1,-4.325303E-1,-2.097914E-1,-3.0029342E-1,-1.0399788E-1,-4.1459447E-1,-1.24238394E-1,-1.2774658E-1,5.7871588E-2,-2.028625E-1,-3.979018E-2,2.3837546E-1,5.309124E-2,5.924326E-1,7.9484945E-3,-5.9675496E-2,1.093505E-1,5.5864006E-1,1.7272092E-1,3.4299802E-2,2.8747895E-1,-1.3867664E-2,6.456774E-1,1.4548096E-1,-2.173008E-1,1.6410513E0,6.828941E-1,6.486187E-1,7.091125E-2],"split_indices":[6,6,9,9,9,8,2,1,1,1,7,6,1,9,1,8,0,9,7,9,9,9,1,8,0,9,7,3,2,2,9,0,0,0,0,0,0,0,0,0,0,0,0,0,0,0,0,0,0,0,0,0,0,0,0,0,0,0,0],"split_type":[0,0,0,0,0,0,0,0,0,0,0,0,0,0,0,0,0,0,0,0,0,0,0,0,0,0,0,0,0,0,0,0,0,0,0,0,0,0,0,0,0,0,0,0,0,0,0,0,0,0,0,0,0,0,0,0,0,0,0],"sum_hessian":[7.92E2,5.43E2,2.49E2,3.31E2,2.12E2,1.71E2,7.8E1,2.09E2,1.22E2,1.88E2,2.4E1,4E1,1.31E2,1.6E1,6.2E1,1.51E2,5.8E1,9E1,3.2E1,1.33E2,5.5E1,1.6E1,8E0,3.6E1,4E0,9.3E1,3.8E1,1.1E1,5E0,4.7E1,1.5E1,1.47E2,4E0,7.5E1,1.5E1,3E1,2E0,3.1E1,1.02E2,4E1,1.5E1,1.1E1,5E0,6E0,2E0,1.2E1,2.4E1,7.6E1,1.7E1,7E0,3.1E1,2E0,9E0,4E0,1E0,4.4E1,3E0,1.1E1,4E0],"tree_param":{"num_deleted":"0","num_feature":"14","num_nodes":"59","size_leaf_vector":"1"}},{"base_weights":[7.08507E-2,-4.7083106E0,1.2136308E1,-7.52329E0,1.6925502E-1,6.2345853E0,2.0022474E1,-8.509414E0,-5.777932E0,-1.5132079E0,2.2479E0,4.08538E0,9.660117E0,2.5526722E1,7.2457128E0,-7.9943132E0,-4.857621E-1,-4.998821E0,-3.8216245E-1,-1.2467104E0,-4.2984173E-1,3.0966113E0,-1.0047272E0,4.7470512E0,-2.5457532E0,1.2724835E1,4.5800347E0,1.7100254E1,3.2073772E1,4.9024615E0,1.2168581E1,-4.256444E-1,-3.37381E-1,-2.562623E-1,1.7528978E-1,-1.3659298E-2,-1.6063438E-1,8.929935E-2,2.6559603E-1,-1.8268459E-1,3.5134565E-2,3.296124E-2,2.7638054E-1,1.2838684E-1,-5.9620744E-1,7.0007366E-1,3.7319478E-1,2.7477646E-1,-2.2791242E-2,9.2225933E-1,-8.004205E-2,3.776521E-1,1.6647009E0,2.820206E-1,-8.256798E-2,4.414921E-2,6.734454E-1],"categories":[],"categories_nodes":[],"categories_segments":[],"categories_sizes":[],"default_left":[0,0,0,0,0,0,0,0,0,0,0,0,0,0,0,0,0,0,0,0,0,0,0,0,0,0,0,0,0,0,0,0,0,0,0,0,0,0,0,0,0,0,0,0,0,0,0,0,0,0,0,0,0,0,0,0,0],"id":16,"left_children":[1,3,5,7,9,11,13,15,17,19,21,23,25,27,29,31,-1,33,-1,35,-1,37,39,41,43,45,47,49,51,53,55,-1,-1,-1,-1,-1,-1,-1,-1,-1,-1,-1,-1,-1,-1,-1,-1,-1,-1,-1,-1,-1,-1,-1,-1,-1,-1],"loss_changes":[4.532241E4,7.7314023E3,1.0254027E4,5.652793E2,7.273309E2,9.102549E2,6.4960547E3,6.2706055E1,1.5362695E2,2.0637561E2,2.5984158E2,3.6748303E2,7.046011E2,3.0926562E3,2.8640955E2,4.8585938E1,0E0,1.21187256E2,0E0,2.1348213E2,0E0,2.0536743E2,9.302523E1,2.3247485E2,4.1426868E2,9.698389E1,9.471106E1,8.0923145E2,8.256953E2,1.15714966E2,1.2018176E2,0E0,0E0,0E0,0E0,0E0,0E0,0E0,0E0,0E0,0E0,0E0,0E0,0E0,0E0,0E0,0E0,0E0,0E0,0E0,0E0,0E0,0E0,0E0,0E0,0E0,0E0],"parents":[2147483647,0,0,1,1,2,2,3,3,4,4,5,5,6,6,7,7,8,8,9,9,10,10,11,11,12,12,13,13,14,14,15,15,17,17,19,19,21,21,22,22,23,23,24,24,25,25,26,26,27,27,28,28,29,29,30,30],"right_children":[2,4,6,8,10,12,14,16,18,20,22,24,26,28,30,32,-1,34,-1,36,-1,38,40,42,44,46,48,50,52,54,56,-1,-1,-1,-1,-1,-1,-1,-1,-1,-1,-1,-1,-1,-1,-1,-1,-1,-1,-1,-1,-1,-1,-1,-1,-1,-1],"split_conditions":[3.357143E1,2.2E1,4E0,1.0857142E1,4E0,3.002706E1,6E0,3.179701E-1,4.9719653E0,9E0,3.179701E-1,7E0,3.179701E-1,2.911955E1,4.9E1,1E1,-4.857621E-1,2.3E1,-3.8216245E-1,1.3485152E0,-4.2984173E-1,2.8571428E1,3.2E1,3.5E1,2E0,4.9E1,6.4E1,1.22E2,4.2E1,5.7E1,2.332335E1,-4.256444E-1,-3.37381E-1,-2.562623E-1,1.7528978E-1,-1.3659298E-2,-1.6063438E-1,8.929935E-2,2.6559603E-1,-1.8268459E-1,3.5134565E-2,3.296124E-2,2.7638054E-1,1.2838684E-1,-5.9620744E-1,7.0007366E-1,3.7319478E-1,2.7477646E-1,-2.2791242E-2,9.2225933E-1,-8.004205E-2,3.776521E-1,1.6647009E0,2.820206E-1,-8.256798E-2,4.414921E-2,6.734454E-1],"split_indices":[10,10,2,10,2,0,2,1,1,4,1,4,1,0,8,9,0,7,0,1,0,10,9,9,2,9,7,9,9,9,0,0,0,0,0,0,0,0,0,0,0,0,0,0,0,0,0,0,0,0,0,0,0,0,0,0,0],"split_type":[0,0,0,0,0,0,0,0,0,0,0,0,0,0,0,0,0,0,0,0,0,0,0,0,0,0,0,0,0,0,0,0,0,0,0,0,0,0,0,0,0,0,0,0,0,0,0,0,0,0,0,0,0,0,0,0,0],"sum_hessian":[7.84E2,5.62E2,2.22E2,3.56E2,2.06E2,1.28E2,9.4E1,2.25E2,1.31E2,1.14E2,9.2E1,8E1,4.8E1,6.5E1,2.9E1,1.63E2,6.2E1,9.5E1,3.6E1,1.11E2,3E0,7.3E1,1.9E1,7.3E1,7E0,2.9E1,1.9E1,3E1,3.5E1,2.1E1,8E0,1.11E2,5.2E1,9.4E1,1E0,7.5E1,3.6E1,4.7E1,2.6E1,7E0,1.2E1,1.2E1,6.1E1,5E0,2E0,2.2E1,7E0,1.6E1,3E0,2.8E1,2E0,2E0,3.3E1,1.9E1,2E0,1E0,7E0],"tree_param":{"num_deleted":"0","num_feature":"14","num_nodes":"57","size_leaf_vector":"1"}},{"base_weights":[-7.215221E-2,-4.4383883E0,1.1336733E1,-7.1553626E0,-2.767864E-1,6.5594177E0,1.7179192E1,-8.086783E0,-5.262955E0,7.227456E-1,-2.8584836E0,4.529133E0,9.552786E0,2.2560087E1,7.002746E0,-7.5923376E0,-4.6175846E-1,-4.435259E0,-6.910328E0,-4.8146796E-1,2.9110885E0,-3.511948E0,5.4988897E-1,5.8217635E0,1.9188237E0,1.212066E1,4.9954705E0,-3.2249388E-1,2.3616968E1,2.8460078E0,8.551601E0,-3.8819364E-1,-2.5938237E-1,-2.4828582E-1,-1.2354282E-1,-3.642705E-1,-9.9727444E-2,-7.737614E-2,6.948198E-2,9.5774025E-2,4.059395E-1,-2.9486802E-1,-1.570303E-1,-1.4943801E-1,6.013149E-2,2.1254523E-2,3.597313E-1,3.9969653E-2,1.8149869E-1,6.5634E-1,2.9541513E-1,3.075982E-1,7.322042E-2,1.3634679E0,6.2798244E-1,-6.454096E-2,2.6971558E-1,4.4525972E-1,1.6341209E-3],"categories":[],"categories_nodes":[],"categories_segments":[],"categories_sizes":[],"default_left":[0,0,0,0,0,0,0,0,0,0,0,0,0,0,0,0,0,0,0,0,0,0,0,0,0,0,0,0,0,0,0,0,0,0,0,0,0,0,0,0,0,0,0,0,0,0,0,0,0,0,0,0,0,0,0,0,0,0,0],"id":17,"left_children":[1,3,5,7,9,11,13,15,17,19,21,23,25,27,29,31,-1,33,35,37,39,41,43,45,47,49,51,-1,53,55,57,-1,-1,-1,-1,-1,-1,-1,-1,-1,-1,-1,-1,-1,-1,-1,-1,-1,-1,-1,-1,-1,-1,-1,-1,-1,-1,-1,-1],"loss_changes":[3.905459E4,6.4090693E3,5.9440605E3,5.620215E2,5.8267596E2,6.9209863E2,5.153584E3,5.9344727E1,1.27519775E2,4.3094443E2,1.4224799E2,2.3851733E2,5.0117676E2,2.083914E3,2.0099878E2,2.778418E1,0E0,7.109314E1,5.3690186E1,2.1358904E2,2.8516867E2,2.842633E1,2.90024E1,3.5997717E2,4.6901566E1,1.0995801E2,6.858029E1,0E0,2.1210312E3,1.229239E2,7.501477E1,0E0,0E0,0E0,0E0,0E0,0E0,0E0,0E0,0E0,0E0,0E0,0E0,0E0,0E0,0E0,0E0,0E0,0E0,0E0,0E0,0E0,0E0,0E0,0E0,0E0,0E0,0E0,0E0],"parents":[2147483647,0,0,1,1,2,2,3,3,4,4,5,5,6,6,7,7,8,8,9,9,10,10,11,11,12,12,13,13,14,14,15,15,17,17,18,18,19,19,20,20,21,21,22,22,23,23,24,24,25,25,26,26,28,28,29,29,30,30],"right_children":[2,4,6,8,10,12,14,16,18,20,22,24,26,28,30,32,-1,34,36,38,40,42,44,46,48,50,52,-1,54,56,58,-1,-1,-1,-1,-1,-1,-1,-1,-1,-1,-1,-1,-1,-1,-1,-1,-1,-1,-1,-1,-1,-1,-1,-1,-1,-1,-1,-1],"split_conditions":[4.157143E1,1.8E1,4E0,1.2285714E1,3.179701E-1,3.002706E1,6E0,3.179701E-1,3.179701E-1,3E1,3.6E1,3.179701E-1,3.179701E-1,2.2E1,2.368869E1,1.3E1,-4.6175846E-1,1.8E1,2.2E1,3E1,3.2E1,2.6189482E0,2.3E1,4.3E1,8.2E1,5E1,3.2940224E1,-3.2249388E-1,3.179701E-1,8.5E1,1.23E2,-3.8819364E-1,-2.5938237E-1,-2.4828582E-1,-1.2354282E-1,-3.642705E-1,-9.9727444E-2,-7.737614E-2,6.948198E-2,9.5774025E-2,4.059395E-1,-2.9486802E-1,-1.570303E-1,-1.4943801E-1,6.013149E-2,2.1254523E-2,3.597313E-1,3.9969653E-2,1.8149869E-1,6.5634E-1,2.9541513E-1,3.075982E-1,7.322042E-2,1.3634679E0,6.2798244E-1,-6.454096E-2,2.6971558E-1,4.4525972E-1,1.6341209E-3],"split_indices":[10,6,2,10,1,0,2,1,1,9,9,1,1,6,0,9,0,9,8,6,8,1,6,8,8,6,0,0,1,6,6,0,0,0,0,0,0,0,0,0,0,0,0,0,0,0,0,0,0,0,0,0,0,0,0,0,0,0,0],"split_type":[0,0,0,0,0,0,0,0,0,0,0,0,0,0,0,0,0,0,0,0,0,0,0,0,0,0,0,0,0,0,0,0,0,0,0,0,0,0,0,0,0,0,0,0,0,0,0,0,0,0,0,0,0,0,0,0,0,0,0],"sum_hessian":[7.82E2,5.66E2,2.16E2,3.42E2,2.24E2,1.2E2,9.6E1,2.27E2,1.15E2,1.62E2,6.2E1,7.3E1,4.7E1,6.2E1,3.4E1,1.64E2,6.3E1,7.9E1,3.6E1,1.05E2,5.7E1,5.2E1,1E1,4.8E1,2.5E1,2.9E1,1.8E1,2E0,6E1,1E1,2.4E1,1.51E2,1.3E1,6.1E1,1.8E1,3.3E1,3E0,6.7E1,3.8E1,4.9E1,8E0,5E0,4.7E1,1E0,9E0,1E1,3.8E1,1.6E1,9E0,2.4E1,5E0,1.3E1,5E0,4.4E1,1.6E1,4E0,6E0,2.3E1,1E0],"tree_param":{"num_deleted":"0","num_feature":"14","num_nodes":"59","size_leaf_vector":"1"}},{"base_weights":[1.6540945E-1,-4.3004947E0,1.1185707E1,-6.846684E0,-4.5144263E-1,6.859782E0,1.786067E1,-7.694827E0,-5.1641345E0,-1.394331E0,1.403857E0,4.5678363E0,1.0139914E1,1.291751E1,2.3573853E1,-7.1928034E0,-4.4215447E-1,-4.4429255E0,-6.529617E0,-6.331216E-1,-3.5289197E0,2.0252907E0,-3.024421E0,6.009061E0,1.6772481E0,6.0503583E0,1.3054716E1,9.128609E0,1.9356684E1,2.502569E1,3.8879309E0,-3.8979346E-1,-3.2310683E-1,-2.6228127E-1,-1.411359E-1,-9.302136E-2,-3.365862E-1,-1.2361666E-1,1.7811641E-2,-2.1097605E-1,-3.406729E-2,1.5967476E-1,-3.0778898E-2,-1.0547365E-2,-3.5959473E-1,4.019056E-1,2.0239913E-1,-1.0904459E-1,1.0153593E-1,-7.259889E-2,3.5460266E-1,9.017458E-1,4.457921E-1,-3.1174406E-1,5.1418334E-1,1.1618236E0,5.801196E-1,1.3324112E0,2.2860555E-1,2.4507324E-1,2.1183206E-2],"categories":[],"categories_nodes":[],"categories_segments":[],"categories_sizes":[],"default_left":[0,0,0,0,0,0,0,0,0,0,0,0,0,0,0,0,0,0,0,0,0,0,0,0,0,0,0,0,0,0,0,0,0,0,0,0,0,0,0,0,0,0,0,0,0,0,0,0,0,0,0,0,0,0,0,0,0,0,0,0,0],"id":18,"left_children":[1,3,5,7,9,11,13,15,17,19,21,23,25,27,29,31,-1,33,35,37,39,41,43,45,47,49,51,53,55,57,59,-1,-1,-1,-1,-1,-1,-1,-1,-1,-1,-1,-1,-1,-1,-1,-1,-1,-1,-1,-1,-1,-1,-1,-1,-1,-1,-1,-1,-1,-1],"loss_changes":[3.976509E4,5.6321475E3,6.6054453E3,4.5401855E2,4.043058E2,1.0287397E3,2.2654316E3,6.782617E1,8.8180664E1,2.463707E2,2.2077205E2,3.4819617E2,6.123887E2,1.0675674E3,1.0745137E3,2.1886719E1,0E0,9.0536865E1,2.4279419E1,2.0831879E2,7.578659E1,2.1483597E2,1.1573366E2,1.9427197E2,4.5340935E1,2.1349127E2,5.194136E2,6.674719E2,2.7193164E2,1.13925E3,1.196804E1,0E0,0E0,0E0,0E0,0E0,0E0,0E0,0E0,0E0,0E0,0E0,0E0,0E0,0E0,0E0,0E0,0E0,0E0,0E0,0E0,0E0,0E0,0E0,0E0,0E0,0E0,0E0,0E0,0E0,0E0],"parents":[2147483647,0,0,1,1,2,2,3,3,4,4,5,5,6,6,7,7,8,8,9,9,10,10,11,11,12,12,13,13,14,14,15,15,17,17,18,18,19,19,20,20,21,21,22,22,23,23,24,24,25,25,26,26,27,27,28,28,29,29,30,30],"right_children":[2,4,6,8,10,12,14,16,18,20,22,24,26,28,30,32,-1,34,36,38,40,42,44,46,48,50,52,54,56,58,60,-1,-1,-1,-1,-1,-1,-1,-1,-1,-1,-1,-1,-1,-1,-1,-1,-1,-1,-1,-1,-1,-1,-1,-1,-1,-1,-1,-1,-1,-1],"split_conditions":[3.357143E1,1.8E1,5.6E1,1.2285714E1,3E1,3.002706E1,2.9206076E1,3.179701E-1,4.162391E0,3.179701E-1,7E0,3.179701E-1,1.4E1,6.5E1,2.0692389E1,8.714286E0,-4.4215447E-1,1.7E1,2E0,2.3E1,2.9571428E1,3.179701E-1,7E0,5.5142857E1,4.6285713E1,3.4E1,2.1E1,2.2E1,4E0,7.2E1,3.0577978E1,-3.8979346E-1,-3.2310683E-1,-2.6228127E-1,-1.411359E-1,-9.302136E-2,-3.365862E-1,-1.2361666E-1,1.7811641E-2,-2.1097605E-1,-3.406729E-2,1.5967476E-1,-3.0778898E-2,-1.0547365E-2,-3.5959473E-1,4.019056E-1,2.0239913E-1,-1.0904459E-1,1.0153593E-1,-7.259889E-2,3.5460266E-1,9.017458E-1,4.457921E-1,-3.1174406E-1,5.1418334E-1,1.1618236E0,5.801196E-1,1.3324112E0,2.2860555E-1,2.4507324E-1,2.1183206E-2],"split_indices":[10,6,9,10,9,0,0,1,1,1,4,1,3,6,1,10,0,9,3,6,10,1,3,10,10,6,3,6,4,7,0,0,0,0,0,0,0,0,0,0,0,0,0,0,0,0,0,0,0,0,0,0,0,0,0,0,0,0,0,0,0],"split_type":[0,0,0,0,0,0,0,0,0,0,0,0,0,0,0,0,0,0,0,0,0,0,0,0,0,0,0,0,0,0,0,0,0,0,0,0,0,0,0,0,0,0,0,0,0,0,0,0,0,0,0,0,0,0,0,0,0,0,0,0,0],"sum_hessian":[8.06E2,5.74E2,2.32E2,3.45E2,2.29E2,1.42E2,9E1,2.27E2,1.18E2,1.52E2,7.7E1,8.5E1,5.7E1,5E1,4E1,1.63E2,6.4E1,8E1,3.8E1,1.13E2,3.9E1,6.8E1,9E0,5.6E1,2.9E1,2.5E1,3.2E1,3.3E1,1.7E1,3.7E1,3E0,8.4E1,7.9E1,5.2E1,2.8E1,2E0,3.6E1,3.9E1,7.4E1,3.1E1,8E0,4.7E1,2.1E1,6E0,3E0,2.6E1,3E1,2E0,2.7E1,3E0,2.2E1,1.3E1,1.9E1,2E0,3.1E1,1E1,7E0,3.4E1,3E0,2E0,1E0],"tree_param":{"num_deleted":"0","num_feature":"14","num_nodes":"61","size_leaf_vector":"1"}},{"base_weights":[4.7558848E-2,-3.9856477E0,1.0648384E1,-6.492434E0,-7.962951E-2,7.778461E0,2.0387945E1,-7.281093E0,-4.96533E0,7.6277435E-1,-2.462711E0,6.4809504E0,1.2428058E1,2.3514984E1,9.919611E0,-3.8793433E-1,-6.2821054E0,1.6935062E-1,-5.0623493E0,-1.1083348E0,2.1581607E0,-3.3943782E0,-8.5686773E-1,7.565876E0,2.431513E0,1.8633324E1,5.8952756E0,2.9872513E-1,2.4833092E1,1.7327652E1,4.701853E0,-3.2202432E-1,-8.511686E-2,-2.5803888E-1,1.687252E-1,1.21556334E-1,-7.943769E-2,-1.4849211E-1,1.3613899E-1,-5.9594538E-2,-1.8911092E-1,-1.4115004E-1,8.9876475E-3,4.6263835E-1,1.860749E-1,1.9899744E-1,-4.314153E-1,1.0104632E0,2.0086022E-1,4.269127E-1,-6.2710926E-2,-1.83875E-1,2.0627938E-1,1.3254211E0,6.1587995E-1,4.389477E-3,1.0807835E0,1.5250779E-2,3.424718E-1],"categories":[],"categories_nodes":[],"categories_segments":[],"categories_sizes":[],"default_left":[0,0,0,0,0,0,0,0,0,0,0,0,0,0,0,0,0,0,0,0,0,0,0,0,0,0,0,0,0,0,0,0,0,0,0,0,0,0,0,0,0,0,0,0,0,0,0,0,0,0,0,0,0,0,0,0,0,0,0],"id":19,"left_children":[1,3,5,7,9,11,13,15,17,19,21,23,25,27,29,-1,31,-1,33,35,37,39,41,43,45,47,49,51,53,55,57,-1,-1,-1,-1,-1,-1,-1,-1,-1,-1,-1,-1,-1,-1,-1,-1,-1,-1,-1,-1,-1,-1,-1,-1,-1,-1,-1,-1],"loss_changes":[3.3819145E4,5.610044E3,5.9349043E3,3.841709E2,4.5356982E2,9.450469E2,1.37075E3,6.0039062E1,1.1600757E2,4.384156E2,8.536206E1,5.747046E2,1.3495068E3,1.1248379E3,4.210216E2,0E0,4.6338623E1,0E0,1.1789624E2,1.2629303E2,2.860416E2,2.709787E1,4.738452E1,6.5298047E2,5.481028E2,3.334292E2,3.69732E2,6.082124E1,4.0734375E2,3.6772668E2,8.289395E1,0E0,0E0,0E0,0E0,0E0,0E0,0E0,0E0,0E0,0E0,0E0,0E0,0E0,0E0,0E0,0E0,0E0,0E0,0E0,0E0,0E0,0E0,0E0,0E0,0E0,0E0,0E0,0E0],"parents":[2147483647,0,0,1,1,2,2,3,3,4,4,5,5,6,6,7,7,8,8,9,9,10,10,11,11,12,12,13,13,14,14,16,16,18,18,19,19,20,20,21,21,22,22,23,23,24,24,25,25,26,26,27,27,28,28,29,29,30,30],"right_children":[2,4,6,8,10,12,14,16,18,20,22,24,26,28,30,-1,32,-1,34,36,38,40,42,44,46,48,50,52,54,56,58,-1,-1,-1,-1,-1,-1,-1,-1,-1,-1,-1,-1,-1,-1,-1,-1,-1,-1,-1,-1,-1,-1,-1,-1,-1,-1,-1,-1],"split_conditions":[4.157143E1,2.2E1,7.6E1,1.0857142E1,3.179701E-1,5.6E1,3.179701E-1,1E1,9E0,2.6428572E1,2.9142857E1,4.8E1,5.4714287E1,3.3E1,4.2E1,-3.8793433E-1,7E0,1.6935062E-1,2.4E1,5E0,2.2E1,2.4285715E1,7E0,3.179701E-1,7E0,7.2E1,6.1E1,1.2E1,6E0,3.6E1,5.4E1,-3.2202432E-1,-8.511686E-2,-2.5803888E-1,1.687252E-1,1.21556334E-1,-7.943769E-2,-1.4849211E-1,1.3613899E-1,-5.9594538E-2,-1.8911092E-1,-1.4115004E-1,8.9876475E-3,4.6263835E-1,1.860749E-1,1.9899744E-1,-4.314153E-1,1.0104632E0,2.0086022E-1,4.269127E-1,-6.2710926E-2,-1.83875E-1,2.0627938E-1,1.3254211E0,6.1587995E-1,4.389477E-3,1.0807835E0,1.5250779E-2,3.424718E-1],"split_indices":[10,10,9,10,1,9,1,9,7,10,10,9,10,6,6,0,4,0,6,3,6,10,3,1,4,7,9,3,4,6,6,0,0,0,0,0,0,0,0,0,0,0,0,0,0,0,0,0,0,0,0,0,0,0,0,0,0,0,0],"split_type":[0,0,0,0,0,0,0,0,0,0,0,0,0,0,0,0,0,0,0,0,0,0,0,0,0,0,0,0,0,0,0,0,0,0,0,0,0,0,0,0,0,0,0,0,0,0,0,0,0,0,0,0,0,0,0,0,0,0,0],"sum_hessian":[7.89E2,5.72E2,2.17E2,3.48E2,2.24E2,1.69E2,4.8E1,2.27E2,1.21E2,1.66E2,5.8E1,1.34E2,3.5E1,3.6E1,1.2E1,1.49E2,7.8E1,1E0,1.2E2,7.1E1,9.5E1,3.6E1,2.2E1,1.05E2,2.9E1,1.7E1,1.8E1,2E0,3.4E1,4E0,8E0,7.5E1,3E0,1.19E2,1E0,8E0,6.3E1,9E0,8.6E1,6E0,3E1,7E0,1.5E1,7.2E1,3.3E1,2.6E1,3E0,1.5E1,2E0,1.3E1,5E0,1E0,1E0,2.9E1,5E0,1E0,3E0,3E0,5E0],"tree_param":{"num_deleted":"0","num_feature":"14","num_nodes":"59","size_leaf_vector":"1"}},{"base_weights":[1.8925987E-1,-3.8872726E0,1.0823639E1,-6.234698E0,-8.2816325E-2,5.4417872E0,1.7032892E1,-6.9918966E0,-4.754952E0,-1.5057224E0,1.7433643E0,3.0583982E0,8.930135E0,2.1847368E1,6.012431E0,-6.498089E0,-4.0535972E-1,-3.8650095E0,-3.1628197E-1,-2.515576E0,-1.379948E-1,3.2447443E0,-1.357721E0,4.066047E0,1.0417368E0,5.087963E0,1.0475564E1,1.6215761E1,2.8772533E1,7.069433E0,1.0765057E0,-3.541335E-1,-2.8500268E-1,-1.9998334E-1,1.794221E-1,-9.654009E-2,-2.3239906E-1,2.6897062E-2,-1.18158415E-1,2.1099225E-1,6.4287856E-3,-6.7411573E-3,-1.4081052E-1,2.2315995E-1,-1.755675E-1,-4.7929246E-2,8.448814E-2,2.831809E-1,3.5279337E-2,5.466842E-1,1.048551E-1,8.715269E-1,1.5886879E-2,1.0963486E0,1.8282158E0,1.5229315E-1,4.0369916E-1,-4.4413805E-2,3.216299E-1],"categories":[],"categories_nodes":[],"categories_segments":[],"categories_sizes":[],"default_left":[0,0,0,0,0,0,0,0,0,0,0,0,0,0,0,0,0,0,0,0,0,0,0,0,0,0,0,0,0,0,0,0,0,0,0,0,0,0,0,0,0,0,0,0,0,0,0,0,0,0,0,0,0,0,0,0,0,0,0],"id":20,"left_children":[1,3,5,7,9,11,13,15,17,19,21,23,25,27,29,31,-1,33,-1,35,37,39,41,43,45,47,49,51,53,55,57,-1,-1,-1,-1,-1,-1,-1,-1,-1,-1,-1,-1,-1,-1,-1,-1,-1,-1,-1,-1,-1,-1,-1,-1,-1,-1,-1,-1],"loss_changes":[3.520005E4,5.241791E3,7.426199E3,3.7348145E2,5.872839E2,9.870071E2,5.3866523E3,7.839453E1,1.5167676E2,1.750658E2,4.6534024E2,1.4613867E2,2.3765308E2,2.341418E3,1.6456006E2,3.8936523E1,0E0,9.7656494E1,0E0,8.205484E1,8.399537E1,2.0304218E2,5.847855E1,1.6313141E2,3.532254E1,3.6367584E1,1.0757446E2,8.0558984E2,8.517676E2,8.453845E1,7.937879E1,0E0,0E0,0E0,0E0,0E0,0E0,0E0,0E0,0E0,0E0,0E0,0E0,0E0,0E0,0E0,0E0,0E0,0E0,0E0,0E0,0E0,0E0,0E0,0E0,0E0,0E0,0E0,0E0],"parents":[2147483647,0,0,1,1,2,2,3,3,4,4,5,5,6,6,7,7,8,8,9,9,10,10,11,11,12,12,13,13,14,14,15,15,17,17,19,19,20,20,21,21,22,22,23,23,24,24,25,25,26,26,27,27,28,28,29,29,30,30],"right_children":[2,4,6,8,10,12,14,16,18,20,22,24,26,28,30,32,-1,34,-1,36,38,40,42,44,46,48,50,52,54,56,58,-1,-1,-1,-1,-1,-1,-1,-1,-1,-1,-1,-1,-1,-1,-1,-1,-1,-1,-1,-1,-1,-1,-1,-1,-1,-1,-1,-1],"split_conditions":[4.157143E1,2.2E1,4E0,1.0857142E1,4E0,2.9358807E1,6E0,3.179701E-1,3.179701E-1,1.8E1,6E0,3.179701E-1,9E0,2.9672197E1,2.6E1,9E0,-4.0535972E-1,2.1285715E1,-3.1628197E-1,3E1,3.179701E-1,3.179701E-1,2E1,6.557143E1,7E0,3.3847836E1,1E0,1.22E2,1.8E1,2.368869E1,1.11E2,-3.541335E-1,-2.8500268E-1,-1.9998334E-1,1.794221E-1,-9.654009E-2,-2.3239906E-1,2.6897062E-2,-1.18158415E-1,2.1099225E-1,6.4287856E-3,-6.7411573E-3,-1.4081052E-1,2.2315995E-1,-1.755675E-1,-4.7929246E-2,8.448814E-2,2.831809E-1,3.5279337E-2,5.466842E-1,1.048551E-1,8.715269E-1,1.5886879E-2,1.0963486E0,1.8282158E0,1.5229315E-1,4.0369916E-1,-4.4413805E-2,3.216299E-1],"split_indices":[10,10,2,10,2,0,2,1,1,3,2,1,3,0,3,9,0,10,0,9,1,1,3,10,3,0,11,9,3,0,7,0,0,0,0,0,0,0,0,0,0,0,0,0,0,0,0,0,0,0,0,0,0,0,0,0,0,0,0],"split_type":[0,0,0,0,0,0,0,0,0,0,0,0,0,0,0,0,0,0,0,0,0,0,0,0,0,0,0,0,0,0,0,0,0,0,0,0,0,0,0,0,0,0,0,0,0,0,0,0,0,0,0,0,0,0,0,0,0,0,0],"sum_hessian":[8.1E2,5.86E2,2.24E2,3.62E2,2.24E2,1.21E2,1.03E2,2.37E2,1.25E2,1.26E2,9.8E1,7.3E1,4.8E1,7.1E1,3.2E1,1.69E2,6.8E1,8.2E1,4.3E1,7.2E1,5.4E1,6.6E1,3.2E1,4.8E1,2.5E1,1.5E1,3.3E1,4.1E1,3E1,2.6E1,6E0,9.3E1,7.6E1,8.1E1,1E0,5.8E1,1.4E1,4.2E1,1.2E1,5E1,1.6E1,1.8E1,1.4E1,4.6E1,2E0,6E0,1.9E1,1.3E1,2E0,3.1E1,2E0,3.8E1,3E0,1.8E1,1.2E1,6E0,2E1,5E0,1E0],"tree_param":{"num_deleted":"0","num_feature":"14","num_nodes":"59","size_leaf_vector":"1"}},{"base_weights":[-2.1388419E-1,-3.692609E0,8.922649E0,-5.9197736E0,-2.2389276E-1,6.8302813E0,1.7473896E1,-6.6346326E0,-4.551356E0,-1.7237753E0,9.521695E-1,4.853443E0,9.728129E0,-3.1651622E-1,1.8789474E1,-6.2195597E0,-3.7994897E-1,-3.8527997E0,-6.049292E0,-1.5057367E0,-3.317388E-1,1.8961585E0,-1.446294E0,8.4506446E-1,4.4702935E0,1.1650323E1,5.1264863E0,2.1783733E1,7.328902E0,-3.5409597E-1,-2.866424E-1,-2.1627644E-1,-9.541935E-2,-3.1490847E-1,-1.17964365E-1,-4.0058974E-2,-1.4041992E-1,7.284877E-2,2.9166576E-1,-1.20598964E-1,6.542161E-3,2.9537052E-1,1.096974E-1,5.389714E-1,1.0850595E0,3.0678198E-1,9.716653E-2,2.0072518E-1,1.1113718E0,6.27636E-1,8.771181E-2],"categories":[],"categories_nodes":[],"categories_segments":[],"categories_sizes":[],"default_left":[0,0,0,0,0,0,0,0,0,0,0,0,0,0,0,0,0,0,0,0,0,0,0,0,0,0,0,0,0,0,0,0,0,0,0,0,0,0,0,0,0,0,0,0,0,0,0,0,0,0,0],"id":21,"left_children":[1,3,5,7,9,11,13,15,17,19,21,23,25,-1,27,29,-1,31,33,35,-1,37,39,-1,41,43,45,47,49,-1,-1,-1,-1,-1,-1,-1,-1,-1,-1,-1,-1,-1,-1,-1,-1,-1,-1,-1,-1,-1,-1],"loss_changes":[2.558687E4,4.502584E3,3.85275E3,3.1707422E2,4.0558704E2,9.839287E2,1.4655459E3,4.5200195E1,1.0749243E2,9.815933E1,2.9481427E2,4.27604E2,5.771328E2,0E0,1.2473027E3,2.9493652E1,0E0,7.263306E1,2.0038574E1,8.769429E1,0E0,1.5231036E2,5.6667282E1,0E0,3.3707642E2,2.0373584E2,6.1959106E1,1.630625E2,2.6918994E2,0E0,0E0,0E0,0E0,0E0,0E0,0E0,0E0,0E0,0E0,0E0,0E0,0E0,0E0,0E0,0E0,0E0,0E0,0E0,0E0,0E0,0E0],"parents":[2147483647,0,0,1,1,2,2,3,3,4,4,5,5,6,6,7,7,8,8,9,9,10,10,11,11,12,12,14,14,15,15,17,17,18,18,19,19,21,21,22,22,24,24,25,25,26,26,27,27,28,28],"right_children":[2,4,6,8,10,12,14,16,18,20,22,24,26,-1,28,30,-1,32,34,36,-1,38,40,-1,42,44,46,48,50,-1,-1,-1,-1,-1,-1,-1,-1,-1,-1,-1,-1,-1,-1,-1,-1,-1,-1,-1,-1,-1,-1],"split_conditions":[4.157143E1,1.8E1,7.6E1,1.2E1,2.6428572E1,2.9672197E1,2.2E1,3.179701E-1,3.179701E-1,9E0,3.179701E-1,3.2E1,3.179701E-1,-3.1651622E-1,4.162391E0,7.714286E0,-3.7994897E-1,1.8E1,2.3E1,2.7E1,-3.317388E-1,3.9E1,3.1E1,8.4506446E-1,2.6724094E1,9.6E1,6.5E1,3.3E1,4.2E1,-3.5409597E-1,-2.866424E-1,-2.1627644E-1,-9.541935E-2,-3.1490847E-1,-1.17964365E-1,-4.0058974E-2,-1.4041992E-1,7.284877E-2,2.9166576E-1,-1.20598964E-1,6.542161E-3,2.9537052E-1,1.096974E-1,5.389714E-1,1.0850595E0,3.0678198E-1,9.716653E-2,2.0072518E-1,1.1113718E0,6.27636E-1,8.771181E-2],"split_indices":[10,6,9,9,10,0,6,1,1,4,1,6,1,0,1,10,0,9,7,7,0,9,9,0,0,6,7,6,6,0,0,0,0,0,0,0,0,0,0,0,0,0,0,0,0,0,0,0,0,0,0],"split_type":[0,0,0,0,0,0,0,0,0,0,0,0,0,0,0,0,0,0,0,0,0,0,0,0,0,0,0,0,0,0,0,0,0,0,0,0,0,0,0,0,0,0,0,0,0,0,0,0,0,0,0],"sum_hessian":[8.03E2,5.82E2,2.21E2,3.54E2,2.28E2,1.79E2,4.2E1,2.3E2,1.24E2,1E2,1.28E2,1.08E2,7.1E1,2E0,4E1,1.66E2,6.4E1,8.7E1,3.7E1,9.7E1,3E0,9.2E1,3.6E1,2E0,1.06E2,4.9E1,2.2E1,3.1E1,9E0,5.5E1,1.11E2,6.9E1,1.8E1,3.4E1,3E0,6.4E1,3.3E1,8.4E1,8E0,2.2E1,1.4E1,6.4E1,4.2E1,4.7E1,2E0,1.6E1,6E0,1E0,3E1,4E0,5E0],"tree_param":{"num_deleted":"0","num_feature":"14","num_nodes":"51","size_leaf_vector":"1"}},{"base_weights":[3.497316E-1,-3.44259E0,9.256165E0,-5.633668E0,-1.8475045E-1,5.179597E0,1.4520909E1,-6.318972E0,-4.3977375E0,-1.5202172E0,1.330538E0,4.3482075E0,9.214478E0,1.8666986E1,6.05079E0,-5.8621E0,-7.206592E0,-4.4912214E0,1.705081E-1,-3.552779E0,-9.4184667E-1,-9.121233E-2,3.6431625E0,4.6390405E0,-2.8615909E0,2.1991642E0,1.1707773E1,-3.0596563E-1,1.9510803E1,7.028134E0,1.1373956E0,-3.3091757E-1,-2.6296553E-1,-3.627105E-1,-1.0159498E-1,-1.965786E-1,-3.0558953E-1,8.98593E-2,-2.036746E-1,-8.394375E-3,-1.1837055E-1,-1.278061E-1,3.4194056E-2,2.3295908E-1,-9.06119E-2,2.8820676E-1,1.23592116E-1,-3.755636E-1,8.932352E-3,1.3583346E-1,-2.2646619E-2,2.708242E-1,6.3714784E-1,1.1220514E0,5.225076E-1,3.7873667E-1,8.591008E-2,-1.5138517E-1,1.7044881E-1],"categories":[],"categories_nodes":[],"categories_segments":[],"categories_sizes":[],"default_left":[0,0,0,0,0,0,0,0,0,0,0,0,0,0,0,0,0,0,0,0,0,0,0,0,0,0,0,0,0,0,0,0,0,0,0,0,0,0,0,0,0,0,0,0,0,0,0,0,0,0,0,0,0,0,0,0,0,0,0],"id":22,"left_children":[1,3,5,7,9,11,13,15,17,19,21,23,25,27,29,31,33,35,-1,37,39,41,43,45,47,49,51,-1,53,55,57,-1,-1,-1,-1,-1,-1,-1,-1,-1,-1,-1,-1,-1,-1,-1,-1,-1,-1,-1,-1,-1,-1,-1,-1,-1,-1,-1,-1],"loss_changes":[2.6579848E4,3.9392334E3,4.968379E3,2.5171777E2,4.5328934E2,4.094441E2,3.4690625E3,4.2914062E1,1.0363501E2,1.3654712E2,3.4556964E2,2.50219E2,3.5906006E2,1.5416191E3,1.6007886E2,3.0836426E1,1.7695312E0,8.4805176E1,0E0,7.9751526E1,1.0331541E2,1.27843414E2,2.3015509E2,2.5152686E2,7.202255E1,1.0837772E1,3.5180176E1,0E0,1.5177695E3,7.115491E1,7.655087E1,0E0,0E0,0E0,0E0,0E0,0E0,0E0,0E0,0E0,0E0,0E0,0E0,0E0,0E0,0E0,0E0,0E0,0E0,0E0,0E0,0E0,0E0,0E0,0E0,0E0,0E0,0E0,0E0],"parents":[2147483647,0,0,1,1,2,2,3,3,4,4,5,5,6,6,7,7,8,8,9,9,10,10,11,11,12,12,13,13,14,14,15,15,16,16,17,17,19,19,20,20,21,21,22,22,23,23,24,24,25,25,26,26,28,28,29,29,30,30],"right_children":[2,4,6,8,10,12,14,16,18,20,22,24,26,28,30,32,34,36,-1,38,40,42,44,46,48,50,52,-1,54,56,58,-1,-1,-1,-1,-1,-1,-1,-1,-1,-1,-1,-1,-1,-1,-1,-1,-1,-1,-1,-1,-1,-1,-1,-1,-1,-1,-1,-1],"split_conditions":[4.157143E1,1.9E1,4E0,1.2E1,4E0,9.4E1,6E0,1.3485152E0,3E1,2.2E1,2.8285715E1,6.3E1,5.6E1,2.2E1,3.179701E-1,8E0,1.7E1,6E0,1.705081E-1,1.7E1,1.3485152E0,1.8E1,3.6E1,3.179701E-1,3.179701E-1,1.07E2,3.6E1,-3.0596563E-1,3.179701E-1,9.9E1,7.7E1,-3.3091757E-1,-2.6296553E-1,-3.627105E-1,-1.0159498E-1,-1.965786E-1,-3.0558953E-1,8.98593E-2,-2.036746E-1,-8.394375E-3,-1.1837055E-1,-1.278061E-1,3.4194056E-2,2.3295908E-1,-9.06119E-2,2.8820676E-1,1.23592116E-1,-3.755636E-1,8.932352E-3,1.3583346E-1,-2.2646619E-2,2.708242E-1,6.3714784E-1,1.1220514E0,5.225076E-1,3.7873667E-1,8.591008E-2,-1.5138517E-1,1.7044881E-1],"split_indices":[10,9,2,6,2,8,2,1,6,7,10,6,7,6,1,10,8,2,0,7,1,7,7,1,1,8,6,0,1,7,6,0,0,0,0,0,0,0,0,0,0,0,0,0,0,0,0,0,0,0,0,0,0,0,0,0,0,0,0],"split_type":[0,0,0,0,0,0,0,0,0,0,0,0,0,0,0,0,0,0,0,0,0,0,0,0,0,0,0,0,0,0,0,0,0,0,0,0,0,0,0,0,0,0,0,0,0,0,0,0,0,0,0,0,0,0,0,0,0,0,0],"sum_hessian":[7.85E2,5.51E2,2.34E2,3.29E2,2.22E2,1.33E2,1.01E2,2.09E2,1.2E2,1.18E2,1.04E2,1.12E2,2.1E1,6.7E1,3.4E1,1.43E2,6.6E1,1.19E2,1E0,2.5E1,9.3E1,6.5E1,3.9E1,1.08E2,4E0,6E0,1.5E1,2E0,6.5E1,2.8E1,6E0,5.9E1,8.4E1,6.5E1,1E0,9.1E1,2.8E1,2E0,2.3E1,6.1E1,3.2E1,1.5E1,5E1,3.3E1,6E0,7E1,3.8E1,1E0,3E0,5E0,1E0,3E0,1.2E1,4.8E1,1.7E1,2.5E1,3E0,2E0,4E0],"tree_param":{"num_deleted":"0","num_feature":"14","num_nodes":"59","size_leaf_vector":"1"}},{"base_weights":[-3.251173E-1,-3.451267E0,8.145384E0,-5.381796E0,-3.775661E-1,4.426675E0,1.2991826E1,-6.061089E0,-4.1169486E0,-1.0963066E0,1.1621443E0,2.442276E0,7.3941154E0,1.6546432E1,5.476619E0,-3.4710097E-1,-5.63201E0,-4.67017E0,-3.063042E0,-2.8594167E0,-4.1219226E-1,-8.1210196E-1,1.9597155E0,5.7000935E-1,3.9889266E0,4.4593563E0,9.048988E0,1.1953273E1,2.3703644E1,5.832483E0,-1.388791E-1,-3.1233326E-1,-2.4282022E-1,-2.19921E-1,-3.350997E-1,-2.1143988E-1,-3.442496E-2,-1.6864394E-1,-5.0620228E-2,-1.1007154E-1,2.4969932E-2,-9.4741784E-2,1.6240798E-1,1.1900647E-1,-1.2761414E-1,9.6604906E-2,-9.9423155E-2,1.5018897E-1,3.6336902E-1,2.7875584E-1,-6.9873236E-2,5.6059325E-1,3.4320155E-1,-2.957668E-1,6.510644E-1,1.5690099E-1,1.2715305E0,1.5321323E-1,3.4128258E-1],"categories":[],"categories_nodes":[],"categories_segments":[],"categories_sizes":[],"default_left":[0,0,0,0,0,0,0,0,0,0,0,0,0,0,0,0,0,0,0,0,0,0,0,0,0,0,0,0,0,0,0,0,0,0,0,0,0,0,0,0,0,0,0,0,0,0,0,0,0,0,0,0,0,0,0,0,0,0,0],"id":23,"left_children":[1,3,5,7,9,11,13,15,17,19,21,23,25,27,29,-1,31,33,35,37,39,41,43,45,47,49,51,53,55,57,-1,-1,-1,-1,-1,-1,-1,-1,-1,-1,-1,-1,-1,-1,-1,-1,-1,-1,-1,-1,-1,-1,-1,-1,-1,-1,-1,-1,-1],"loss_changes":[2.1609357E4,3.5345537E3,3.9074414E3,2.8951465E2,2.569107E2,7.239033E2,2.4471729E3,5.01084E1,6.207373E1,1.8939604E2,1.18112045E2,2.2069843E2,2.0247974E2,1.8206133E3,1.1019623E2,0E0,4.7847168E1,1.6902344E1,1.2995901E2,3.831363E1,1.8867055E2,1.0287072E2,1.0661076E2,1.2929712E2,1.1382037E2,1.3848721E2,6.954126E1,8.594668E2,7.72584E2,6.431287E1,0E0,0E0,0E0,0E0,0E0,0E0,0E0,0E0,0E0,0E0,0E0,0E0,0E0,0E0,0E0,0E0,0E0,0E0,0E0,0E0,0E0,0E0,0E0,0E0,0E0,0E0,0E0,0E0,0E0],"parents":[2147483647,0,0,1,1,2,2,3,3,4,4,5,5,6,6,7,7,8,8,9,9,10,10,11,11,12,12,13,13,14,14,16,16,17,17,18,18,19,19,20,20,21,21,22,22,23,23,24,24,25,25,26,26,27,27,28,28,29,29],"right_children":[2,4,6,8,10,12,14,16,18,20,22,24,26,28,30,-1,32,34,36,38,40,42,44,46,48,50,52,54,56,58,-1,-1,-1,-1,-1,-1,-1,-1,-1,-1,-1,-1,-1,-1,-1,-1,-1,-1,-1,-1,-1,-1,-1,-1,-1,-1,-1,-1,-1],"split_conditions":[3.357143E1,1.8E1,4E0,1.2E1,3E1,3.002706E1,6E0,1E0,3.063858E1,1E0,4E0,1.6E1,1E0,2.9672197E1,6E1,-3.4710097E-1,8.714286E0,2.3E1,1.7E1,2.9142857E1,2.3E1,3.1690039E1,3.6E1,1E1,5.3E1,6.5E1,5.4857143E1,2.2E1,1E0,7.6E1,-1.388791E-1,-3.1233326E-1,-2.4282022E-1,-2.19921E-1,-3.350997E-1,-2.1143988E-1,-3.442496E-2,-1.6864394E-1,-5.0620228E-2,-1.1007154E-1,2.4969932E-2,-9.4741784E-2,1.6240798E-1,1.1900647E-1,-1.2761414E-1,9.6604906E-2,-9.9423155E-2,1.5018897E-1,3.6336902E-1,2.7875584E-1,-6.9873236E-2,5.6059325E-1,3.4320155E-1,-2.957668E-1,6.510644E-1,1.5690099E-1,1.2715305E0,1.5321323E-1,3.4128258E-1],"split_indices":[10,6,2,6,9,0,2,13,0,13,2,3,13,0,9,0,10,9,9,10,6,0,7,3,9,7,10,6,13,7,0,0,0,0,0,0,0,0,0,0,0,0,0,0,0,0,0,0,0,0,0,0,0,0,0,0,0,0,0],"split_type":[0,0,0,0,0,0,0,0,0,0,0,0,0,0,0,0,0,0,0,0,0,0,0,0,0,0,0,0,0,0,0,0,0,0,0,0,0,0,0,0,0,0,0,0,0,0,0,0,0,0,0,0,0,0,0,0,0,0,0],"sum_hessian":[8.14E2,5.95E2,2.19E2,3.65E2,2.3E2,1.25E2,9.4E1,2.35E2,1.3E2,1.57E2,7.3E1,7.6E1,4.9E1,6.3E1,3.1E1,7.2E1,1.63E2,8.3E1,4.7E1,4.3E1,1.14E2,2.1E1,5.2E1,3.5E1,4.1E1,1.9E1,3E1,4E1,2.3E1,3E1,1E0,8.7E1,7.6E1,7.6E1,7E0,3.1E1,1.6E1,3.3E1,1E1,3.8E1,7.6E1,1.7E1,4E0,4.8E1,4E0,2.3E1,1.2E1,3.3E1,8E0,1.6E1,3E0,1.3E1,1.7E1,2E0,3.8E1,2E0,2.1E1,9E0,2.1E1],"tree_param":{"num_deleted":"0","num_feature":"14","num_nodes":"59","size_leaf_vector":"1"}},{"base_weights":[-2.7131552E-1,-3.158998E0,7.5698752E0,-5.289162E0,-4.149872E-1,5.220795E0,1.443343E1,-5.9738336E0,-4.5807347E0,-8.939909E-1,3.075039E0,6.825229E0,1.4142278E0,9.743588E0,2.13392E1,-6.065002E0,-3.9724524E0,-4.0131254E0,-2.921281E-1,-1.7556354E0,1.253805E-1,1.9314193E0,6.7201037E0,4.8689733E0,9.107953E0,-7.7642405E-1,3.5483108E0,-2.8590792E-1,1.0888639E1,1.1416012E0,4.6433446E-1,-7.5528026E-2,-3.0424485E-1,-2.1087246E-1,-4.418702E-2,-2.1613923E-1,-1.3374654E-2,-6.862281E-2,-2.57687E-1,4.1129302E-2,-8.109063E-2,1.695572E-1,2.7113417E-2,3.8061932E-1,3.4160234E-2,1.5382072E-1,3.9263546E-1,1.4905493E-1,5.264799E-1,9.194041E-3,-2.9319975E-1,1.3562172E-2,2.1770076E-1,-3.7613235E-2,5.844888E-1],"categories":[],"categories_nodes":[],"categories_segments":[],"categories_sizes":[],"default_left":[0,0,0,0,0,0,0,0,0,0,0,0,0,0,0,0,0,0,0,0,0,0,0,0,0,0,0,0,0,0,0,0,0,0,0,0,0,0,0,0,0,0,0,0,0,0,0,0,0,0,0,0,0,0,0],"id":24,"left_children":[1,3,5,7,9,11,13,15,17,19,21,23,25,27,29,31,33,35,-1,37,39,41,43,45,47,49,51,-1,53,-1,-1,-1,-1,-1,-1,-1,-1,-1,-1,-1,-1,-1,-1,-1,-1,-1,-1,-1,-1,-1,-1,-1,-1,-1,-1],"loss_changes":[1.8002352E4,3.3938628E3,3.3749746E3,1.3124414E2,4.2904156E2,9.736362E2,1.5409775E3,5.648926E0,9.472998E1,1.9784567E2,1.1624628E2,4.6026562E2,2.318316E2,6.642158E2,1.6580469E2,4.7617188E0,3.8401184E0,1.3454846E2,0E0,1.5178079E2,1.2802196E2,4.8855537E1,3.2505493E1,3.127987E2,4.1283105E2,1.2321874E2,6.48277E1,0E0,3.0722437E2,0E0,0E0,0E0,0E0,0E0,0E0,0E0,0E0,0E0,0E0,0E0,0E0,0E0,0E0,0E0,0E0,0E0,0E0,0E0,0E0,0E0,0E0,0E0,0E0,0E0,0E0],"parents":[2147483647,0,0,1,1,2,2,3,3,4,4,5,5,6,6,7,7,8,8,9,9,10,10,11,11,12,12,13,13,14,14,15,15,16,16,17,17,19,19,20,20,21,21,22,22,23,23,24,24,25,25,26,26,28,28],"right_children":[2,4,6,8,10,12,14,16,18,20,22,24,26,28,30,32,34,36,-1,38,40,42,44,46,48,50,52,-1,54,-1,-1,-1,-1,-1,-1,-1,-1,-1,-1,-1,-1,-1,-1,-1,-1,-1,-1,-1,-1,-1,-1,-1,-1,-1,-1],"split_conditions":[3.6E1,1.7E1,7E1,1E1,4.1E1,3.179701E-1,2.9672197E1,1.3E1,3.179701E-1,2.6E1,3.2163006E1,2.9578587E1,2.8749432E1,2.2E1,3.3420887E1,5E0,7E0,7E0,-2.921281E-1,7E0,1.3485152E0,4.8E1,3.403432E1,4E0,3.4E1,9E0,3.6E1,-2.8590792E-1,7.6E1,1.1416012E0,4.6433446E-1,-7.5528026E-2,-3.0424485E-1,-2.1087246E-1,-4.418702E-2,-2.1613923E-1,-1.3374654E-2,-6.862281E-2,-2.57687E-1,4.1129302E-2,-8.109063E-2,1.695572E-1,2.7113417E-2,3.8061932E-1,3.4160234E-2,1.5382072E-1,3.9263546E-1,1.4905493E-1,5.264799E-1,9.194041E-3,-2.9319975E-1,1.3562172E-2,2.1770076E-1,-3.7613235E-2,5.844888E-1],"split_indices":[9,9,9,9,6,1,0,6,1,6,0,0,0,6,0,6,4,4,0,4,1,6,0,2,8,4,7,0,9,0,0,0,0,0,0,0,0,0,0,0,0,0,0,0,0,0,0,0,0,0,0,0,0,0,0],"split_type":[0,0,0,0,0,0,0,0,0,0,0,0,0,0,0,0,0,0,0,0,0,0,0,0,0,0,0,0,0,0,0,0,0,0,0,0,0,0,0,0,0,0,0,0,0,0,0,0,0,0,0,0,0,0,0],"sum_hessian":[7.93E2,5.8E2,2.13E2,3.26E2,2.54E2,1.6E2,5.3E1,1.62E2,1.64E2,2.24E2,3E1,1.12E2,4.8E1,3.3E1,2E1,1.53E2,9E0,1.16E2,4.8E1,1.21E2,1.03E2,2.4E1,6E0,6.2E1,5E1,2.4E1,2.4E1,2E0,3.1E1,1.7E1,3E0,1E0,1.52E2,8E0,1E0,1.07E2,9E0,1.1E2,1.1E1,7.4E1,2.9E1,1.1E1,1.3E1,5E0,1E0,4E1,2.2E1,1E1,4E1,2.1E1,3E0,5E0,1.9E1,2E0,2.9E1],"tree_param":{"num_deleted":"0","num_feature":"14","num_nodes":"55","size_leaf_vector":"1"}},{"base_weights":[2.5572184E-1,-3.0511215E0,8.19108E0,-4.829125E0,-1.3068181E-1,4.149813E0,1.3617992E1,-5.4645267E0,-3.8124814E0,-1.4048373E0,1.5164636E0,3.7498114E0,1.0231113E1,1.729695E1,4.6340284E0,-6.0543633E0,-4.666335E0,-2.6196572E-1,-3.1750867E0,-1.1315464E0,-3.8414255E-1,2.609828E0,-9.75932E-1,4.691113E0,2.0048025E0,1.1730475E1,-6.6105844E-3,1.0025433E1,1.9714561E1,-8.8708185E-2,5.137151E0,-3.26326E-1,-2.6466283E-1,-2.0619169E-1,-2.8441557E-1,-1.819993E-1,2.6875285E-2,-7.734992E-2,1.7837564E-2,-1.370632E-3,1.7188676E-1,-1.4596193E-1,3.409229E-2,1.1116969E-1,3.0332965E-1,1.5056373E-1,-2.7711904E-1,6.5188384E-1,9.71817E-2,5.843207E-1,-1.6411363E-1,-1.7096238E-1,1.0112599E0,8.173212E-2,3.1968E-1],"categories":[],"categories_nodes":[],"categories_segments":[],"categories_sizes":[],"default_left":[0,0,0,0,0,0,0,0,0,0,0,0,0,0,0,0,0,0,0,0,0,0,0,0,0,0,0,0,0,0,0,0,0,0,0,0,0,0,0,0,0,0,0,0,0,0,0,0,0,0,0,0,0,0,0],"id":25,"left_children":[1,3,5,7,9,11,13,15,17,19,21,23,25,27,29,31,33,-1,35,37,-1,39,41,43,45,47,-1,49,51,-1,53,-1,-1,-1,-1,-1,-1,-1,-1,-1,-1,-1,-1,-1,-1,-1,-1,-1,-1,-1,-1,-1,-1,-1,-1],"loss_changes":[2.1411398E4,2.9902783E3,5.2070723E3,2.1042676E2,4.6174997E2,2.9975708E2,3.2911094E3,7.43833E1,1.115979E2,2.0405623E2,2.6415625E2,2.0741565E2,1.2585797E2,1.0680938E3,1.090614E2,9.29541E0,3.0321533E1,0E0,1.7455457E2,7.474986E1,0E0,1.4638135E2,9.863757E1,2.7502686E2,3.8129895E2,6.4213196E1,0E0,4.804353E2,6.952383E2,0E0,1.1716974E2,0E0,0E0,0E0,0E0,0E0,0E0,0E0,0E0,0E0,0E0,0E0,0E0,0E0,0E0,0E0,0E0,0E0,0E0,0E0,0E0,0E0,0E0,0E0,0E0],"parents":[2147483647,0,0,1,1,2,2,3,3,4,4,5,5,6,6,7,7,8,8,9,9,10,10,11,11,12,12,13,13,14,14,15,15,16,16,18,18,19,19,21,21,22,22,23,23,24,24,25,25,27,27,28,28,30,30],"right_children":[2,4,6,8,10,12,14,16,18,20,22,24,26,28,30,32,34,-1,36,38,-1,40,42,44,46,48,-1,50,52,-1,54,-1,-1,-1,-1,-1,-1,-1,-1,-1,-1,-1,-1,-1,-1,-1,-1,-1,-1,-1,-1,-1,-1,-1,-1],"split_conditions":[3.4142857E1,2.2E1,4E0,1.0142858E1,4E0,9.5E1,6E0,4E0,1E0,9E0,6E0,4.7E1,5.8E1,1E0,2.8E1,8.857142E0,6E0,-2.6196572E-1,7E0,3.0714285E1,-3.8414255E-1,1E0,3.3E1,1E0,7E0,5.8E1,-6.6105844E-3,5.1E1,1.7E1,-8.8708185E-2,3E0,-3.26326E-1,-2.6466283E-1,-2.0619169E-1,-2.8441557E-1,-1.819993E-1,2.6875285E-2,-7.734992E-2,1.7837564E-2,-1.370632E-3,1.7188676E-1,-1.4596193E-1,3.409229E-2,1.1116969E-1,3.0332965E-1,1.5056373E-1,-2.7711904E-1,6.5188384E-1,9.71817E-2,5.843207E-1,-1.6411363E-1,-1.7096238E-1,1.0112599E0,8.173212E-2,3.1968E-1],"split_indices":[10,10,2,10,2,7,2,2,13,4,2,9,6,13,8,10,2,0,4,10,0,13,6,13,4,9,0,8,6,0,4,0,0,0,0,0,0,0,0,0,0,0,0,0,0,0,0,0,0,0,0,0,0,0,0],"split_type":[0,0,0,0,0,0,0,0,0,0,0,0,0,0,0,0,0,0,0,0,0,0,0,0,0,0,0,0,0,0,0,0,0,0,0,0,0,0,0,0,0,0,0,0,0,0,0,0,0,0,0,0,0,0,0],"sum_hessian":[8.14E2,5.75E2,2.39E2,3.57E2,2.18E2,1.38E2,1.01E2,2.17E2,1.4E2,1.23E2,9.5E1,1.31E2,7E0,7.1E1,3E1,1.21E2,9.6E1,4.1E1,9.9E1,1.19E2,4E0,6.6E1,2.9E1,8.4E1,4.7E1,6E0,1E0,1.9E1,5.2E1,2E0,2.8E1,7E1,5.1E1,6.6E1,3E1,8.8E1,1.1E1,9.3E1,2.6E1,1.6E1,5E1,1.3E1,1.6E1,3.1E1,5.3E1,4.2E1,5E0,5E0,1E0,1.7E1,2E0,1E0,5.1E1,8E0,2E1],"tree_param":{"num_deleted":"0","num_feature":"14","num_nodes":"55","size_leaf_vector":"1"}},{"base_weights":[1.0166829E-1,-2.9362576E0,7.812866E0,-4.5708203E0,-3.434786E-1,4.594085E0,1.2446936E1,-5.1882014E0,-3.433626E0,-1.4140583E0,1.1661664E0,2.7817452E0,7.080784E0,8.463395E0,1.8464973E1,-4.8049664E0,-2.998677E-1,-2.808078E0,-4.6770744E0,-1.1031579E0,-3.7759218E-1,2.0580177E0,-9.1399956E-1,3.1670682E0,-1.5789719E0,6.2978806E0,6.825118E-1,1.26828785E1,4.0975695E0,2.2921286E1,5.0320597E0,-2.6997873E-1,-2.0127185E-1,-1.5923975E-1,7.8628276E-4,-1.4806493E-1,-2.506739E-1,-8.7449245E-2,5.2526128E-2,-7.630975E-3,1.5331607E-1,2.0749138E-3,-1.6539657E-1,2.0689045E-1,3.86379E-2,7.350299E-2,-4.9682903E-1,3.7080836E-1,1.6940598E-1,1.2314308E-1,7.1417975E-1,-3.316487E-2,3.5219193E-1,7.153732E-1,1.5217268E0,7.470751E-2,4.1355696E-1],"categories":[],"categories_nodes":[],"categories_segments":[],"categories_sizes":[],"default_left":[0,0,0,0,0,0,0,0,0,0,0,0,0,0,0,0,0,0,0,0,0,0,0,0,0,0,0,0,0,0,0,0,0,0,0,0,0,0,0,0,0,0,0,0,0,0,0,0,0,0,0,0,0,0,0,0,0],"id":26,"left_children":[1,3,5,7,9,11,13,15,17,19,21,23,25,27,29,31,-1,33,35,37,-1,39,41,43,45,47,-1,49,51,53,55,-1,-1,-1,-1,-1,-1,-1,-1,-1,-1,-1,-1,-1,-1,-1,-1,-1,-1,-1,-1,-1,-1,-1,-1,-1,-1],"loss_changes":[1.8318684E4,2.375982E3,3.2392646E3,2.2370166E2,3.539796E2,5.7519336E2,2.0013027E3,3.9713867E1,8.3318115E1,2.3592392E2,1.7070407E2,1.3606299E2,1.9691089E2,9.796367E2,1.9798027E3,5.010913E1,0E0,9.047101E1,8.241272E0,1.7291867E2,0E0,1.4312357E2,6.418438E1,1.6414868E2,1.9298566E2,1.4082434E2,0E0,4.228833E2,4.114491E2,1.2472217E3,1.0223738E2,0E0,0E0,0E0,0E0,0E0,0E0,0E0,0E0,0E0,0E0,0E0,0E0,0E0,0E0,0E0,0E0,0E0,0E0,0E0,0E0,0E0,0E0,0E0,0E0,0E0,0E0],"parents":[2147483647,0,0,1,1,2,2,3,3,4,4,5,5,6,6,7,7,8,8,9,9,10,10,11,11,12,12,13,13,14,14,15,15,17,17,18,18,19,19,21,21,22,22,23,23,24,24,25,25,27,27,28,28,29,29,30,30],"right_children":[2,4,6,8,10,12,14,16,18,20,22,24,26,28,30,32,-1,34,36,38,-1,40,42,44,46,48,-1,50,52,54,56,-1,-1,-1,-1,-1,-1,-1,-1,-1,-1,-1,-1,-1,-1,-1,-1,-1,-1,-1,-1,-1,-1,-1,-1,-1,-1],"split_conditions":[3.4142857E1,2.2E1,4E0,1.2E1,4E0,3.002706E1,2.9672197E1,3.179701E-1,3.179701E-1,9E0,6E0,7E0,1.03E2,4E0,6E0,8.714286E0,-2.998677E-1,7E0,2.3684162E1,2.4E1,-3.7759218E-1,2.5E1,2.1E1,6.33E0,2E0,4.9E1,6.825118E-1,4.2E1,1.4E1,1.3E1,4.2E1,-2.6997873E-1,-2.0127185E-1,-1.5923975E-1,7.8628276E-4,-1.4806493E-1,-2.506739E-1,-8.7449245E-2,5.2526128E-2,-7.630975E-3,1.5331607E-1,2.0749138E-3,-1.6539657E-1,2.0689045E-1,3.86379E-2,7.350299E-2,-4.9682903E-1,3.7080836E-1,1.6940598E-1,1.2314308E-1,7.1417975E-1,-3.316487E-2,3.5219193E-1,7.153732E-1,1.5217268E0,7.470751E-2,4.1355696E-1],"split_indices":[10,10,2,6,2,0,0,1,1,4,2,4,8,4,2,10,0,4,0,3,0,6,3,1,2,9,0,9,3,3,8,0,0,0,0,0,0,0,0,0,0,0,0,0,0,0,0,0,0,0,0,0,0,0,0,0,0],"split_type":[0,0,0,0,0,0,0,0,0,0,0,0,0,0,0,0,0,0,0,0,0,0,0,0,0,0,0,0,0,0,0,0,0,0,0,0,0,0,0,0,0,0,0,0,0,0,0,0,0,0,0,0,0,0,0,0,0],"sum_hessian":[7.8E2,5.6E2,2.2E2,3.43E2,2.17E2,1.31E2,8.9E1,2.2E2,1.23E2,1.27E2,9E1,7.7E1,5.4E1,5.5E1,3.4E1,1.54E2,6.6E1,8.4E1,3.9E1,1.22E2,5E0,6.3E1,2.7E1,7.1E1,6E0,5E1,4E0,2.7E1,2.8E1,2.5E1,9E0,8.4E1,7E1,7.4E1,1E1,8E0,3.1E1,9.4E1,2.8E1,2E1,4.3E1,2E1,7E0,5E1,2.1E1,5E0,1E0,3.5E1,1.5E1,4E0,2.3E1,1.1E1,1.7E1,1.3E1,1.2E1,5E0,4E0],"tree_param":{"num_deleted":"0","num_feature":"14","num_nodes":"57","size_leaf_vector":"1"}},{"base_weights":[1.18450984E-1,-3.1042967E0,6.1162395E0,-4.3165812E0,-6.052943E-1,3.2927368E0,9.465484E0,-4.836823E0,-3.4547498E0,-1.6431346E0,5.015281E-1,-1.7642798E0,3.8110404E0,1.438977E1,1.4958018E0,-5.245085E0,-4.1145077E0,-3.979027E0,-2.5029345E0,-1.2965521E0,-4.251481E0,-2.6130803E0,1.7909229E0,-1.8258719E-1,-4.5537338E-1,2.3802178E0,5.979035E0,1.0427345E1,1.9883726E1,-7.368273E-1,4.614043E0,-2.7342618E-1,-2.1775E-1,-1.81488E-1,-2.646796E-1,-8.522684E-2,-2.0794939E-1,-1.3491714E-1,1.8168683E-1,-1.06309295E-1,-1.6181806E-2,-2.5424585E-1,8.123598E-2,-6.1476496E-3,-1.8888363E-1,1.2659083E-1,-1.0833637E-1,-1.2605126E-1,6.709493E-2,1.4632243E-1,-2.1012247E-1,2.5816253E-1,6.552114E-1,6.7117494E-1,2.5738844E-1,1.9902745E-1,1.0695812E0,4.2966496E-2,-1.1951367E-1,1.6773742E-2,3.151553E-1],"categories":[],"categories_nodes":[],"categories_segments":[],"categories_sizes":[],"default_left":[0,0,0,0,0,0,0,0,0,0,0,0,0,0,0,0,0,0,0,0,0,0,0,0,0,0,0,0,0,0,0,0,0,0,0,0,0,0,0,0,0,0,0,0,0,0,0,0,0,0,0,0,0,0,0,0,0,0,0,0,0],"id":27,"left_children":[1,3,5,7,9,11,13,15,17,19,21,23,25,27,29,31,33,35,37,39,41,43,45,-1,47,49,51,53,55,57,59,-1,-1,-1,-1,-1,-1,-1,-1,-1,-1,-1,-1,-1,-1,-1,-1,-1,-1,-1,-1,-1,-1,-1,-1,-1,-1,-1,-1,-1,-1],"loss_changes":[1.5540462E4,1.5818169E3,2.6261367E3,1.4111328E2,1.9840134E2,4.103684E2,5.001837E3,4.2410645E1,5.790686E1,7.494437E1,3.4202042E2,3.5394794E1,4.2005078E2,1.5124463E3,3.5149362E2,3.0332031E0,2.8224854E1,2.8112183E1,7.0961975E1,6.388501E1,5.723593E1,7.203511E1,1.8141763E2,0E0,4.050834E1,3.2152454E2,2.5203394E2,6.901831E2,6.822207E2,8.122883E1,1.4964764E2,0E0,0E0,0E0,0E0,0E0,0E0,0E0,0E0,0E0,0E0,0E0,0E0,0E0,0E0,0E0,0E0,0E0,0E0,0E0,0E0,0E0,0E0,0E0,0E0,0E0,0E0,0E0,0E0,0E0,0E0],"parents":[2147483647,0,0,1,1,2,2,3,3,4,4,5,5,6,6,7,7,8,8,9,9,10,10,11,11,12,12,13,13,14,14,15,15,16,16,17,17,18,18,19,19,20,20,21,21,22,22,24,24,25,25,26,26,27,27,28,28,29,29,30,30],"right_children":[2,4,6,8,10,12,14,16,18,20,22,24,26,28,30,32,34,36,38,40,42,44,46,-1,48,50,52,54,56,58,60,-1,-1,-1,-1,-1,-1,-1,-1,-1,-1,-1,-1,-1,-1,-1,-1,-1,-1,-1,-1,-1,-1,-1,-1,-1,-1,-1,-1,-1,-1],"split_conditions":[3.1E1,1.8E1,4E0,1.2E1,4E0,2.6E1,6E0,4E0,3.063858E1,7E0,2.3E1,4E0,3.002706E1,2.9672197E1,7.6E1,1E1,6E0,2E0,7E0,2.6E1,3E0,5E0,6E0,-1.8258719E-1,2.8E1,7E0,1.03E2,5E0,3.4E1,2.1E1,2.368869E1,-2.7342618E-1,-2.1775E-1,-1.81488E-1,-2.646796E-1,-8.522684E-2,-2.0794939E-1,-1.3491714E-1,1.8168683E-1,-1.06309295E-1,-1.6181806E-2,-2.5424585E-1,8.123598E-2,-6.1476496E-3,-1.8888363E-1,1.2659083E-1,-1.0833637E-1,-1.2605126E-1,6.709493E-2,1.4632243E-1,-2.1012247E-1,2.5816253E-1,6.552114E-1,6.7117494E-1,2.5738844E-1,1.9902745E-1,1.0695812E0,4.2966496E-2,-1.1951367E-1,1.6773742E-2,3.151553E-1],"split_indices":[7,6,2,6,2,6,2,2,0,4,6,4,0,0,7,6,2,4,4,7,2,2,2,0,8,4,8,4,6,3,0,0,0,0,0,0,0,0,0,0,0,0,0,0,0,0,0,0,0,0,0,0,0,0,0,0,0,0,0,0,0],"split_type":[0,0,0,0,0,0,0,0,0,0,0,0,0,0,0,0,0,0,0,0,0,0,0,0,0,0,0,0,0,0,0,0,0,0,0,0,0,0,0,0,0,0,0,0,0,0,0,0,0,0,0,0,0,0,0,0,0,0,0,0,0],"sum_hessian":[8.02E2,5.22E2,2.8E2,3.51E2,1.71E2,1.53E2,1.27E2,2.16E2,1.35E2,8.8E1,8.3E1,1.4E1,1.39E2,7.8E1,4.9E1,1.34E2,8.2E1,8.5E1,5E1,7.9E1,9E0,2.4E1,5.9E1,5E0,9E0,8.5E1,5.4E1,4.7E1,3.1E1,2.9E1,2E1,1.03E2,3.1E1,6.1E1,2.1E1,7E0,7.8E1,4.9E1,1E0,4.2E1,3.7E1,8E0,1E0,8E0,1.6E1,5E1,9E0,4E0,5E0,7.9E1,6E0,5E1,4E0,2.9E1,1.8E1,3E0,2.8E1,1.5E1,1.4E1,6E0,1.4E1],"tree_param":{"num_deleted":"0","num_feature":"14","num_nodes":"61","size_leaf_vector":"1"}},{"base_weights":[-9.2691645E-2,-2.6435318E0,6.223549E0,-4.130533E0,-2.7934942E-1,3.1046097E0,1.083431E1,-4.721645E0,-2.9968219E0,3.409327E-1,-1.8655672E0,1.811902E0,5.274289E0,1.3977254E1,2.7502866E0,-5.127246E0,-4.164882E0,-3.0751755E0,1.6209927E-1,-6.127606E-1,1.6262099E0,-2.377672E0,-8.2639164E-1,2.257129E0,-2.9225068E0,4.0872946E0,8.429558E0,9.984123E0,1.9039927E1,4.0198617E0,5.3818995E-1,-2.5774482E-1,-4.1082766E-2,-1.8283656E-1,-2.5731552E-1,-1.9316532E-1,-1.2020419E-1,-7.701761E-2,2.6409507E-2,1.4163874E-1,-2.8119633E-2,-1.4360753E-1,-8.269761E-2,-1.398304E-1,-1.8405749E-2,-2.455077E-2,1.5831046E-1,7.91955E-2,-5.4805857E-1,3.0049273E-1,8.7361954E-2,2.1047513E-1,5.2704525E-1,5.179747E-1,-1.0699844E-1,1.0444641E0,3.1775156E-1,-9.19611E-2,2.4618438E-1,-1.0096294E-1,2.00549E-1],"categories":[],"categories_nodes":[],"categories_segments":[],"categories_sizes":[],"default_left":[0,0,0,0,0,0,0,0,0,0,0,0,0,0,0,0,0,0,0,0,0,0,0,0,0,0,0,0,0,0,0,0,0,0,0,0,0,0,0,0,0,0,0,0,0,0,0,0,0,0,0,0,0,0,0,0,0,0,0,0,0],"id":28,"left_children":[1,3,5,7,9,11,13,15,17,19,21,23,25,27,29,31,33,35,-1,37,39,41,43,45,47,49,51,53,55,57,59,-1,-1,-1,-1,-1,-1,-1,-1,-1,-1,-1,-1,-1,-1,-1,-1,-1,-1,-1,-1,-1,-1,-1,-1,-1,-1,-1,-1,-1,-1],"loss_changes":[1.282527E4,1.9921594E3,3.25954E3,2.1906152E2,2.170946E2,3.775005E2,2.2990615E3,2.9907715E1,6.960742E1,1.9589235E2,3.102945E1,1.920904E2,1.5655566E2,1.1441523E3,7.3663925E1,1.0883789E1,3.1551514E1,5.4710205E1,0E0,9.818054E1,1.8116013E2,9.922012E0,1.883442E1,2.0391568E2,3.071661E2,1.6495636E2,7.145807E1,1.9965894E2,5.240967E2,9.908084E1,1.0579552E2,0E0,0E0,0E0,0E0,0E0,0E0,0E0,0E0,0E0,0E0,0E0,0E0,0E0,0E0,0E0,0E0,0E0,0E0,0E0,0E0,0E0,0E0,0E0,0E0,0E0,0E0,0E0,0E0,0E0,0E0],"parents":[2147483647,0,0,1,1,2,2,3,3,4,4,5,5,6,6,7,7,8,8,9,9,10,10,11,11,12,12,13,13,14,14,15,15,16,16,17,17,19,19,20,20,21,21,22,22,23,23,24,24,25,25,26,26,27,27,28,28,29,29,30,30],"right_children":[2,4,6,8,10,12,14,16,18,20,22,24,26,28,30,32,34,36,-1,38,40,42,44,46,48,50,52,54,56,58,60,-1,-1,-1,-1,-1,-1,-1,-1,-1,-1,-1,-1,-1,-1,-1,-1,-1,-1,-1,-1,-1,-1,-1,-1,-1,-1,-1,-1,-1,-1],"split_conditions":[3.357143E1,2.2E1,4E0,1.2285714E1,1.3485152E0,3.002706E1,6E0,4E0,2.4E1,4E0,2.9142857E1,7E0,9E1,2.9672197E1,5.7E1,1.2E1,6E0,3E0,1.6209927E-1,2.7428572E1,6E0,1.4E1,2.8235717E0,5.257143E1,2E0,5.1E1,2E1,1.5932499E1,3.3420887E1,2.8E1,4.7E1,-2.5774482E-1,-4.1082766E-2,-1.8283656E-1,-2.5731552E-1,-1.9316532E-1,-1.2020419E-1,-7.701761E-2,2.6409507E-2,1.4163874E-1,-2.8119633E-2,-1.4360753E-1,-8.269761E-2,-1.398304E-1,-1.8405749E-2,-2.455077E-2,1.5831046E-1,7.91955E-2,-5.4805857E-1,3.0049273E-1,8.7361954E-2,2.1047513E-1,5.2704525E-1,5.179747E-1,-1.0699844E-1,1.0444641E0,3.1775156E-1,-9.19611E-2,2.4618438E-1,-1.0096294E-1,2.00549E-1],"split_indices":[10,10,2,10,1,0,2,2,6,2,10,4,8,0,10,6,2,2,0,10,2,3,1,10,2,8,3,1,0,8,8,0,0,0,0,0,0,0,0,0,0,0,0,0,0,0,0,0,0,0,0,0,0,0,0,0,0,0,0,0,0],"split_type":[0,0,0,0,0,0,0,0,0,0,0,0,0,0,0,0,0,0,0,0,0,0,0,0,0,0,0,0,0,0,0,0,0,0,0,0,0,0,0,0,0,0,0,0,0,0,0,0,0,0,0,0,0,0,0,0,0,0,0,0,0],"sum_hessian":[7.94E2,5.66E2,2.28E2,3.47E2,2.19E2,1.37E2,9.1E1,2.26E2,1.21E2,1.58E2,6.1E1,8.7E1,5E1,6.5E1,2.6E1,1.26E2,1E2,1.2E2,1E0,9.1E1,6.7E1,4E1,2.1E1,8E1,7E0,3.8E1,1.2E1,3.8E1,2.7E1,1.6E1,1E1,1.25E2,1E0,6.9E1,3.1E1,5.3E1,6.7E1,5E1,4.1E1,4.3E1,2.4E1,2.2E1,1.8E1,3E0,1.8E1,2E1,6E1,5E0,2E0,2E1,1.8E1,5E0,7E0,3.7E1,1E0,2.3E1,4E0,2E0,1.4E1,6E0,4E0],"tree_param":{"num_deleted":"0","num_feature":"14","num_nodes":"61","size_leaf_vector":"1"}},{"base_weights":[-1.2966765E-1,-2.464491E0,6.0791926E0,-3.9611208E0,-2.2182517E-1,3.9463801E0,9.282124E0,-4.5320816E0,-2.9655347E0,4.50025E-1,-2.031233E0,2.3866048E0,6.0206003E0,6.117977E0,1.3717937E1,-4.9442673E0,-3.9866843E0,-2.4163957E0,-4.085238E0,-4.7413343E-1,1.4713118E0,-2.9357972E0,-7.9567814E-1,2.411254E-1,3.4134483E0,-3.076847E-1,6.5854573E0,7.669982E0,3.2512698E0,1.812538E1,3.7598894E0,-9.421319E-2,-2.5033122E-1,-2.1858422E-1,-1.6677117E-1,-5.8640964E-2,-1.4036147E-1,-2.1024776E-1,-5.8358382E-2,-5.1173497E-2,1.4291786E-1,1.4155617E-1,-4.0662955E-2,-4.8142433E-2,-1.5761635E-1,-1.4684947E-1,1.0384789E-2,7.407435E-2,-2.0701638E-1,4.2794108E-1,1.4031793E-1,4.3690562E-1,1.5285678E-1,7.339198E-1,3.2399306E-1,2.0643036E-1,-1.548256E-1,6.01363E-1,1.2119431E0,-1.7583122E-2,2.9298115E-1],"categories":[],"categories_nodes":[],"categories_segments":[],"categories_sizes":[],"default_left":[0,0,0,0,0,0,0,0,0,0,0,0,0,0,0,0,0,0,0,0,0,0,0,0,0,0,0,0,0,0,0,0,0,0,0,0,0,0,0,0,0,0,0,0,0,0,0,0,0,0,0,0,0,0,0,0,0,0,0,0,0],"id":29,"left_children":[1,3,5,7,9,11,13,15,17,19,21,23,25,27,29,31,33,35,37,39,41,43,45,47,49,-1,51,53,55,57,59,-1,-1,-1,-1,-1,-1,-1,-1,-1,-1,-1,-1,-1,-1,-1,-1,-1,-1,-1,-1,-1,-1,-1,-1,-1,-1,-1,-1,-1,-1],"loss_changes":[1.1510778E4,1.9357876E3,1.445751E3,1.8324072E2,2.8294516E2,4.126931E2,1.1231323E3,2.9295898E1,6.944714E1,1.6114885E2,6.807529E1,1.6881342E2,4.256222E2,2.0641846E2,1.4679839E3,1.3463867E1,1.0241455E1,3.9964417E1,9.415161E0,1.6768471E2,2.539359E2,1.2344025E1,6.076899E1,1.4743307E2,1.3841345E2,0E0,3.8343042E2,1.8013452E2,1.2416725E2,6.032114E2,1.056586E2,0E0,0E0,0E0,0E0,0E0,0E0,0E0,0E0,0E0,0E0,0E0,0E0,0E0,0E0,0E0,0E0,0E0,0E0,0E0,0E0,0E0,0E0,0E0,0E0,0E0,0E0,0E0,0E0,0E0,0E0],"parents":[2147483647,0,0,1,1,2,2,3,3,4,4,5,5,6,6,7,7,8,8,9,9,10,10,11,11,12,12,13,13,14,14,15,15,16,16,17,17,18,18,19,19,20,20,21,21,22,22,23,23,24,24,26,26,27,27,28,28,29,29,30,30],"right_children":[2,4,6,8,10,12,14,16,18,20,22,24,26,28,30,32,34,36,38,40,42,44,46,48,50,-1,52,54,56,58,60,-1,-1,-1,-1,-1,-1,-1,-1,-1,-1,-1,-1,-1,-1,-1,-1,-1,-1,-1,-1,-1,-1,-1,-1,-1,-1,-1,-1,-1,-1],"split_conditions":[4.6285713E1,1.8E1,2.9672197E1,1.0142858E1,1.3485152E0,4E0,4E0,8.714286E0,3.179701E-1,4E0,2.9142857E1,5.1E1,2.2E1,3.179701E-1,6E0,6.571429E0,4E0,1.2E1,2.4E1,3.7E1,6E0,1.6E1,7E0,5.942857E1,2.3002077E1,-3.076847E-1,8.2E1,3.9E1,6.5E1,1.5E1,4.2E1,-9.421319E-2,-2.5033122E-1,-2.1858422E-1,-1.6677117E-1,-5.8640964E-2,-1.4036147E-1,-2.1024776E-1,-5.8358382E-2,-5.1173497E-2,1.4291786E-1,1.4155617E-1,-4.0662955E-2,-4.8142433E-2,-1.5761635E-1,-1.4684947E-1,1.0384789E-2,7.407435E-2,-2.0701638E-1,4.2794108E-1,1.4031793E-1,4.3690562E-1,1.5285678E-1,7.339198E-1,3.2399306E-1,2.0643036E-1,-1.548256E-1,6.01363E-1,1.2119431E0,-1.7583122E-2,2.9298115E-1],"split_indices":[10,6,0,10,1,2,2,10,1,2,10,8,6,1,2,10,2,8,8,8,2,7,3,10,0,0,6,8,7,3,8,0,0,0,0,0,0,0,0,0,0,0,0,0,0,0,0,0,0,0,0,0,0,0,0,0,0,0,0,0,0],"split_type":[0,0,0,0,0,0,0,0,0,0,0,0,0,0,0,0,0,0,0,0,0,0,0,0,0,0,0,0,0,0,0,0,0,0,0,0,0,0,0,0,0,0,0,0,0,0,0,0,0,0,0,0,0,0,0,0,0,0,0,0,0],"sum_hessian":[7.92E2,5.76E2,2.16E2,3.45E2,2.31E2,1.31E2,8.5E1,2.17E2,1.28E2,1.69E2,6.2E1,7.6E1,5.5E1,5.1E1,3.4E1,1.19E2,9.8E1,8.8E1,4E1,8.9E1,8E1,3.5E1,2.7E1,2.5E1,5.1E1,2E0,5.3E1,3.2E1,1.9E1,2.3E1,1.1E1,3E0,1.16E2,5.8E1,4E1,2.2E1,6.6E1,3.8E1,2E0,7.7E1,1.2E1,5E1,3E1,4E0,3.1E1,8E0,1.9E1,2E1,5E0,4E0,4.7E1,3.2E1,2.1E1,3E0,2.9E1,1.7E1,2E0,1.3E1,1E1,4E0,7E0],"tree_param":{"num_deleted":"0","num_feature":"14","num_nodes":"61","size_leaf_vector":"1"}},{"base_weights":[2.5815797E-1,-2.3610826E0,6.7709727E0,-3.7772834E0,-1.6019796E-1,4.077968E0,1.0766154E1,-4.635736E0,-3.269172E0,-2.0421388E0,6.8528956E-1,2.8039286E0,6.2213316E0,4.14211E0,1.2914138E1,-2.7105546E-1,-4.3023486E0,-4.083488E0,-2.8984776E0,-2.5496612E0,-8.941731E-1,-2.8637826E-1,1.7939856E0,3.8178105E0,1.1305734E0,7.55801E-1,5.3504963E0,-6.622009E-1,7.6210604E0,1.5304815E1,6.720933E0,-2.356365E-1,-1.8410246E-1,-2.0604816E-1,-4.0252805E-2,-1.5528937E-1,-7.472998E-2,-1.3849573E-1,-2.731174E-2,-1.3743374E-1,-3.8978185E-3,-1.7506443E-1,9.769187E-3,-2.0370416E-2,1.3757974E-1,6.3816205E-2,2.36948E-1,-2.8407338E-1,1.0964098E-1,4.0518728E-1,1.6336021E-1,-1.4611994E-1,1.3172582E-1,4.6654615E-1,-8.793729E-2,6.0910046E-1,8.7993795E-1,1.1165649E-1,5.717102E-1],"categories":[],"categories_nodes":[],"categories_segments":[],"categories_sizes":[],"default_left":[0,0,0,0,0,0,0,0,0,0,0,0,0,0,0,0,0,0,0,0,0,0,0,0,0,0,0,0,0,0,0,0,0,0,0,0,0,0,0,0,0,0,0,0,0,0,0,0,0,0,0,0,0,0,0,0,0,0,0],"id":30,"left_children":[1,3,5,7,9,11,13,15,17,19,21,23,25,27,29,-1,31,33,35,37,39,41,43,45,47,-1,49,51,53,55,57,-1,-1,-1,-1,-1,-1,-1,-1,-1,-1,-1,-1,-1,-1,-1,-1,-1,-1,-1,-1,-1,-1,-1,-1,-1,-1,-1,-1],"loss_changes":[1.3679948E4,1.7822588E3,2.4306748E3,1.3663916E2,3.5940988E2,3.621272E2,1.2555156E3,9.929199E0,5.5177734E1,3.850345E1,1.685701E2,1.4667975E2,3.1415784E2,4.0618173E2,9.18749E2,0E0,6.57605E0,4.9139404E0,4.0759888E1,1.9667511E1,3.4600254E1,1.3078511E2,1.5501053E2,1.22711426E2,2.6572064E2,0E0,2.4884302E2,8.966267E1,2.4094525E2,1.3662402E2,4.1866284E2,0E0,0E0,0E0,0E0,0E0,0E0,0E0,0E0,0E0,0E0,0E0,0E0,0E0,0E0,0E0,0E0,0E0,0E0,0E0,0E0,0E0,0E0,0E0,0E0,0E0,0E0,0E0,0E0],"parents":[2147483647,0,0,1,1,2,2,3,3,4,4,